{"learner":{"attributes":{"scikit_learn":"{\"_estimator_type\": \"regressor\"}"},"feature_names":["A_Number","A_Relative mess","A_Volume","A_Density","A_Atomic radius (A)","A_Covalent radius (A)","A_Effective ion radius","B1_Number","B1_Relative mess","B1_Volume","B1_Density","B1_Atomic radius (A)","B1_Covalent radius (A)","B1_Effective ion radius","B2_Number","B2_Relative mess","B2_Volume","B2_Density","B2_Atomic radius (A)","B2_Covalent radius (A)","B2_Effective ion radius","X_Number","X_Relative mess","X_Volume","X_Density","X_Atomic radius (A)","X_Covalent radius (A)","X_Effective ion radius"],"feature_types":["int","float","float","float","float","float","float","int","float","float","float","float","float","float","int","float","float","float","float","float","float","int","float","float","float","float","float","float"],"gradient_booster":{"model":{"gbtree_model_param":{"num_parallel_tree":"1","num_trees":"1000"},"iteration_indptr":[0,1,2,3,4,5,6,7,8,9,10,11,12,13,14,15,16,17,18,19,20,21,22,23,24,25,26,27,28,29,30,31,32,33,34,35,36,37,38,39,40,41,42,43,44,45,46,47,48,49,50,51,52,53,54,55,56,57,58,59,60,61,62,63,64,65,66,67,68,69,70,71,72,73,74,75,76,77,78,79,80,81,82,83,84,85,86,87,88,89,90,91,92,93,94,95,96,97,98,99,100,101,102,103,104,105,106,107,108,109,110,111,112,113,114,115,116,117,118,119,120,121,122,123,124,125,126,127,128,129,130,131,132,133,134,135,136,137,138,139,140,141,142,143,144,145,146,147,148,149,150,151,152,153,154,155,156,157,158,159,160,161,162,163,164,165,166,167,168,169,170,171,172,173,174,175,176,177,178,179,180,181,182,183,184,185,186,187,188,189,190,191,192,193,194,195,196,197,198,199,200,201,202,203,204,205,206,207,208,209,210,211,212,213,214,215,216,217,218,219,220,221,222,223,224,225,226,227,228,229,230,231,232,233,234,235,236,237,238,239,240,241,242,243,244,245,246,247,248,249,250,251,252,253,254,255,256,257,258,259,260,261,262,263,264,265,266,267,268,269,270,271,272,273,274,275,276,277,278,279,280,281,282,283,284,285,286,287,288,289,290,291,292,293,294,295,296,297,298,299,300,301,302,303,304,305,306,307,308,309,310,311,312,313,314,315,316,317,318,319,320,321,322,323,324,325,326,327,328,329,330,331,332,333,334,335,336,337,338,339,340,341,342,343,344,345,346,347,348,349,350,351,352,353,354,355,356,357,358,359,360,361,362,363,364,365,366,367,368,369,370,371,372,373,374,375,376,377,378,379,380,381,382,383,384,385,386,387,388,389,390,391,392,393,394,395,396,397,398,399,400,401,402,403,404,405,406,407,408,409,410,411,412,413,414,415,416,417,418,419,420,421,422,423,424,425,426,427,428,429,430,431,432,433,434,435,436,437,438,439,440,441,442,443,444,445,446,447,448,449,450,451,452,453,454,455,456,457,458,459,460,461,462,463,464,465,466,467,468,469,470,471,472,473,474,475,476,477,478,479,480,481,482,483,484,485,486,487,488,489,490,491,492,493,494,495,496,497,498,499,500,501,502,503,504,505,506,507,508,509,510,511,512,513,514,515,516,517,518,519,520,521,522,523,524,525,526,527,528,529,530,531,532,533,534,535,536,537,538,539,540,541,542,543,544,545,546,547,548,549,550,551,552,553,554,555,556,557,558,559,560,561,562,563,564,565,566,567,568,569,570,571,572,573,574,575,576,577,578,579,580,581,582,583,584,585,586,587,588,589,590,591,592,593,594,595,596,597,598,599,600,601,602,603,604,605,606,607,608,609,610,611,612,613,614,615,616,617,618,619,620,621,622,623,624,625,626,627,628,629,630,631,632,633,634,635,636,637,638,639,640,641,642,643,644,645,646,647,648,649,650,651,652,653,654,655,656,657,658,659,660,661,662,663,664,665,666,667,668,669,670,671,672,673,674,675,676,677,678,679,680,681,682,683,684,685,686,687,688,689,690,691,692,693,694,695,696,697,698,699,700,701,702,703,704,705,706,707,708,709,710,711,712,713,714,715,716,717,718,719,720,721,722,723,724,725,726,727,728,729,730,731,732,733,734,735,736,737,738,739,740,741,742,743,744,745,746,747,748,749,750,751,752,753,754,755,756,757,758,759,760,761,762,763,764,765,766,767,768,769,770,771,772,773,774,775,776,777,778,779,780,781,782,783,784,785,786,787,788,789,790,791,792,793,794,795,796,797,798,799,800,801,802,803,804,805,806,807,808,809,810,811,812,813,814,815,816,817,818,819,820,821,822,823,824,825,826,827,828,829,830,831,832,833,834,835,836,837,838,839,840,841,842,843,844,845,846,847,848,849,850,851,852,853,854,855,856,857,858,859,860,861,862,863,864,865,866,867,868,869,870,871,872,873,874,875,876,877,878,879,880,881,882,883,884,885,886,887,888,889,890,891,892,893,894,895,896,897,898,899,900,901,902,903,904,905,906,907,908,909,910,911,912,913,914,915,916,917,918,919,920,921,922,923,924,925,926,927,928,929,930,931,932,933,934,935,936,937,938,939,940,941,942,943,944,945,946,947,948,949,950,951,952,953,954,955,956,957,958,959,960,961,962,963,964,965,966,967,968,969,970,971,972,973,974,975,976,977,978,979,980,981,982,983,984,985,986,987,988,989,990,991,992,993,994,995,996,997,998,999,1000],"tree_info":[0,0,0,0,0,0,0,0,0,0,0,0,0,0,0,0,0,0,0,0,0,0,0,0,0,0,0,0,0,0,0,0,0,0,0,0,0,0,0,0,0,0,0,0,0,0,0,0,0,0,0,0,0,0,0,0,0,0,0,0,0,0,0,0,0,0,0,0,0,0,0,0,0,0,0,0,0,0,0,0,0,0,0,0,0,0,0,0,0,0,0,0,0,0,0,0,0,0,0,0,0,0,0,0,0,0,0,0,0,0,0,0,0,0,0,0,0,0,0,0,0,0,0,0,0,0,0,0,0,0,0,0,0,0,0,0,0,0,0,0,0,0,0,0,0,0,0,0,0,0,0,0,0,0,0,0,0,0,0,0,0,0,0,0,0,0,0,0,0,0,0,0,0,0,0,0,0,0,0,0,0,0,0,0,0,0,0,0,0,0,0,0,0,0,0,0,0,0,0,0,0,0,0,0,0,0,0,0,0,0,0,0,0,0,0,0,0,0,0,0,0,0,0,0,0,0,0,0,0,0,0,0,0,0,0,0,0,0,0,0,0,0,0,0,0,0,0,0,0,0,0,0,0,0,0,0,0,0,0,0,0,0,0,0,0,0,0,0,0,0,0,0,0,0,0,0,0,0,0,0,0,0,0,0,0,0,0,0,0,0,0,0,0,0,0,0,0,0,0,0,0,0,0,0,0,0,0,0,0,0,0,0,0,0,0,0,0,0,0,0,0,0,0,0,0,0,0,0,0,0,0,0,0,0,0,0,0,0,0,0,0,0,0,0,0,0,0,0,0,0,0,0,0,0,0,0,0,0,0,0,0,0,0,0,0,0,0,0,0,0,0,0,0,0,0,0,0,0,0,0,0,0,0,0,0,0,0,0,0,0,0,0,0,0,0,0,0,0,0,0,0,0,0,0,0,0,0,0,0,0,0,0,0,0,0,0,0,0,0,0,0,0,0,0,0,0,0,0,0,0,0,0,0,0,0,0,0,0,0,0,0,0,0,0,0,0,0,0,0,0,0,0,0,0,0,0,0,0,0,0,0,0,0,0,0,0,0,0,0,0,0,0,0,0,0,0,0,0,0,0,0,0,0,0,0,0,0,0,0,0,0,0,0,0,0,0,0,0,0,0,0,0,0,0,0,0,0,0,0,0,0,0,0,0,0,0,0,0,0,0,0,0,0,0,0,0,0,0,0,0,0,0,0,0,0,0,0,0,0,0,0,0,0,0,0,0,0,0,0,0,0,0,0,0,0,0,0,0,0,0,0,0,0,0,0,0,0,0,0,0,0,0,0,0,0,0,0,0,0,0,0,0,0,0,0,0,0,0,0,0,0,0,0,0,0,0,0,0,0,0,0,0,0,0,0,0,0,0,0,0,0,0,0,0,0,0,0,0,0,0,0,0,0,0,0,0,0,0,0,0,0,0,0,0,0,0,0,0,0,0,0,0,0,0,0,0,0,0,0,0,0,0,0,0,0,0,0,0,0,0,0,0,0,0,0,0,0,0,0,0,0,0,0,0,0,0,0,0,0,0,0,0,0,0,0,0,0,0,0,0,0,0,0,0,0,0,0,0,0,0,0,0,0,0,0,0,0,0,0,0,0,0,0,0,0,0,0,0,0,0,0,0,0,0,0,0,0,0,0,0,0,0,0,0,0,0,0,0,0,0,0,0,0,0,0,0,0,0,0,0,0,0,0,0,0,0,0,0,0,0,0,0,0,0,0,0,0,0,0,0,0,0,0,0,0,0,0,0,0,0,0,0,0,0,0,0,0,0,0,0,0,0,0,0,0,0,0,0,0,0,0,0,0,0,0,0,0,0,0,0,0,0,0,0,0,0,0,0,0,0,0,0,0,0,0,0,0,0,0,0,0,0,0,0,0,0,0,0,0,0,0,0,0,0,0,0,0,0,0,0,0,0,0,0,0,0,0,0,0,0,0,0,0,0,0,0,0,0,0,0,0,0,0,0,0,0,0,0,0,0,0,0,0,0,0,0,0,0,0,0,0,0,0,0,0,0,0,0,0,0,0,0,0,0,0,0,0,0,0,0,0,0,0,0,0,0,0,0,0,0,0,0,0,0,0,0,0,0,0,0,0,0,0,0,0,0,0,0,0,0,0,0,0,0,0,0,0,0,0,0,0,0,0,0,0,0,0,0,0,0,0,0,0,0,0,0,0,0,0,0,0,0,0,0,0,0,0,0,0,0,0,0,0,0,0,0,0,0,0,0,0,0,0,0,0,0,0,0,0,0],"trees":[{"base_weights":[-3.342001E-6,-5.092376E-1,7.8572696E-1,-9.625885E-3,-1.2707281E0,8.773833E-1,1.7544901E-1,-1.2900625E0,2.4120344E-1,-5.147384E-1,-1.57639E0,1.0331025E0,3.7415388E-1,-6.0380054E-1,7.0947695E-1,-1.0124696E-1,-6.898869E-2,4.544837E-1,-1.1003075E0,-9.743017E-1,5.550527E-1,-1.8879677E-1,-8.620279E-2,-1.2601586E-2,1.0651815E0,6.6627115E-1,-2.4234217E-1,-7.3637134E-1,6.447799E-3,-2.5468672E-2,4.474154E-2,-1.5775468E-2,1.0476204E-2,-1.0019047E0,6.695936E-1,9.0994155E-3,-6.217246E-2,-6.647503E-2,4.6353623E-2,3.5630926E-2,-1.148868E-2,-4.9041831E-1,1.725892E-2,-5.934393E-2,1.0954343E0,-1.8722696E-2,8.161606E-1,2.719652E-1,-5.174539E-1,-4.2129006E-2,-1.551476E-2,-1.6781833E-2,1.349094E-2,1.1888742E-2,-5.827706E-2,9.439385E-1,2.901977E-1,-3.1849843E-1,1.9030012E-2,-3.4026455E-2,9.0994155E-3,-1.3686324E-2,1.0476204E-2,1.28355E0,6.497215E-1,9.023931E-1,-5.934393E-2,-8.052819E-2,2.128972E-2,-6.8047166E-1,1.0476204E-2,-1.148868E-2,1.0476204E-2,1.0157782E0,-1.607589E-1,-1.9941486E-1,9.3104625E-1,-2.7188433E-2,1.1888742E-2,1.5188238E-3,1.318149E0,-1.0334284E-2,7.976144E-1,9.9140364E-1,-3.767832E-2,1.1888742E-2,-1.4743949E-2,6.447799E-3,-1.148868E-2,-4.017496E-2,1.5188238E-3,1.680801E-1,1.1331841E0,1.1888742E-2,-1.9658886E-2,3.654356E-1,-4.5450288E-1,1.0543293E0,-1.2601586E-2,3.9239405E-3,6.713263E-2,-2.6423767E-2,4.075465E-1,2.2777611E-1,9.023931E-1,1.5188238E-3,1.0553946E0,1.1888742E-2,-1.3686324E-2,2.9224336E-2,-2.5642483E-2,1.3574356E-1,1.2215519E0,-2.1659043E-1,3.1332117E-2,2.902264E-1,-8.947313E-1,5.5529065E-2,2.7070693E-3,2.628713E-2,-3.767832E-2,4.658615E-1,-1.6781833E-2,-1.551476E-2,9.791318E-1,5.5749483E-2,2.7070693E-3,2.628713E-2,-2.0573309E-2,6.2123667E-2,5.170484E-3,7.757039E-3,-1.9658886E-2,2.9333387E-2,-2.0573309E-2,-5.6785055E-2,5.5868854E-3,-1.3686324E-2,1.1888742E-2,2.9087279E-2,-1.883916E-3,-1.2601586E-2,1.1888742E-2,3.9239405E-3,5.0764322E-2],"categories":[],"categories_nodes":[],"categories_segments":[],"categories_sizes":[],"default_left":[0,0,0,0,0,0,0,0,0,0,0,0,0,0,0,0,0,0,0,0,0,0,0,0,0,0,0,0,0,0,0,0,0,0,0,0,0,0,0,0,0,0,0,0,0,0,0,0,0,0,0,0,0,0,0,0,0,0,0,0,0,0,0,0,0,0,0,0,0,0,0,0,0,0,0,0,0,0,0,0,0,0,0,0,0,0,0,0,0,0,0,0,0,0,0,0,0,0,0,0,0,0,0,0,0,0,0,0,0,0,0,0,0,0,0,0,0,0,0,0,0,0,0,0,0,0,0,0,0,0,0,0,0,0,0,0,0,0,0,0,0,0,0,0,0],"id":0,"left_children":[1,3,5,7,9,11,13,15,17,19,21,23,25,27,29,31,-1,33,35,37,39,41,-1,-1,43,45,47,49,-1,51,-1,-1,-1,53,55,-1,-1,-1,57,-1,-1,59,-1,61,63,-1,65,67,69,-1,71,-1,-1,-1,-1,73,75,77,-1,-1,-1,-1,-1,79,81,83,85,87,-1,89,-1,-1,-1,91,93,95,97,-1,-1,-1,99,101,103,105,107,-1,-1,-1,-1,-1,-1,109,111,-1,-1,113,115,117,-1,-1,-1,-1,119,121,123,-1,125,-1,-1,-1,-1,127,129,131,-1,133,135,-1,-1,-1,137,139,-1,141,143,-1,-1,-1,-1,-1,-1,-1,-1,-1,-1,-1,-1,-1,-1,-1,-1,-1,-1,-1,-1],"loss_changes":[3.817074E2,2.200097E2,1.8367157E1,1.2304643E2,3.9165833E1,1.8654556E1,3.6509922E1,4.316002E0,1.0031954E2,5.404458E1,2.6217804E1,1.4300766E1,2.124455E1,5.280837E0,7.1292763E0,2.6385472E0,0E0,1.0191875E2,1.2839226E1,2.6419525E1,7.51289E0,8.352974E0,0E0,0E0,9.055115E0,1.6775364E1,8.829105E0,2.4187412E0,0E0,3.966384E0,0E0,0E0,0E0,1.363541E1,2.2606102E1,0E0,0E0,0E0,6.2674193E0,0E0,0E0,5.7801433E0,0E0,2.2574034E0,4.976349E0,0E0,6.212864E0,2.0467863E0,6.630252E0,0E0,1.8670758E0,0E0,0E0,0E0,0E0,1.4240738E1,4.5347225E1,5.4244637E0,0E0,0E0,0E0,0E0,0E0,5.528839E0,1.011908E1,6.0728035E0,2.7489412E0,1.2071236E0,0E0,3.300498E0,0E0,0E0,0E0,1.0492966E1,3.7658448E0,1.582428E1,1.3448948E1,0E0,0E0,0E0,2.4299622E0,1.134676E1,1.5050545E0,3.144043E0,2.536799E0,0E0,0E0,0E0,0E0,0E0,0E0,1.5514403E1,7.601242E0,0E0,0E0,8.007501E0,2.7277008E1,2.2825546E0,0E0,0E0,0E0,0E0,1.875812E0,7.452903E0,4.8357964E0,0E0,2.2996712E0,0E0,0E0,0E0,0E0,9.812368E0,3.065338E-1,2.628668E0,0E0,1.2162785E1,1.3796482E1,0E0,0E0,0E0,2.536799E0,2.2542248E0,0E0,2.321656E0,6.069641E-1,0E0,0E0,0E0,0E0,0E0,0E0,0E0,0E0,0E0,0E0,0E0,0E0,0E0,0E0,0E0,0E0,0E0,0E0,0E0,0E0],"parents":[2147483647,0,0,1,1,2,2,3,3,4,4,5,5,6,6,7,7,8,8,9,9,10,10,11,11,12,12,13,13,14,14,15,15,17,17,18,18,19,19,20,20,21,21,24,24,25,25,26,26,27,27,29,29,33,33,34,34,38,38,41,41,43,43,44,44,46,46,47,47,48,48,50,50,55,55,56,56,57,57,63,63,64,64,65,65,66,66,67,67,69,69,73,73,74,74,75,75,76,76,80,80,81,81,82,82,83,83,84,84,91,91,92,92,95,95,96,96,97,97,102,102,103,103,104,104,106,106,111,111,112,112,113,113,115,115,116,116,120,120,121,121,123,123,124,124],"right_children":[2,4,6,8,10,12,14,16,18,20,22,24,26,28,30,32,-1,34,36,38,40,42,-1,-1,44,46,48,50,-1,52,-1,-1,-1,54,56,-1,-1,-1,58,-1,-1,60,-1,62,64,-1,66,68,70,-1,72,-1,-1,-1,-1,74,76,78,-1,-1,-1,-1,-1,80,82,84,86,88,-1,90,-1,-1,-1,92,94,96,98,-1,-1,-1,100,102,104,106,108,-1,-1,-1,-1,-1,-1,110,112,-1,-1,114,116,118,-1,-1,-1,-1,120,122,124,-1,126,-1,-1,-1,-1,128,130,132,-1,134,136,-1,-1,-1,138,140,-1,142,144,-1,-1,-1,-1,-1,-1,-1,-1,-1,-1,-1,-1,-1,-1,-1,-1,-1,-1,-1,-1],"split_conditions":[2.37E1,1.49E0,1.838E2,1.18E1,1.645E1,1.02E0,1.04E0,1.53E0,1.823E1,1.69E0,8.9E0,1.52E0,8.762E1,2.072E2,1.45E0,9.2E0,-6.898869E-2,4.787E1,4.58E0,2.23E0,1.673E2,2.223E1,-8.620279E-2,-1.2601586E-2,1.33E0,1.57E0,9.291E1,2.223E1,6.447799E-3,1.73E1,4.474154E-2,-1.5775468E-2,1.0476204E-2,1.081E1,1.83E0,9.0994155E-3,-6.217246E-2,-6.647503E-2,2.073E1,3.5630926E-2,-1.148868E-2,2.89E1,1.725892E-2,1.589E2,1.83E0,-1.8722696E-2,2.62E0,2.67E0,3.37E1,-4.2129006E-2,1.41E0,-1.6781833E-2,1.349094E-2,1.1888742E-2,-5.827706E-2,2.67E0,2.13E1,1.47E0,1.9030012E-2,-3.4026455E-2,9.0994155E-3,-1.3686324E-2,1.0476204E-2,3.91E1,1.18E1,1.785E2,2.698E1,7.1E0,2.128972E-2,2.08E1,1.0476204E-2,-1.148868E-2,1.0476204E-2,8.85E0,1.081E1,8.78E0,2.072E2,-2.7188433E-2,1.1888742E-2,1.5188238E-3,1.52E0,1.36E1,7.5E-1,8.85E0,4.496E1,1.1888742E-2,-1.4743949E-2,6.447799E-3,-1.148868E-2,-4.017496E-2,1.5188238E-3,1.75E0,1.17E0,1.1888742E-2,-1.9658886E-2,9.7E-1,1.55E1,1.187E2,-1.2601586E-2,3.9239405E-3,6.713263E-2,-2.6423767E-2,8.762E1,8.762E1,4.496E1,1.5188238E-3,2.67E0,1.1888742E-2,-1.3686324E-2,2.9224336E-2,-2.5642483E-2,1.55E1,2.09E2,2.698E1,3.1332117E-2,1.409E2,2.574E1,5.5529065E-2,2.7070693E-3,2.628713E-2,1.731E2,6.8E-1,-1.6781833E-2,1.06E0,5.094E1,5.5749483E-2,2.7070693E-3,2.628713E-2,-2.0573309E-2,6.2123667E-2,5.170484E-3,7.757039E-3,-1.9658886E-2,2.9333387E-2,-2.0573309E-2,-5.6785055E-2,5.5868854E-3,-1.3686324E-2,1.1888742E-2,2.9087279E-2,-1.883916E-3,-1.2601586E-2,1.1888742E-2,3.9239405E-3,5.0764322E-2],"split_indices":[2,5,8,2,23,26,13,11,2,19,2,9,1,15,19,2,0,1,16,11,1,9,0,0,18,18,8,9,0,9,0,0,0,1,18,0,0,0,2,0,0,16,0,1,18,0,18,18,16,0,19,0,0,0,0,11,16,19,0,0,0,0,0,1,16,15,8,9,0,9,0,0,0,9,15,16,1,0,0,0,16,9,13,9,8,0,0,0,0,0,0,11,19,0,0,13,23,8,0,0,0,0,8,1,1,0,11,0,0,0,0,23,8,8,0,8,23,0,0,0,8,13,0,13,8,0,0,0,0,0,0,0,0,0,0,0,0,0,0,0,0,0,0,0,0],"split_type":[0,0,0,0,0,0,0,0,0,0,0,0,0,0,0,0,0,0,0,0,0,0,0,0,0,0,0,0,0,0,0,0,0,0,0,0,0,0,0,0,0,0,0,0,0,0,0,0,0,0,0,0,0,0,0,0,0,0,0,0,0,0,0,0,0,0,0,0,0,0,0,0,0,0,0,0,0,0,0,0,0,0,0,0,0,0,0,0,0,0,0,0,0,0,0,0,0,0,0,0,0,0,0,0,0,0,0,0,0,0,0,0,0,0,0,0,0,0,0,0,0,0,0,0,0,0,0,0,0,0,0,0,0,0,0,0,0,0,0,0,0,0,0,0,0],"sum_hessian":[9.1998047E2,5.618354E2,3.5814508E2,3.4964755E2,2.1218784E2,3.0491068E2,5.3234406E1,4.57366E1,3.0391095E2,7.422826E1,1.3795958E2,2.1918579E2,8.5724884E1,2.0743923E1,3.2490482E1,5.748316E0,3.9988285E1,2.7192035E2,3.1990627E1,5.2984478E1,2.1243776E1,1.699502E1,1.2096456E2,2.4992678E0,2.1668652E2,5.723323E1,2.8491653E1,1.7494875E1,3.2490482E0,9.497217E0,2.2993263E1,3.249048E0,2.4992678E0,2.6992092E1,2.4492824E2,2.7491946E0,2.9241432E1,3.54896E1,1.7494875E1,1.8994434E1,2.249341E0,1.1746558E1,5.248462E0,5.248462E0,2.1143805E2,3.9988284E0,5.3234406E1,9.997071E0,1.8494581E1,1.2746265E1,4.7486086E0,3.4989748E0,5.998243E0,2.249341E0,2.474275E1,1.27462654E2,1.1746558E2,8.7474375E0,8.7474375E0,8.997364E0,2.7491946E0,2.7491946E0,2.4992678E0,1.2621302E2,8.522503E1,4.7985943E1,5.248462E0,5.4983892E0,4.498682E0,1.5995314E1,2.4992678E0,2.249341E0,2.4992678E0,1.2096456E2,6.498096E0,7.3228546E1,4.423704E1,6.498096E0,2.249341E0,4.2487555E0,1.2196427E2,1.8494581E1,6.673045E1,4.2987408E1,4.9985356E0,2.249341E0,2.9991212E0,3.2490482E0,2.249341E0,1.1746558E1,4.2487555E0,1.9744215E1,1.01220345E2,2.249341E0,4.248755E0,2.0493996E1,5.273455E1,4.1737774E1,2.4992678E0,3.7489016E0,1.1821536E2,6.2481694E0,1.2246412E1,1.8744509E1,4.7985943E1,4.2487555E0,3.873865E1,2.249341E0,2.7491946E0,1.3745973E1,5.9982424E0,1.1746558E1,8.9473785E1,7.2478766E0,1.32461195E1,2.174363E1,3.0990921E1,3.7738945E1,3.9988284E0,7.2478766E0,4.9985356E0,1.5245533E1,3.4989748E0,4.7486086E0,4.323733E1,3.4739822E1,3.9988284E0,7.2478766E0,4.498682E0,8.5974815E1,3.4989748E0,2.9991214E0,4.248755E0,1.7244947E1,4.498682E0,2.324319E1,7.7477303E0,2.7491946E0,2.249341E0,1.0246998E1,4.9985356E0,2.4992678E0,2.249341E0,3.7489016E0,3.948843E1],"tree_param":{"num_deleted":"0","num_feature":"28","num_nodes":"145","size_leaf_vector":"1"}},{"base_weights":[-1.2341238E-3,-8.3487815E-1,5.9327096E-1,-5.2383456E-2,-1.4135106E0,2.0335063E-1,8.490934E-1,3.395594E-1,-9.487702E-1,3.424774E-1,-7.903368E-2,6.7698866E-1,-6.495286E-1,-1.969863E-2,8.857867E-1,5.0035846E-1,-2.6527977E-1,-1.1248945E0,3.6569204E-2,2.4780577E-2,-1.0193832E-1,8.700718E-1,-2.4492783E-4,1.3577475E-1,-8.3683646E-1,-2.233483E-1,9.228653E-1,7.445834E-1,-2.1294223E-2,3.353441E-1,-3.7405528E-2,-6.227807E-2,3.9979657E-3,1.3387506E-2,-1.3210969E-2,1.1718376E-2,-1.6661532E-2,9.187617E-1,-6.333025E-2,-3.33173E-1,3.6746475E-1,-2.6627117E-1,2.2272527E-2,-9.6892935E-1,1.3155599E-1,-1.9666236E-2,7.3546143E-3,9.4585407E-1,-1.2753856E-2,1.9131148E-2,1.0137314E0,2.9915935E-1,-3.0435747E-2,1.9670855E-2,1.2753136E-3,4.025852E-1,1.0733289E0,1.0191187E-2,-1.36304125E-2,2.8273773E-1,-3.6500264E-2,-6.132853E-2,4.8404473E-1,-2.2179741E-2,7.7551506E-3,-1.108935E0,-7.059328E-3,-5.87347E-2,1.1763993E-2,9.818527E-1,-5.879809E-2,1.8469036E-2,-2.8728428E-1,1.1622982E-1,5.532502E-2,-1.2586609E-1,2.9603994E-2,1.1496404E-2,-1.1426023E-2,-1.8696731E-2,5.863296E-1,3.93751E-3,5.5150576E-2,-5.7999186E-2,2.05871E-2,-1.47071285E-2,1.1734752E-2,2.715349E-2,1.5044555E-3,-1.1919714E0,-3.411817E-2,1.0820349E-2,-1.3346043E-2,8.947234E-3,-1.24142235E-2,1.0269356E0,9.292556E-2,-2.3064446E-1,1.0416233E-2,-3.1634394E-2,1.5676737E-2,1.6575055E-2,-1.1761593E-2,-2.65546E-2,3.1414044E-1,-1.2491993E-2,7.156491E-1,9.034066E-3,-1.24603035E-2,-1.8568714E-1,-6.342077E-2,1.1680125E-2,-1.3288694E-2,1.0547142E0,3.5363194E-2,-1.9602206E-2,3.9124522E-1,7.696764E-3,-2.030189E-2,1.8378174E-2,1.1023237E-2,4.0053908E-2,-1.7594766E-2,-1.8948017E-2,9.100496E-3,4.1533062E-1,1.1261473E0,1.6492035E-2,-1.5894571E-2,2.282815E-2,6.673732E-3,1.1819045E-2,-1.1205864E-2,-1.2513669E-2,1.1680125E-2,-1.52983535E-2,3.28855E-2,5.710527E-2,8.558503E-3,-1.1500532E-2,1.1872865E-2],"categories":[],"categories_nodes":[],"categories_segments":[],"categories_sizes":[],"default_left":[0,0,0,0,0,0,0,0,0,0,0,0,0,0,0,0,0,0,0,0,0,0,0,0,0,0,0,0,0,0,0,0,0,0,0,0,0,0,0,0,0,0,0,0,0,0,0,0,0,0,0,0,0,0,0,0,0,0,0,0,0,0,0,0,0,0,0,0,0,0,0,0,0,0,0,0,0,0,0,0,0,0,0,0,0,0,0,0,0,0,0,0,0,0,0,0,0,0,0,0,0,0,0,0,0,0,0,0,0,0,0,0,0,0,0,0,0,0,0,0,0,0,0,0,0,0,0,0,0,0,0,0,0,0,0,0,0,0,0,0,0],"id":1,"left_children":[1,3,5,7,9,11,13,15,17,19,-1,21,23,-1,25,27,29,31,33,-1,35,37,39,41,43,45,47,49,51,53,-1,-1,-1,-1,-1,-1,-1,55,57,59,61,63,-1,65,67,-1,-1,69,-1,71,73,75,-1,-1,77,79,81,-1,-1,83,-1,85,87,-1,-1,89,91,93,-1,95,97,-1,99,101,-1,103,-1,-1,-1,-1,105,-1,-1,107,-1,-1,-1,-1,-1,109,111,-1,-1,-1,-1,113,115,117,-1,-1,-1,-1,-1,-1,119,-1,121,-1,-1,123,-1,-1,-1,125,127,-1,129,-1,-1,-1,131,-1,133,-1,-1,135,137,-1,-1,-1,139,-1,-1,-1,-1,-1,-1,-1,-1,-1,-1],"loss_changes":[4.7244022E2,1.7840701E2,5.2571777E1,7.094501E1,7.597241E1,1.0555779E2,2.1014496E1,1.6083782E1,1.1315044E1,3.1553457E0,0E0,2.1505463E1,1.5959919E1,0E0,1.6927612E1,1.5328697E1,1.6145773E1,9.315704E0,2.9925804E0,0E0,3.097091E0,6.8045273E0,8.627833E0,6.1241984E0,1.2320671E1,2.510232E0,1.2744232E1,1.548254E1,1.3302227E1,5.733955E-1,0E0,0E0,0E0,0E0,0E0,0E0,0E0,2.4445648E0,2.1884432E0,1.2547493E1,2.1790037E0,3.037314E0,0E0,9.546989E0,7.184086E-1,0E0,0E0,1.2433899E1,0E0,6.0154886E0,2.7044678E0,7.053622E0,0E0,0E0,2.0227816E0,1.1643363E1,1.0099487E0,0E0,0E0,1.5815711E0,0E0,2.7068825E0,4.7906494E-1,0E0,0E0,4.899124E0,2.5058753E0,1.7575053E0,0E0,1.0667603E1,2.055949E0,0E0,9.700401E0,3.1791797E0,0E0,8.717267E0,0E0,0E0,0E0,0E0,8.606791E0,0E0,0E0,1.7806978E0,0E0,0E0,0E0,0E0,0E0,4.3039703E-1,2.4194462E0,0E0,0E0,0E0,0E0,7.358673E0,7.4532833E0,2.71475E0,0E0,0E0,0E0,0E0,0E0,0E0,3.601637E-1,0E0,3.308241E0,0E0,0E0,2.877118E0,0E0,0E0,0E0,4.9138184E0,4.4348907E0,0E0,6.828451E-1,0E0,0E0,0E0,2.0396724E0,0E0,2.2649453E0,0E0,0E0,1.30785475E1,3.8650513E-1,0E0,0E0,0E0,2.1028008E0,0E0,0E0,0E0,0E0,0E0,0E0,0E0,0E0,0E0,0E0],"parents":[2147483647,0,0,1,1,2,2,3,3,4,4,5,5,6,6,7,7,8,8,9,9,11,11,12,12,14,14,15,15,16,16,17,17,18,18,20,20,21,21,22,22,23,23,24,24,25,25,26,26,27,27,28,28,29,29,37,37,38,38,39,39,40,40,41,41,43,43,44,44,47,47,49,49,50,50,51,51,54,54,55,55,56,56,59,59,61,61,62,62,65,65,66,66,67,67,69,69,70,70,72,72,73,73,75,75,80,80,83,83,89,89,90,90,95,95,96,96,97,97,104,104,106,106,109,109,113,113,114,114,116,116,120,120,122,122,125,125,126,126,130,130],"right_children":[2,4,6,8,10,12,14,16,18,20,-1,22,24,-1,26,28,30,32,34,-1,36,38,40,42,44,46,48,50,52,54,-1,-1,-1,-1,-1,-1,-1,56,58,60,62,64,-1,66,68,-1,-1,70,-1,72,74,76,-1,-1,78,80,82,-1,-1,84,-1,86,88,-1,-1,90,92,94,-1,96,98,-1,100,102,-1,104,-1,-1,-1,-1,106,-1,-1,108,-1,-1,-1,-1,-1,110,112,-1,-1,-1,-1,114,116,118,-1,-1,-1,-1,-1,-1,120,-1,122,-1,-1,124,-1,-1,-1,126,128,-1,130,-1,-1,-1,132,-1,134,-1,-1,136,138,-1,-1,-1,140,-1,-1,-1,-1,-1,-1,-1,-1,-1,-1],"split_conditions":[1.39E0,1.27E0,1.64E0,7.43E0,1.63E0,9E0,9E0,1.14E0,1.69E0,1.82E0,-7.903368E-2,1.022E1,1.44E0,-1.969863E-2,1.4E0,1.83E0,9E0,2.89E1,2.145E1,2.4780577E-2,1.4E0,2.74E0,2.09E0,2.09E0,2.7E0,1.88E0,8.3E1,1.72E0,1.85E0,1.95E0,-3.7405528E-2,-6.227807E-2,3.9979657E-3,1.3387506E-2,-1.3210969E-2,1.1718376E-2,-1.6661532E-2,1.34E0,2.99E0,1.71E0,1.241E1,1.69E0,2.2272527E-2,1.21E0,2.08E0,-1.9666236E-2,7.3546143E-3,1.54E1,-1.2753856E-2,7.9E-1,9.1E0,2.05E1,-3.0435747E-2,1.9670855E-2,1.4E0,1.44E0,1.848E0,1.0191187E-2,-1.36304125E-2,1.63E0,-3.6500264E-2,2.74E0,7.3E1,-2.2179741E-2,7.7551506E-3,2.51E0,1.57E0,6.9E-1,1.1763993E-2,2.7E0,5.2E1,1.8469036E-2,1.91E0,2.6E1,5.532502E-2,8.57E0,2.9603994E-2,1.1496404E-2,-1.1426023E-2,-1.8696731E-2,1.21E1,3.93751E-3,5.5150576E-2,4.3E1,2.05871E-2,-1.47071285E-2,1.1734752E-2,2.715349E-2,1.5044555E-3,7.23E0,2.56E0,1.0820349E-2,-1.3346043E-2,8.947234E-3,-1.24142235E-2,1.97E0,2.74E0,7.3E-1,1.0416233E-2,-3.1634394E-2,1.5676737E-2,1.6575055E-2,-1.1761593E-2,-2.65546E-2,4.5E1,-1.2491993E-2,1.51E0,9.034066E-3,-1.24603035E-2,1.64E0,-6.342077E-2,1.1680125E-2,-1.3288694E-2,1.22E0,1.79E0,-1.9602206E-2,1.83E0,7.696764E-3,-2.030189E-2,1.8378174E-2,8.62E-1,4.0053908E-2,2.223E1,-1.8948017E-2,9.100496E-3,2.02E0,2.67E0,1.6492035E-2,-1.5894571E-2,2.282815E-2,7E1,1.1819045E-2,-1.1205864E-2,-1.2513669E-2,1.1680125E-2,-1.52983535E-2,3.28855E-2,5.710527E-2,8.558503E-3,-1.1500532E-2,1.1872865E-2],"split_indices":[6,6,6,3,3,21,21,6,12,18,0,17,6,0,18,18,21,16,3,0,11,18,11,18,18,6,14,18,11,11,0,0,0,0,0,0,0,12,3,11,17,12,0,13,11,0,0,17,0,13,16,16,0,0,18,6,17,0,0,11,0,11,14,0,0,11,11,13,0,11,21,0,12,14,0,17,0,0,0,0,16,0,0,14,0,0,0,0,0,16,11,0,0,0,0,12,11,13,0,0,0,0,0,0,14,0,6,0,0,12,0,0,0,12,18,0,18,0,0,0,3,0,16,0,0,18,11,0,0,0,14,0,0,0,0,0,0,0,0,0,0],"split_type":[0,0,0,0,0,0,0,0,0,0,0,0,0,0,0,0,0,0,0,0,0,0,0,0,0,0,0,0,0,0,0,0,0,0,0,0,0,0,0,0,0,0,0,0,0,0,0,0,0,0,0,0,0,0,0,0,0,0,0,0,0,0,0,0,0,0,0,0,0,0,0,0,0,0,0,0,0,0,0,0,0,0,0,0,0,0,0,0,0,0,0,0,0,0,0,0,0,0,0,0,0,0,0,0,0,0,0,0,0,0,0,0,0,0,0,0,0,0,0,0,0,0,0,0,0,0,0,0,0,0,0,0,0,0,0,0,0,0,0,0,0],"sum_hessian":[9.192686E2,3.7980875E2,5.3945984E2,1.693427E2,2.1046606E2,2.2580484E2,3.13655E2,1.2517186E2,4.4170837E1,1.674429E1,1.9372177E2,1.474345E2,7.837035E1,4.2471323E0,3.0940787E2,1.0120318E2,2.3968683E1,3.5430145E1,8.740689E0,1.0996734E1,5.7475553E0,1.1095885E2,3.6475647E1,1.5993485E1,6.2376865E1,7.2462997E0,3.0216156E2,6.3982914E1,3.722026E1,1.2995552E1,1.0973132E1,3.1682732E1,3.7474155E0,5.9980016E0,2.7426884E0,2.2499852E0,3.4975698E0,1.0571119E2,5.2476573E0,1.9981184E1,1.6494463E1,7.995645E0,7.997841E0,5.4881382E1,7.4954824E0,4.2472634E0,2.9990366E0,2.996628E2,2.4987555E0,2.2241713E1,4.17412E1,2.948029E1,7.739972E0,8.498171E0,4.4973817E0,3.848128E1,6.722991E1,2.4997091E0,2.7479482E0,9.744611E0,1.0236574E1,5.248147E0,1.1246317E1,4.996524E0,2.999121E0,4.5639133E1,9.2422495E0,5.2455764E0,2.2499058E0,2.896692E2,9.993621E0,8.74844E0,1.3493273E1,7.4982295E0,3.4242973E1,1.5983526E1,1.3496763E1,2.249391E0,2.2479904E0,3.9962797E0,3.4485004E1,3.7479928E0,6.348192E1,5.245828E0,4.498782E0,2.9981825E0,2.2499645E0,6.99907E0,4.2472463E0,4.064598E1,4.993151E0,6.4975214E0,2.744728E0,2.7493076E0,2.4962687E0,2.731755E2,1.6493689E1,7.494045E0,2.4995759E0,7.995206E0,5.498067E0,5.248804E0,2.2494254E0,6.488633E0,9.494893E0,2.4969122E0,3.198809E1,2.7494938E0,2.4963343E0,6.985474E0,3.3660507E1,2.249999E0,2.7431521E0,2.646781E2,8.497405E0,4.24757E0,1.2246119E1,2.9987006E0,4.495344E0,4.999376E0,4.495517E0,2.7241514E1,4.746576E0,4.2374125E0,2.7480614E0,3.8240154E1,2.2643794E2,5.2487507E0,3.2486544E0,7.7478E0,4.4983187E0,2.2497194E0,2.2457974E0,2.4965768E0,2.249999E0,8.496242E0,2.9743912E1,2.1943985E2,6.9980865E0,2.2488775E0,2.2494411E0],"tree_param":{"num_deleted":"0","num_feature":"28","num_nodes":"141","size_leaf_vector":"1"}},{"base_weights":[-1.7887001E-3,-4.7171038E-1,7.211117E-1,-1.1006474E-1,-1.1846763E0,-2.2453049E-1,7.9368216E-1,-1.2556914E0,3.0944222E-1,-3.5956113E-3,-1.311544E0,1.8557401E-1,-4.8894402E-1,8.356254E-1,-1.7222387E-1,-1.3533981E0,-2.2304226E-1,-5.531752E-2,5.743189E-1,3.360887E-1,-2.2888703E-2,-3.445615E-1,-7.954065E-2,-1.1215657E-2,1.8472368E-2,-2.9316008E-2,4.3275647E-4,-1.3990436E-1,8.609953E-1,-3.4244907E-1,1.0349332E-2,-7.032671E-2,-2.2843319E-1,-2.2973923E-2,1.5474056E-1,6.831225E-1,-3.738667E-2,-1.3011853E-2,2.7818501E-2,-8.0655324E-1,5.0808275E-1,1.17121795E-2,-1.8483104E-2,4.2518103E-1,9.576665E-1,2.6792095E-3,-2.2729209E-2,4.1751787E-3,-1.758819E-2,-1.7201959E-3,1.1709259E-2,-4.060604E-1,7.5695807E-1,-5.362123E-2,1.1832004E-2,2.8158424E-2,1.5125951E-3,6.4339477E-1,-4.5832404E-1,1.0295402E0,3.4017542E-1,-2.909701E-2,7.7228225E-3,3.816327E-1,9.7635484E-1,-5.0632343E-2,8.0622315E-1,-3.2131847E-2,8.591096E-3,3.2732202E-4,1.0499741E0,6.837707E-1,-2.8246427E-2,7.402943E-1,-1.5049769E-1,5.0300777E-2,9.499191E-3,-2.3089208E-2,1.6719254E-2,3.0890226E-3,8.3414763E-1,1.0739503E0,1.13527544E-1,4.1506182E-2,2.215671E-2,8.425203E-1,-1.33538395E-2,2.9273158E-1,-5.0166124E-1,1.174984E-2,-1.1221865E-2,5.75941E-2,9.3468684E-1,3.6141095E-1,1.1310356E0,-1.2808514E-2,1.7675491E-2,-1.3737432E-2,1.3036593E-2,-4.1954475E-3,4.7067948E-2,-1.2401809E-2,2.2425434E-2,-3.0919159E-2,7.3198E-3,1.4179207E-2,-1.2813412E-2,3.127943E-3,4.8928175E-2,3.0678203E-2,-1.8615212E-2,5.7754636E-2,8.737174E-4],"categories":[],"categories_nodes":[],"categories_segments":[],"categories_sizes":[],"default_left":[0,0,0,0,0,0,0,0,0,0,0,0,0,0,0,0,0,0,0,0,0,0,0,0,0,0,0,0,0,0,0,0,0,0,0,0,0,0,0,0,0,0,0,0,0,0,0,0,0,0,0,0,0,0,0,0,0,0,0,0,0,0,0,0,0,0,0,0,0,0,0,0,0,0,0,0,0,0,0,0,0,0,0,0,0,0,0,0,0,0,0,0,0,0,0,0,0,0,0,0,0,0,0,0,0,0,0,0,0,0,0,0,0],"id":2,"left_children":[1,3,5,7,9,11,13,15,17,19,21,23,25,27,29,31,33,-1,35,37,-1,39,-1,-1,-1,-1,-1,41,43,45,-1,-1,47,-1,49,51,-1,-1,-1,53,55,-1,-1,57,59,-1,-1,-1,-1,-1,-1,61,63,-1,-1,-1,-1,65,67,69,71,-1,-1,73,75,77,79,-1,-1,-1,81,83,-1,85,87,-1,89,-1,-1,-1,91,93,95,-1,97,99,-1,101,103,-1,-1,105,107,109,111,-1,-1,-1,-1,-1,-1,-1,-1,-1,-1,-1,-1,-1,-1,-1,-1,-1,-1],"loss_changes":[3.2323462E2,1.4645879E2,2.875534E1,1.9947235E2,2.87359E1,5.8766565E0,1.6703262E1,6.0601654E0,1.2607303E2,8.123258E0,3.7565033E1,3.5184326E0,1.4903884E0,1.0466492E1,3.0602005E0,3.9489746E-1,3.883218E0,0E0,4.753984E1,6.432069E0,0E0,3.083937E1,0E0,0E0,0E0,0E0,0E0,3.470342E0,7.146057E0,1.5794001E0,0E0,0E0,1.4501919E0,0E0,5.01258E-1,2.6011665E1,0E0,0E0,0E0,1.7038364E1,5.4549026E-1,0E0,0E0,2.2594942E1,5.5729523E0,0E0,0E0,0E0,0E0,0E0,0E0,4.236512E0,1.4087067E1,0E0,0E0,0E0,0E0,9.757721E0,5.12808E0,4.570877E0,2.2883642E1,0E0,0E0,2.4681442E1,4.0130005E0,7.569845E0,4.9528122E-1,0E0,0E0,0E0,2.8613434E0,4.1144924E0,0E0,1.1465954E1,1.2177797E1,0E0,2.030562E0,0E0,0E0,0E0,3.9428864E0,1.6846924E0,3.712762E0,0E0,3.0416505E0,7.885456E0,0E0,5.1117887E0,4.6380043E0,0E0,0E0,3.026346E0,1.0246925E0,1.1418196E1,4.7074738E0,0E0,0E0,0E0,0E0,0E0,0E0,0E0,0E0,0E0,0E0,0E0,0E0,0E0,0E0,0E0,0E0,0E0,0E0],"parents":[2147483647,0,0,1,1,2,2,3,3,4,4,5,5,6,6,7,7,8,8,9,9,10,10,11,11,12,12,13,13,14,14,15,15,16,16,18,18,19,19,21,21,27,27,28,28,29,29,32,32,34,34,35,35,39,39,40,40,43,43,44,44,51,51,52,52,57,57,58,58,59,59,60,60,63,63,64,64,65,65,66,66,70,70,71,71,73,73,74,74,76,76,80,80,81,81,82,82,84,84,85,85,87,87,88,88,91,91,92,92,93,93,94,94],"right_children":[2,4,6,8,10,12,14,16,18,20,22,24,26,28,30,32,34,-1,36,38,-1,40,-1,-1,-1,-1,-1,42,44,46,-1,-1,48,-1,50,52,-1,-1,-1,54,56,-1,-1,58,60,-1,-1,-1,-1,-1,-1,62,64,-1,-1,-1,-1,66,68,70,72,-1,-1,74,76,78,80,-1,-1,-1,82,84,-1,86,88,-1,90,-1,-1,-1,92,94,96,-1,98,100,-1,102,104,-1,-1,106,108,110,112,-1,-1,-1,-1,-1,-1,-1,-1,-1,-1,-1,-1,-1,-1,-1,-1,-1,-1],"split_conditions":[2.37E1,2.09E0,1.33E0,1.09E1,5E-1,1.57E0,1.665E1,2.479E1,1.72E0,1.589E2,9E0,9.5E-1,1.23E0,9E-1,5.2E1,1.85E0,2.5E1,-5.531752E-2,1.202E1,1.82E0,-2.2888703E-2,2.49E0,-7.954065E-2,-1.1215657E-2,1.8472368E-2,-2.9316008E-2,4.3275647E-4,1.57E0,9.2E0,1.75E0,1.0349332E-2,-7.032671E-2,1.91E0,-2.2973923E-2,2.044E2,1.33E0,-3.738667E-2,-1.3011853E-2,2.7818501E-2,1.69E0,2.08E1,1.17121795E-2,-1.8483104E-2,1.26E0,7.107E1,2.6792095E-3,-2.2729209E-2,4.1751787E-3,-1.758819E-2,-1.7201959E-3,1.1709259E-2,1.185E1,9.4E-1,-5.362123E-2,1.1832004E-2,2.8158424E-2,1.5125951E-3,9.4E-1,1.23E0,1.9E1,1.187E2,-2.909701E-2,7.7228225E-3,1.83E0,1.54E1,1.2E0,1.46E0,-3.2131847E-2,8.591096E-3,3.2732202E-4,2.35E0,3.4E1,-2.8246427E-2,8.6E-1,6.9E-1,5.0300777E-2,5E0,-2.3089208E-2,1.6719254E-2,3.0890226E-3,9.71E-1,1.67E0,1.785E2,4.1506182E-2,5.893E1,1.18E0,-1.33538395E-2,1.087E1,5.2E1,1.174984E-2,-1.1221865E-2,1.45E2,9.122E1,2.06E1,2.35E0,-1.2808514E-2,1.7675491E-2,-1.3737432E-2,1.3036593E-2,-4.1954475E-3,4.7067948E-2,-1.2401809E-2,2.2425434E-2,-3.0919159E-2,7.3198E-3,1.4179207E-2,-1.2813412E-2,3.127943E-3,4.8928175E-2,3.0678203E-2,-1.8615212E-2,5.7754636E-2,8.737174E-4],"split_indices":[2,4,27,2,27,11,17,9,4,15,21,20,20,19,21,19,0,0,3,11,0,11,0,0,0,0,0,11,9,11,0,0,19,0,15,27,0,0,0,19,9,0,0,12,2,0,0,0,0,0,0,17,20,0,0,0,0,20,20,0,15,0,0,11,17,12,19,0,0,0,12,21,0,20,20,0,0,0,0,0,3,11,15,0,15,12,0,9,21,0,0,15,15,9,19,0,0,0,0,0,0,0,0,0,0,0,0,0,0,0,0,0,0],"split_type":[0,0,0,0,0,0,0,0,0,0,0,0,0,0,0,0,0,0,0,0,0,0,0,0,0,0,0,0,0,0,0,0,0,0,0,0,0,0,0,0,0,0,0,0,0,0,0,0,0,0,0,0,0,0,0,0,0,0,0,0,0,0,0,0,0,0,0,0,0,0,0,0,0,0,0,0,0,0,0,0,0,0,0,0,0,0,0,0,0,0,0,0,0,0,0,0,0,0,0,0,0,0,0,0,0,0,0,0,0,0,0,0,0],"sum_hessian":[9.1748865E2,5.596167E2,3.5787198E2,3.843055E2,1.7531117E2,2.296928E1,3.349027E2,9.3924065E1,2.9038147E2,1.870041E1,1.5661076E2,1.0991049E1,1.1978231E1,3.2316272E2,1.17399845E1,8.098147E1,1.2942596E1,3.7253147E1,2.5312831E2,1.3227537E1,5.4728737E0,4.360409E1,1.13006676E2,2.2458284E0,8.74522E0,7.482834E0,4.495398E0,6.2458925E0,3.169168E2,9.240152E0,2.4998322E0,7.326589E1,7.7155724E0,5.6993756E0,7.243221E0,2.4147133E2,1.1656988E1,2.736361E0,1.0491177E1,2.8876678E1,1.4727412E1,2.2499907E0,3.9959018E0,7.419588E1,2.4272095E2,3.9977126E0,5.24244E0,3.741668E0,3.9739044E0,4.993228E0,2.2499928E0,1.0473907E1,2.3099742E2,2.2632214E1,6.244466E0,1.0482826E1,4.2445855E0,6.320515E1,1.0990724E1,2.0725339E2,3.5467552E1,7.477771E0,2.9961371E0,1.02396706E2,1.2860071E2,1.423685E1,4.89683E1,8.24279E0,2.747933E0,4.498313E0,2.0275508E2,2.8721478E1,6.746074E0,5.7195854E1,4.5200848E1,1.2410494E2,4.495766E0,5.245619E0,8.991231E0,3.744847E0,4.5223454E1,1.9525957E2,7.495506E0,1.9973427E1,8.748052E0,5.445212E1,2.7437346E0,2.1231602E1,2.3969244E1,2.2499375E0,2.2458284E0,8.248841E0,3.6974613E1,2.3726995E1,1.7153258E2,2.4990034E0,4.9965024E0,2.7491536E0,5.998898E0,5.496883E0,4.895524E1,2.4965968E0,1.8735004E1,2.097063E1,2.9986129E0,5.7492185E0,2.4996223E0,3.7464063E0,3.3228207E1,1.9730246E1,3.9967487E0,1.6728456E2,4.2480164E0],"tree_param":{"num_deleted":"0","num_feature":"28","num_nodes":"113","size_leaf_vector":"1"}},{"base_weights":[-4.7952337E-3,-7.7579623E-1,5.4253894E-1,-5.477088E-2,-1.3121288E0,1.8871747E-1,7.742397E-1,-1.0385288E0,5.027149E-1,-7.3478214E-2,3.2187086E-1,6.3086987E-1,-6.0902286E-1,8.1838447E-1,-2.3085678E-2,-1.1980746E0,5.641417E-2,1.2413686E-2,6.003842E-1,4.2087838E-1,-2.8172166E-3,-1.2434053E-1,8.884568E-1,-7.6926583E-1,1.4941095E-2,8.714571E-1,-3.61879E-1,5.6398893E-3,-6.524142E-2,-1.4974104E-2,1.6848646E-2,1.6617138E-2,-3.5813856E-1,8.3469784E-1,1.77981E-1,2.4940118E-2,1.2095009E-4,4.583901E-1,-7.260508E-1,-1.1849919E-2,9.444149E-1,1.4779906E-1,-8.8629186E-1,-1.5843892E-2,9.010544E-1,-2.3871912E-2,2.9347038E-3,-2.5571087E-2,5.836597E-3,4.5313906E-2,-1.584892E-2,3.418054E-1,-1.9777907E-2,-1.1363837E-2,1.1369402E-2,-1.53903635E-2,3.364645E-2,3.1896725E-3,-4.1849826E-2,5.0684657E-2,1.9752866E-1,1.1303838E-2,-3.4925073E-2,-9.610888E-1,7.4269525E-3,9.6300215E-1,1.01508684E-1,1.15962885E-2,-1.233433E-2,4.5869863E-1,-1.5819938E-1,-1.1017768E-2,1.1191568E-2,1.7152412E-2,-1.1475611E-1,-1.2386239E-2,1.041448E-2,-1.010932E0,-8.973368E-2,9.862047E-1,-1.1594525E-2,-2.431564E-2,4.2117986E-1,5.451772E-1,1.8063467E-2,8.111502E-3,-1.6780121E-2,1.1140646E-2,-1.6827045E-2,-3.325458E-1,-5.891424E-2,8.890762E-3,-1.3892466E-2,-7.120377E-2,1.0102949E0,-9.767993E-2,5.690803E-1,4.540605E-2,3.2371145E-2,1.022072E-2,-1.1266588E-2,-3.2452147E-2,1.543907E-1,-1.2660165E-2,8.489732E-3,-9.73333E-3,5.137336E-2,1.1029937E-2,-1.5908796E-2,3.09302E-2,2.2944321E-3,-1.5987786E-2,1.7322415E-2,1.6519671E-2,-1.1098462E-2,1.0833218E-2,-1.13722E-2],"categories":[],"categories_nodes":[],"categories_segments":[],"categories_sizes":[],"default_left":[0,0,0,0,0,0,0,0,0,0,0,0,0,0,0,0,0,0,0,0,0,0,0,0,0,0,0,0,0,0,0,0,0,0,0,0,0,0,0,0,0,0,0,0,0,0,0,0,0,0,0,0,0,0,0,0,0,0,0,0,0,0,0,0,0,0,0,0,0,0,0,0,0,0,0,0,0,0,0,0,0,0,0,0,0,0,0,0,0,0,0,0,0,0,0,0,0,0,0,0,0,0,0,0,0,0,0,0,0,0,0,0,0,0,0,0,0],"id":3,"left_children":[1,3,5,7,9,11,13,15,17,-1,19,21,23,25,-1,27,29,31,33,35,-1,37,39,41,-1,43,45,-1,-1,-1,-1,-1,47,49,51,-1,53,55,57,-1,59,61,63,-1,65,-1,-1,-1,-1,-1,67,69,-1,-1,-1,-1,-1,71,-1,-1,73,-1,75,77,-1,79,81,-1,-1,83,85,-1,-1,-1,87,-1,-1,89,91,93,-1,-1,95,97,99,-1,-1,-1,-1,101,-1,-1,-1,103,105,107,109,111,-1,-1,-1,-1,113,-1,-1,115,-1,-1,-1,-1,-1,-1,-1,-1,-1,-1,-1],"loss_changes":[4.0034055E2,1.5107321E2,4.3007736E1,1.10734245E2,6.594681E1,9.191343E1,2.4420044E1,1.3853554E1,6.098797E0,0E0,1.6661034E0,3.3799477E1,1.7723888E1,2.5693909E1,0E0,1.1491898E1,4.260233E0,6.6414385E0,8.168587E0,9.411869E-1,0E0,2.5520319E1,1.1642456E1,1.1400543E1,0E0,1.5954681E1,1.7390444E0,0E0,0E0,0E0,0E0,0E0,2.9242692E0,4.194851E0,7.9509506E0,0E0,1.989402E0,9.964632E0,2.8325138E0,0E0,2.9067001E0,4.8099166E-1,8.482494E0,0E0,1.3809982E1,0E0,0E0,0E0,0E0,0E0,2.2163377E0,4.501545E0,0E0,0E0,0E0,0E0,0E0,1.8981643E0,0E0,0E0,2.0992002E0,0E0,2.0156102E0,1.7255096E0,0E0,1.1869812E1,1.1273684E1,0E0,0E0,1.7255697E0,2.2463627E0,0E0,0E0,0E0,2.9773107E0,0E0,0E0,1.2303467E0,1.9837438E0,8.499573E0,0E0,0E0,3.7052112E0,1.5925055E0,1.950193E0,0E0,0E0,0E0,0E0,7.4733815E0,0E0,0E0,0E0,1.7065209E0,5.0818176E0,2.7714097E0,3.0718708E-1,4.6574316E0,0E0,0E0,0E0,0E0,3.1333637E0,0E0,0E0,1.8966286E0,0E0,0E0,0E0,0E0,0E0,0E0,0E0,0E0,0E0,0E0,0E0],"parents":[2147483647,0,0,1,1,2,2,3,3,4,4,5,5,6,6,7,7,8,8,10,10,11,11,12,12,13,13,15,15,16,16,17,17,18,18,19,19,21,21,22,22,23,23,25,25,26,26,32,32,33,33,34,34,36,36,37,37,38,38,40,40,41,41,42,42,44,44,50,50,51,51,57,57,60,60,62,62,63,63,65,65,66,66,69,69,70,70,74,74,77,77,78,78,79,79,82,82,83,83,84,84,89,89,93,93,94,94,95,95,96,96,97,97,102,102,105,105],"right_children":[2,4,6,8,10,12,14,16,18,-1,20,22,24,26,-1,28,30,32,34,36,-1,38,40,42,-1,44,46,-1,-1,-1,-1,-1,48,50,52,-1,54,56,58,-1,60,62,64,-1,66,-1,-1,-1,-1,-1,68,70,-1,-1,-1,-1,-1,72,-1,-1,74,-1,76,78,-1,80,82,-1,-1,84,86,-1,-1,-1,88,-1,-1,90,92,94,-1,-1,96,98,100,-1,-1,-1,-1,102,-1,-1,-1,104,106,108,110,112,-1,-1,-1,-1,114,-1,-1,116,-1,-1,-1,-1,-1,-1,-1,-1,-1,-1,-1],"split_conditions":[1.39E0,1.27E0,1.64E0,1.18E1,2.239E1,9E0,8.3E1,2.479E1,2.6E1,-7.3478214E-2,1.36E1,1E1,9.1E1,1.54E1,-2.3085678E-2,1.82E0,8.78E0,7.01E0,8.23E0,6.15E0,-2.8172166E-3,1.81E0,1.064E1,1.55E0,1.4941095E-2,9E0,5.2E1,5.6398893E-3,-6.524142E-2,-1.4974104E-2,1.6848646E-2,1.6617138E-2,1.442E2,2.67E0,1.823E1,2.4940118E-2,1.922E2,5.893E1,2.4E1,-1.1849919E-2,2.08E1,5E0,2.24E1,-1.5843892E-2,2.67E0,-2.3871912E-2,2.9347038E-3,-2.5571087E-2,5.836597E-3,4.5313906E-2,1.081E1,1.52E2,-1.9777907E-2,-1.1363837E-2,1.1369402E-2,-1.53903635E-2,3.364645E-2,1.135E1,-4.1849826E-2,5.0684657E-2,6.3E1,1.1303838E-2,6.8E1,8.4E1,7.4269525E-3,2.09E2,5.59E1,1.15962885E-2,-1.233433E-2,1.237E1,8.9E0,-1.1017768E-2,1.1191568E-2,1.7152412E-2,1.72E1,-1.2386239E-2,1.041448E-2,1.645E1,9.291E1,1.52E0,-1.1594525E-2,-2.431564E-2,2.08E1,9.07E0,1.6E1,8.111502E-3,-1.6780121E-2,1.1140646E-2,-1.6827045E-2,2.16E0,-5.891424E-2,8.890762E-3,-1.3892466E-2,7.107E1,1.201E1,1.6E1,1.187E2,1.276E2,3.2371145E-2,1.022072E-2,-1.1266588E-2,-3.2452147E-2,2.56E0,-1.2660165E-2,8.489732E-3,2.1E1,5.137336E-2,1.1029937E-2,-1.5908796E-2,3.09302E-2,2.2944321E-3,-1.5987786E-2,1.7322415E-2,1.6519671E-2,-1.1098462E-2,1.0833218E-2,-1.13722E-2],"split_indices":[6,6,6,2,2,21,7,9,7,0,9,9,7,10,0,10,2,3,10,10,0,11,2,3,0,21,21,0,0,0,0,0,15,11,9,0,15,8,7,0,9,7,10,0,11,0,0,0,0,0,15,15,0,0,0,0,0,3,0,0,7,0,7,7,0,15,2,0,0,10,10,0,0,0,2,0,0,23,15,9,0,0,9,10,21,0,0,0,0,11,0,0,0,2,15,21,15,15,0,0,0,0,11,0,0,7,0,0,0,0,0,0,0,0,0,0,0],"split_type":[0,0,0,0,0,0,0,0,0,0,0,0,0,0,0,0,0,0,0,0,0,0,0,0,0,0,0,0,0,0,0,0,0,0,0,0,0,0,0,0,0,0,0,0,0,0,0,0,0,0,0,0,0,0,0,0,0,0,0,0,0,0,0,0,0,0,0,0,0,0,0,0,0,0,0,0,0,0,0,0,0,0,0,0,0,0,0,0,0,0,0,0,0,0,0,0,0,0,0,0,0,0,0,0,0,0,0,0,0,0,0,0,0,0,0,0,0],"sum_hessian":[9.1472925E2,3.7682278E2,5.379065E2,1.6872768E2,2.0809511E2,2.2506482E2,3.1284164E2,5.5724834E1,1.13002846E2,1.9136765E2,1.6727459E1,1.4709343E2,7.797139E1,3.0759857E2,5.243072E0,4.724018E1,8.484652E0,2.1954035E1,9.104881E1,1.1737298E1,4.9901605E0,3.9647156E1,1.0744628E2,6.8479164E1,9.492224E0,2.9861856E2,8.980004E0,3.4849243E0,4.3755257E1,3.23471E0,5.249942E0,1.2722544E1,9.231492E0,4.7890198E1,4.315861E1,7.242683E0,4.4946156E0,2.2198273E1,1.7448881E1,2.484152E0,1.0496213E2,7.243754E0,6.1235413E1,3.2469134E0,2.9537164E2,5.2413187E0,3.7386858E0,5.989603E0,3.2418883E0,4.314527E1,4.7449293E0,3.8912457E1,4.2461553E0,2.2463012E0,2.2483144E0,3.2392313E0,1.8959042E1,4.484402E0,1.2964479E1,9.049532E1,1.4466809E1,2.2475471E0,4.9962068E0,5.8237465E1,2.997947E0,2.7090674E2,2.4464926E1,2.2498603E0,2.495069E0,3.267739E1,6.2350636E0,2.238505E0,2.245897E0,8.725967E0,5.7408423E0,2.4965858E0,2.499621E0,5.251063E1,5.726835E0,2.6865894E2,2.2477891E0,5.4962687E0,1.8968657E1,2.3944721E1,8.73267E0,2.7399988E0,3.4950647E0,2.245008E0,3.495834E0,2.0439016E1,3.2071617E1,2.7485437E0,2.978291E0,5.2437735E0,2.6341516E2,5.488061E0,1.3480596E1,8.236186E0,1.5708536E1,6.4879313E0,2.2447383E0,8.95742E0,1.1481595E1,2.497075E0,2.7466984E0,4.4831157E0,2.5893204E2,2.2427711E0,3.2452898E0,9.482762E0,3.997833E0,3.244218E0,4.991968E0,9.237848E0,2.243746E0,2.2377632E0,2.2453527E0],"tree_param":{"num_deleted":"0","num_feature":"28","num_nodes":"117","size_leaf_vector":"1"}},{"base_weights":[-6.7719934E-3,-4.4166186E-1,6.590253E-1,-1.8615302E-2,-1.0918086E0,1.0311131E0,4.2243928E-1,-1.1477257E0,2.0214158E-1,-4.337258E-1,-1.3624984E0,1.1383282E0,-1.0972174E-1,-8.671755E-2,5.867929E-1,-7.09383E-2,-6.1771255E-2,-1.0293201E0,4.2473784E-1,-9.017763E-1,3.6433095E-1,-1.3864057E-1,-7.4907176E-2,-4.2523403E-2,1.1915047E0,1.9296352E-2,-2.4998754E-2,4.0870965E-1,-5.332315E-1,-2.851719E-1,6.506641E-1,-1.4242965E-2,1.063073E-2,1.2448444E-2,-5.693075E-2,6.256765E-1,-5.0519884E-2,-5.9923798E-2,1.6445546E-1,-1.5499546E-1,3.1022495E-2,2.602178E-1,-2.4903173E-2,1.0771274E-2,-1.2997696E-2,6.176431E-2,1.4309092E-1,-1.2669754E-1,6.193062E-1,-7.381428E-1,1.1332138E-2,-2.5182946E-2,1.1379908E-2,1.033951E-2,7.541249E-1,-1.1114871E-2,1.1809666E-2,6.934672E-1,-2.745225E-1,-1.5918773E-2,2.2757655E-2,1.0744068E-2,-2.1373695E-2,-5.9420057E-2,1.9345095E-2,1.1105899E-2,-1.9379376E-3,-2.3792244E-2,1.6250579E-2,1.3514756E-3,3.391765E-2,-4.8479807E-2,8.950721E-2,-2.9037697E-2,4.013455E-1,8.572036E-1,9.1986865E-2,9.133914E-1,3.4697023E-1,-4.2468706E-1,8.53937E-3,-1.3478129E-2,1.0374627E-2,-1.1420597E-2,1.46993E-2,-2.382252E-3,2.654042E-2,4.8732914E-2,9.328677E-2,-2.6770486E-2,4.676041E-1,9.811624E-1,-1.4217615E-1,5.27855E-1,-3.2549495E-1,6.18469E-3,-2.9241947E-2,1.0302589E-2,-1.242984E-2,3.4578344E-1,-1.9087415E-2,3.3769954E-2,-1.3537531E-2,1.5909758E-1,1.0329722E0,1.1528693E-2,-1.8442264E-2,-2.7763894E-1,7.599121E-1,1.8659016E-2,-3.821102E-2,-1.1708398E-2,5.1645106E-1,2.0722676E-2,-1.4754883E-2,3.7977502E-3,5.4321326E-2,8.28858E-3,-2.9578328E-2,6.355658E-3,4.3524604E-2,2.9041199E-2,1.1155588E-3],"categories":[],"categories_nodes":[],"categories_segments":[],"categories_sizes":[],"default_left":[0,0,0,0,0,0,0,0,0,0,0,0,0,0,0,0,0,0,0,0,0,0,0,0,0,0,0,0,0,0,0,0,0,0,0,0,0,0,0,0,0,0,0,0,0,0,0,0,0,0,0,0,0,0,0,0,0,0,0,0,0,0,0,0,0,0,0,0,0,0,0,0,0,0,0,0,0,0,0,0,0,0,0,0,0,0,0,0,0,0,0,0,0,0,0,0,0,0,0,0,0,0,0,0,0,0,0,0,0,0,0,0,0,0,0,0,0,0,0,0,0,0,0],"id":4,"left_children":[1,3,5,7,9,11,13,15,17,19,21,23,25,27,29,31,-1,33,35,37,39,41,-1,43,45,-1,-1,47,49,51,53,-1,-1,55,-1,57,-1,-1,59,61,-1,63,-1,-1,-1,-1,65,67,69,71,-1,-1,-1,73,75,-1,-1,77,79,-1,-1,-1,-1,81,-1,-1,-1,-1,-1,-1,-1,-1,83,-1,85,87,89,91,93,95,-1,-1,-1,-1,-1,97,-1,-1,99,-1,101,103,105,107,109,-1,-1,-1,-1,111,-1,-1,-1,113,115,-1,-1,117,119,-1,-1,-1,121,-1,-1,-1,-1,-1,-1,-1,-1,-1,-1],"loss_changes":[2.736336E2,1.5683737E2,2.547107E1,9.45508E1,3.003125E1,1.8435425E1,2.2379456E1,4.3643646E0,9.4742195E1,3.9393345E1,2.161496E1,8.610046E0,8.495449E0,2.0860073E1,1.4100838E1,2.4068115E0,0E0,6.358139E0,9.2006874E1,2.2946045E1,7.6957235E0,7.055528E0,0E0,2.170856E0,2.4421082E0,0E0,0E0,6.56403E0,1.034357E1,4.775819E0,1.2342972E1,0E0,0E0,2.043762E0,0E0,1.896106E1,0E0,0E0,6.454262E0,4.4492364E0,0E0,1.4926184E0,0E0,0E0,0E0,0E0,4.9103016E-1,6.9200773E0,9.5350456E-1,9.507277E0,0E0,0E0,0E0,1.4000203E1,9.708443E0,0E0,0E0,1.3240356E1,3.2541356E0,0E0,0E0,0E0,0E0,2.2106154E0,0E0,0E0,0E0,0E0,0E0,0E0,0E0,0E0,2.748944E0,0E0,1.9131923E0,1.0839424E1,1.3882892E1,1.2324028E1,1.7800526E1,3.6430588E0,0E0,0E0,0E0,0E0,0E0,2.1903236E0,0E0,0E0,6.705278E0,0E0,8.421368E0,2.8658142E0,3.4095037E0,2.2817368E1,1.6019726E1,0E0,0E0,0E0,0E0,5.342586E0,0E0,0E0,0E0,5.3235583E0,4.8336487E0,0E0,0E0,6.6032743E0,4.0262337E0,0E0,0E0,0E0,7.6448727E-1,0E0,0E0,0E0,0E0,0E0,0E0,0E0,0E0,0E0,0E0],"parents":[2147483647,0,0,1,1,2,2,3,3,4,4,5,5,6,6,7,7,8,8,9,9,10,10,11,11,12,12,13,13,14,14,15,15,17,17,18,18,19,19,20,20,21,21,23,23,24,24,27,27,28,28,29,29,30,30,33,33,35,35,38,38,39,39,41,41,46,46,47,47,48,48,49,49,53,53,54,54,57,57,58,58,63,63,72,72,74,74,75,75,76,76,77,77,78,78,79,79,85,85,88,88,90,90,91,91,92,92,93,93,94,94,99,99,103,103,104,104,107,107,108,108,112,112],"right_children":[2,4,6,8,10,12,14,16,18,20,22,24,26,28,30,32,-1,34,36,38,40,42,-1,44,46,-1,-1,48,50,52,54,-1,-1,56,-1,58,-1,-1,60,62,-1,64,-1,-1,-1,-1,66,68,70,72,-1,-1,-1,74,76,-1,-1,78,80,-1,-1,-1,-1,82,-1,-1,-1,-1,-1,-1,-1,-1,84,-1,86,88,90,92,94,96,-1,-1,-1,-1,-1,98,-1,-1,100,-1,102,104,106,108,110,-1,-1,-1,-1,112,-1,-1,-1,114,116,-1,-1,118,120,-1,-1,-1,122,-1,-1,-1,-1,-1,-1,-1,-1,-1,-1],"split_conditions":[2.37E1,1.49E0,6.15E0,1.18E1,1.645E1,2.49E0,1.34E0,1.53E0,1.72E0,2.23E0,8.9E0,1.46E0,1.389E2,1.75E0,2.698E1,9.2E0,-6.1771255E-2,1.53E0,2.09E0,1.69E0,5.2E1,7.01E0,-7.4907176E-2,1.738E0,2.35E0,1.9296352E-2,-2.4998754E-2,1.442E2,2.7E0,1.589E2,1.67E0,-1.4242965E-2,1.063073E-2,1.65E0,-5.693075E-2,1.665E1,-5.0519884E-2,-5.9923798E-2,2.067E1,5.72E0,3.1022495E-2,5.7E1,-2.4903173E-2,1.0771274E-2,-1.2997696E-2,6.176431E-2,3.37E1,3E1,7.3E-1,2.006E2,1.1332138E-2,-2.5182946E-2,1.1379908E-2,1.373E2,1.673E2,-1.1114871E-2,1.1809666E-2,1.83E0,1.902E2,-1.5918773E-2,2.2757655E-2,1.0744068E-2,-2.1373695E-2,2.51E0,1.9345095E-2,1.1105899E-2,-1.9379376E-3,-2.3792244E-2,1.6250579E-2,1.3514756E-3,3.391765E-2,-4.8479807E-2,1.241E1,-2.9037697E-2,2.08E0,1.65E0,2.16E0,2.67E0,5.9E1,8.547E1,8.53937E-3,-1.3478129E-2,1.0374627E-2,-1.1420597E-2,1.46993E-2,1.67E0,2.654042E-2,4.8732914E-2,2.01E0,-2.6770486E-2,1.02E0,1.42E0,1.081E1,2.16E0,1.92E0,6.18469E-3,-2.9241947E-2,1.0302589E-2,-1.242984E-2,1.57E0,-1.9087415E-2,3.3769954E-2,-1.3537531E-2,3.206E1,1.18E0,1.1528693E-2,-1.8442264E-2,3.206E1,1.187E2,1.8659016E-2,-3.821102E-2,-1.1708398E-2,1.02E0,2.0722676E-2,-1.4754883E-2,3.7977502E-3,5.4321326E-2,8.28858E-3,-2.9578328E-2,6.355658E-3,4.3524604E-2,2.9041199E-2,1.1155588E-3],"split_indices":[2,5,10,2,23,18,12,11,4,18,2,18,15,11,15,2,0,18,4,12,7,10,0,10,12,0,0,15,18,1,11,0,0,12,0,10,0,0,2,10,0,7,0,0,0,0,2,7,26,15,0,0,0,1,15,0,0,18,15,0,0,0,0,18,0,0,0,0,0,0,0,0,10,0,18,12,11,11,7,1,0,0,0,0,0,18,0,0,18,0,26,18,15,18,18,0,0,0,0,18,0,0,0,22,12,0,0,22,1,0,0,0,26,0,0,0,0,0,0,0,0,0,0],"split_type":[0,0,0,0,0,0,0,0,0,0,0,0,0,0,0,0,0,0,0,0,0,0,0,0,0,0,0,0,0,0,0,0,0,0,0,0,0,0,0,0,0,0,0,0,0,0,0,0,0,0,0,0,0,0,0,0,0,0,0,0,0,0,0,0,0,0,0,0,0,0,0,0,0,0,0,0,0,0,0,0,0,0,0,0,0,0,0,0,0,0,0,0,0,0,0,0,0,0,0,0,0,0,0,0,0,0,0,0,0,0,0,0,0,0,0,0,0,0,0,0,0,0,0],"sum_hessian":[9.1094617E2,5.5448615E2,3.5646E2,3.4650452E2,2.0798166E2,1.1636201E2,2.4009799E2,4.4993153E1,3.0151135E2,7.350947E1,1.3447218E2,1.0639994E2,9.962062E0,6.05496E1,1.795484E2,5.7044106E0,3.9288742E1,3.6725494E1,2.6478586E2,4.494208E1,2.8567387E1,1.684685E1,1.17625336E2,4.73172E0,1.0166822E2,4.4714603E0,5.490602E0,2.9384972E1,3.1164627E1,8.234201E0,1.713142E2,3.2067873E0,2.4976234E0,4.9174495E0,3.1808044E1,2.4067638E2,2.4109493E1,3.3509037E1,1.1433041E1,1.1652334E1,1.6915052E1,1.0209444E1,6.6374054E0,2.2359107E0,2.4958093E0,9.46841E1,6.984121E0,1.0207262E1,1.917771E1,2.4928476E1,6.2361503E0,5.9857774E0,2.248424E0,2.6430887E1,1.4488332E2,2.4533992E0,2.4640503E0,2.2745187E2,1.3224494E1,3.688339E0,7.744702E0,6.467077E0,5.185258E0,5.459878E0,4.749566E0,2.2443507E0,4.73977E0,5.2448916E0,4.9623704E0,3.985241E0,1.5192468E1,1.7202257E1,7.726219E0,7.238494E0,1.9192394E1,1.210332E2,2.3850105E1,1.22124985E2,1.053269E2,1.0478345E1,2.7461498E0,2.9603717E0,2.4995062E0,2.245385E0,5.4808345E0,8.711843E0,1.0480552E1,1.0083909E2,2.019412E1,6.2232833E0,1.7626822E1,1.15883194E2,6.241792E0,8.5881584E1,1.9445312E1,3.2431998E0,7.2351446E0,6.219637E0,2.4922054E0,1.6205744E1,3.988376E0,1.488675E1,2.7400715E0,1.0973319E1,1.04909874E2,2.249579E0,3.9922132E0,1.8461298E1,6.742028E1,8.480232E0,1.0965079E1,2.2465322E0,1.3959211E1,7.9763646E0,2.996954E0,7.7269244E0,9.718295E1,1.0978139E1,7.483159E0,1.5464685E1,5.1955597E1,9.711817E0,4.2473946E0],"tree_param":{"num_deleted":"0","num_feature":"28","num_nodes":"123","size_leaf_vector":"1"}},{"base_weights":[-9.405068E-3,6.648348E-1,-3.3437487E-1,7.116005E-1,-2.3150802E-2,-6.733116E-2,-1.7387395E-1,-1.5666083E-2,7.415091E-1,2.262229E-1,-5.151238E-1,7.750624E-1,-9.186818E-2,5.3354007E-1,-3.711593E-1,-1.1720829E0,2.1411116E-1,-9.497366E-2,7.976595E-1,-2.0261418E-2,1.3704901E-2,-5.820441E-3,6.800873E-1,-7.3472726E-1,2.304528E-1,-1.2719008E0,-2.3986378E-1,6.0152614E-1,-9.1654855E-1,-1.4442864E-2,9.348115E-3,8.113584E-1,8.93073E-2,4.3850124E-1,-4.977711E-1,-1.2207236E-1,7.59747E-1,-8.810312E-1,1.4906377E-1,4.597801E-1,-2.0619027E-2,-1.842257E-1,-6.542765E-2,9.251497E-3,-4.4734645E-1,6.8238574E-1,-2.3339836E-1,9.2866635E-3,-5.294311E-2,5.139827E-1,9.296857E-1,1.761351E-2,-1.3835901E-2,-1.3371196E-1,3.0586457E-2,-4.2108078E-2,1.8514456E-2,-2.1077184E-2,1.27204135E-2,5.4992195E-2,8.7754357E-1,-2.562763E-2,-1.032502E0,1.1163376E-2,-3.1328738E-2,2.1883298E-2,3.120274E-2,-1.87023E-2,9.228337E-3,-3.040711E-2,6.6201068E-3,-1.4966679E-1,7.501001E-1,6.4312047E-3,-1.9354811E-2,7.464185E-1,-2.5371355E-1,9.963859E-1,2.955968E-1,8.595638E-3,-1.5977113E-2,-3.2001027E-1,3.500503E-1,9.1584E-1,-7.5302314E-4,-1.5733635E-2,1.2701074E-2,-5.7356924E-2,4.6535293E-3,-1.1720129E-2,9.936004E-3,2.8832877E-1,-1.6831147E-2,7.398281E-3,-1.5802916E-2,8.1260073E-1,1.4427531E-1,-1.3120787E-1,8.317938E-1,-4.0804517E-2,2.4467977E-2,5.2439004E-2,2.8330597E-1,5.098651E-1,-1.700755E-2,9.31936E-3,-2.5632167E-2,-6.266407E-2,2.3947867E-2,1.5664438E-3,9.4371206E-1,4.4262013E-4,1.7335473E-2,1.4213263E-3,4.19687E-2,-2.1543162E-2,2.5905639E-2,7.980326E-3,-1.5230916E-2,4.34421E-2,1.0468465E-3,-1.3800508E-2,2.4241319E-2,-2.5371583E-3,3.086481E-2,-1.3952392E-2,1.0743185E-2,1.9075101E-3,4.861379E-2,-1.1165185E-2,1.1186464E-2],"categories":[],"categories_nodes":[],"categories_segments":[],"categories_sizes":[],"default_left":[0,0,0,0,0,0,0,0,0,0,0,0,0,0,0,0,0,0,0,0,0,0,0,0,0,0,0,0,0,0,0,0,0,0,0,0,0,0,0,0,0,0,0,0,0,0,0,0,0,0,0,0,0,0,0,0,0,0,0,0,0,0,0,0,0,0,0,0,0,0,0,0,0,0,0,0,0,0,0,0,0,0,0,0,0,0,0,0,0,0,0,0,0,0,0,0,0,0,0,0,0,0,0,0,0,0,0,0,0,0,0,0,0,0,0,0,0,0,0,0,0,0,0,0,0,0,0,0,0,0,0],"id":5,"left_children":[1,3,5,7,-1,-1,9,-1,11,13,15,17,19,21,23,25,27,29,31,-1,-1,33,35,37,39,41,43,45,47,-1,-1,49,51,53,55,57,59,61,63,65,-1,67,-1,-1,69,71,73,-1,-1,75,77,-1,-1,79,-1,-1,-1,-1,-1,81,83,85,87,-1,89,91,-1,-1,-1,-1,-1,93,95,-1,-1,97,99,101,103,-1,-1,105,107,109,-1,-1,-1,-1,-1,-1,-1,111,-1,-1,-1,113,115,117,119,-1,-1,-1,121,123,-1,-1,-1,125,-1,-1,127,129,-1,-1,-1,-1,-1,-1,-1,-1,-1,-1,-1,-1,-1,-1,-1,-1,-1,-1,-1],"loss_changes":[2.0610854E2,2.17417E1,9.9090675E1,1.3162033E1,0E0,0E0,7.941011E1,0E0,9.5169525E0,5.3459465E1,1.5337921E2,6.9375E0,4.9496713E0,1.4859631E1,2.534453E1,1.0294235E1,8.02838E1,2.1461382E0,1.5035706E0,0E0,0E0,1.613504E1,1.0989449E1,1.1035702E1,1.08347225E1,1.7351227E0,4.672668E0,1.1540478E1,1.0880829E1,0E0,0E0,1.5337677E0,4.010569E0,5.2468133E0,1.5745599E1,4.9747815E0,1.0499222E1,7.437298E0,4.4297403E-1,3.0835838E0,0E0,2.892614E0,0E0,0E0,4.1526437E0,8.873257E0,2.1940541E0,0E0,0E0,2.3943121E1,2.407425E0,0E0,0E0,2.239642E0,0E0,0E0,0E0,0E0,0E0,6.071688E0,4.1891327E0,3.5081804E0,8.431999E0,0E0,1.817965E0,4.5340204E0,0E0,0E0,0E0,0E0,0E0,1.9575958E0,2.442421E0,0E0,0E0,8.858051E0,2.3370304E1,6.0723877E-1,8.513781E0,0E0,0E0,4.1085277E0,2.0635815E0,2.238922E0,0E0,0E0,0E0,0E0,0E0,0E0,0E0,4.4238567E-1,0E0,0E0,0E0,1.7466888E0,1.059458E1,1.9848807E0,2.3190308E0,0E0,0E0,0E0,6.068614E0,2.782586E0,0E0,0E0,0E0,2.3393583E0,0E0,0E0,2.1428833E0,1.9227297E0,0E0,0E0,0E0,0E0,0E0,0E0,0E0,0E0,0E0,0E0,0E0,0E0,0E0,0E0,0E0,0E0,0E0,0E0,0E0],"parents":[2147483647,0,0,1,1,2,2,3,3,6,6,8,8,9,9,10,10,11,11,12,12,13,13,14,14,15,15,16,16,17,17,18,18,21,21,22,22,23,23,24,24,25,25,26,26,27,27,28,28,31,31,32,32,33,33,34,34,35,35,36,36,37,37,38,38,39,39,41,41,44,44,45,45,46,46,49,49,50,50,53,53,59,59,60,60,61,61,62,62,64,64,65,65,71,71,72,72,75,75,76,76,77,77,78,78,81,81,82,82,83,83,91,91,95,95,96,96,97,97,98,98,102,102,103,103,107,107,110,110,111,111],"right_children":[2,4,6,8,-1,-1,10,-1,12,14,16,18,20,22,24,26,28,30,32,-1,-1,34,36,38,40,42,44,46,48,-1,-1,50,52,54,56,58,60,62,64,66,-1,68,-1,-1,70,72,74,-1,-1,76,78,-1,-1,80,-1,-1,-1,-1,-1,82,84,86,88,-1,90,92,-1,-1,-1,-1,-1,94,96,-1,-1,98,100,102,104,-1,-1,106,108,110,-1,-1,-1,-1,-1,-1,-1,112,-1,-1,-1,114,116,118,120,-1,-1,-1,122,124,-1,-1,-1,126,-1,-1,128,130,-1,-1,-1,-1,-1,-1,-1,-1,-1,-1,-1,-1,-1,-1,-1,-1,-1,-1,-1],"split_conditions":[2.99E0,8.3E1,6.972E1,9.7E-1,-2.3150802E-2,-6.733116E-2,7.43E0,-1.5666083E-2,2.35E0,2.62E0,2.044E2,4.5E-1,1.0642E2,9.2E0,1.92E1,1.85E0,2.09E2,1.6E1,8.3E1,-2.0261418E-2,1.3704901E-2,1.82E0,9.7E-1,2.62E0,1.81E0,4.58E0,1.91E0,2.64E0,4.58E0,-1.4442864E-2,9.348115E-3,9.4E-1,2.8E1,1.72E0,2.78E0,8.3E1,2.8E1,7.23E0,1.2E1,9.8E-1,-2.0619027E-2,2.56E0,-6.542765E-2,9.251497E-3,2.51E0,1.33E0,4.1E1,9.2866635E-3,-5.294311E-2,8E-1,1.0642E2,1.761351E-2,-1.3835901E-2,6E0,3.0586457E-2,-4.2108078E-2,1.8514456E-2,-2.1077184E-2,1.27204135E-2,6E1,1.32E0,1.95E0,8.3E1,1.1163376E-2,6E1,7.4E-1,3.120274E-2,-1.87023E-2,9.228337E-3,-3.040711E-2,6.6201068E-3,8.49E0,7.4E1,6.4312047E-3,-1.9354811E-2,7.2E-1,1.19E0,2.67E0,5E1,8.595638E-3,-1.5977113E-2,9.4E0,1.15E0,1E1,-7.5302314E-4,-1.5733635E-2,1.2701074E-2,-5.7356924E-2,4.6535293E-3,-1.1720129E-2,9.936004E-3,6.8E-1,-1.6831147E-2,7.398281E-3,-1.5802916E-2,6.3E-1,1.04E0,2.4E1,4.6E1,-4.0804517E-2,2.4467977E-2,5.2439004E-2,4.008E1,2.9E1,-1.700755E-2,9.31936E-3,-2.5632167E-2,1.589E2,2.3947867E-2,1.5664438E-3,6.9E-1,1.91E0,1.7335473E-2,1.4213263E-3,4.19687E-2,-2.1543162E-2,2.5905639E-2,7.980326E-3,-1.5230916E-2,4.34421E-2,1.0468465E-3,-1.3800508E-2,2.4241319E-2,-2.5371583E-3,3.086481E-2,-1.3952392E-2,1.0743185E-2,1.9075101E-3,4.861379E-2,-1.1165185E-2,1.1186464E-2],"split_indices":[3,7,1,27,0,0,3,0,19,4,1,20,1,16,16,19,1,14,14,0,0,11,27,11,27,16,19,11,16,0,0,13,7,11,11,7,7,16,14,13,0,11,0,0,11,27,14,0,0,13,1,0,0,14,0,0,0,0,0,14,25,11,14,0,7,13,0,0,0,0,0,16,7,0,0,20,20,11,14,0,0,16,20,16,0,0,0,0,0,0,0,13,0,0,0,20,13,7,7,0,0,0,1,14,0,0,0,1,0,0,13,19,0,0,0,0,0,0,0,0,0,0,0,0,0,0,0,0,0,0,0],"split_type":[0,0,0,0,0,0,0,0,0,0,0,0,0,0,0,0,0,0,0,0,0,0,0,0,0,0,0,0,0,0,0,0,0,0,0,0,0,0,0,0,0,0,0,0,0,0,0,0,0,0,0,0,0,0,0,0,0,0,0,0,0,0,0,0,0,0,0,0,0,0,0,0,0,0,0,0,0,0,0,0,0,0,0,0,0,0,0,0,0,0,0,0,0,0,0,0,0,0,0,0,0,0,0,0,0,0,0,0,0,0,0,0,0,0,0,0,0,0,0,0,0,0,0,0,0,0,0,0,0,0,0],"sum_hessian":[9.064248E2,2.890114E2,6.174134E2,2.8352914E2,5.4822674E0,6.730454E1,5.501088E2,3.4715865E0,2.8005756E2,2.558587E2,2.9425015E2,2.7036185E2,9.695702E0,1.7014575E2,8.571296E1,1.4936514E2,1.4488501E2,5.4658628E0,2.64896E2,4.240734E0,5.4549675E0,3.984027E1,1.3030548E2,5.108165E1,3.463131E1,1.2932332E2,2.004182E1,1.1383558E2,3.1049427E1,2.9913878E0,2.4744751E0,2.5744516E2,7.4508166E0,2.1903978E1,1.7936295E1,1.0953579E1,1.193519E2,4.3872097E1,7.2095556E0,2.9093338E1,5.5379696E0,7.555557E0,1.2176776E2,7.1793113E0,1.286251E1,1.06616035E2,7.219544E0,2.9572885E0,2.809214E1,9.913826E1,1.583069E2,4.7076E0,2.7432165E0,5.991286E0,1.5912692E1,1.3204711E1,4.731583E0,4.9674234E0,5.9861565E0,2.0663324E1,9.8688576E1,9.590093E0,3.4282E1,2.2454157E0,4.96414E0,1.3192229E1,1.590111E1,4.828249E0,2.7273078E0,9.417843E0,3.4446664E0,6.4752736E0,1.0014076E2,2.9781308E0,4.241413E0,7.64597E1,2.2678562E1,1.3445073E2,2.3856173E1,2.7468634E0,3.2444224E0,8.465942E0,1.2197382E1,9.420428E1,4.4843025E0,3.6688595E0,5.921233E0,3.0817598E1,3.4644046E0,2.465769E0,2.4983711E0,9.476753E0,3.7154763E0,2.9969814E0,3.4782922E0,8.551607E1,1.4624693E1,5.9694743E0,7.049023E1,1.19579735E1,1.0720588E1,1.1779263E2,1.6658098E1,2.0360222E1,3.4959514E0,2.4848704E0,5.9810724E0,4.9821863E0,7.215195E0,3.9808705E0,9.0223404E1,4.485716E0,4.991037E0,3.9804566E0,8.1535614E1,4.739656E0,9.885036E0,2.7353902E0,3.234084E0,6.624767E1,4.2425566E0,2.7477913E0,1.3910306E1,4.716813E0,1.5643408E1,2.7471592E0,2.235027E0,3.972971E0,8.6250435E1,2.239904E0,2.245812E0],"tree_param":{"num_deleted":"0","num_feature":"28","num_nodes":"131","size_leaf_vector":"1"}},{"base_weights":[-1.1146545E-2,-7.022888E-1,4.7433677E-1,-5.5782694E-2,-1.1905693E0,-2.7490246E-1,5.5229974E-1,-3.352089E-1,6.366489E-1,2.9639515E-1,-6.6895954E-2,-4.258895E-1,1.7403686E-1,6.010392E-1,-3.368729E-1,4.4710758E-1,-5.7006246E-1,7.482006E-1,-1.1585818E-2,3.9894405E-1,-6.69223E-2,3.9716378E-2,-6.8315387E-1,-1.0983708E-2,1.7672775E-2,4.4727302E-1,8.4437513E-1,-4.5754507E-1,8.171839E-3,6.1629343E-1,-1.30110355E-2,-6.7561066E-1,1.930004E-1,-9.786276E-2,8.7235683E-1,-4.630829E-4,2.404123E-2,9.064413E-3,-1.2826756E-2,-1.8068112E-2,2.968538E-1,-4.036931E-2,2.5864018E-3,5.2576065E-1,-2.1257225E-1,4.6934775E-4,4.3245073E-2,-5.9011704E-1,6.9727064E-3,3.389752E-2,1.3630236E-3,-8.591299E-1,1.6261905E-2,-9.328743E-2,1.6801722E-2,9.5273955E-3,-1.4781776E-2,4.5493167E-2,3.5309598E-3,-3.428749E-2,1.9220252E-2,-5.955801E-3,6.0573995E-1,1.8584944E-1,-5.498556E-1,-3.398946E-2,-5.463881E-4,-1.2746865E-1,-1.1339447E0,2.3374991E-1,-2.6166794E-1,7.866802E-3,-1.31718805E-2,9.796991E-3,-1.1738403E-2,-3.0713552E-1,2.9648235E-1,2.4817947E-1,7.295848E-1,2.8294683E-1,-3.5458922E-2,1.0108754E-2,-3.6668025E-2,2.9009503E-1,-4.849408E-1,-6.0120758E-2,-1.6511995E-1,-1.178645E-2,4.1550648E-1,9.707871E-3,-2.2859152E-2,1.7073469E-1,-3.1185985E-2,2.4883823E-2,-1.7873435E-1,6.2132454E-1,-5.4640573E-1,7.553541E-2,3.829013E-2,1.654209E-4,1.671819E-2,-1.3547565E-2,9.693318E-3,-1.2998096E-2,2.5603566E-2,1.1030423E-2,-3.4176584E-2,7.864202E-3,-1.6743278E-2,4.654896E-4,2.3955412E-2,2.0034496E-2,-1.3479759E-2,1.0375339E-2,-1.9271186E-2,7.614846E-1,6.8292454E-2,6.2190316E-4,-3.1251874E-2,-2.2452475E-1,1.7373556E-2,1.5161674E-3,4.0401496E-2,1.7579716E-2,-9.434504E-3,8.982332E-3,-2.0646071E-2],"categories":[],"categories_nodes":[],"categories_segments":[],"categories_sizes":[],"default_left":[0,0,0,0,0,0,0,0,0,0,0,0,0,0,0,0,0,0,0,0,0,0,0,0,0,0,0,0,0,0,0,0,0,0,0,0,0,0,0,0,0,0,0,0,0,0,0,0,0,0,0,0,0,0,0,0,0,0,0,0,0,0,0,0,0,0,0,0,0,0,0,0,0,0,0,0,0,0,0,0,0,0,0,0,0,0,0,0,0,0,0,0,0,0,0,0,0,0,0,0,0,0,0,0,0,0,0,0,0,0,0,0,0,0,0,0,0,0,0,0,0,0,0,0,0,0,0],"id":6,"left_children":[1,3,5,7,9,11,13,15,17,19,-1,21,23,25,27,29,31,33,-1,35,37,39,41,-1,-1,43,45,47,-1,49,-1,51,53,55,57,-1,-1,-1,-1,-1,59,-1,-1,61,63,-1,-1,65,-1,-1,-1,67,69,71,-1,-1,-1,-1,-1,73,-1,75,77,79,81,-1,-1,83,85,87,89,-1,-1,-1,-1,91,93,95,97,99,101,-1,-1,103,105,-1,107,-1,109,-1,-1,111,-1,-1,113,115,117,119,-1,-1,-1,-1,-1,-1,-1,-1,-1,-1,-1,-1,-1,-1,-1,-1,-1,121,123,-1,-1,125,-1,-1,-1,-1,-1,-1,-1],"loss_changes":[3.1383725E2,1.2066231E2,3.4686996E1,3.9198734E1,5.4717865E1,5.540822E0,2.5261902E1,3.0444988E1,8.63555E0,1.7079296E0,0E0,6.7128477E0,3.2952092E0,1.16679535E1,3.5085754E0,7.7933826E0,1.1622135E1,7.3397694E0,0E0,1.0347047E0,1.8244739E0,5.396151E0,3.8643131E0,0E0,0E0,1.9113869E1,2.7421265E0,4.116139E0,0E0,1.1100645E0,0E0,1.3743126E1,1.6554482E0,2.238697E0,4.2919922E-1,0E0,0E0,0E0,0E0,0E0,1.1065993E0,0E0,0E0,1.2901833E1,8.112131E0,0E0,0E0,1.5015354E0,0E0,0E0,0E0,1.4509933E1,3.3961983E0,1.6615036E0,0E0,0E0,0E0,0E0,0E0,1.7962041E0,0E0,6.677521E0,8.551567E0,9.109224E-1,6.658517E0,0E0,0E0,8.689687E0,5.5120087E-1,4.2974367E0,3.7490277E0,0E0,0E0,0E0,0E0,7.342182E0,5.025693E0,3.3442493E1,3.429802E0,3.5273218E-1,2.2762215E0,0E0,0E0,5.937983E0,6.640237E0,0E0,2.1876423E0,0E0,6.576872E-1,0E0,0E0,4.663239E0,0E0,0E0,3.2307596E0,4.6549664E0,1.8401213E0,3.6628356E0,0E0,0E0,0E0,0E0,0E0,0E0,0E0,0E0,0E0,0E0,0E0,0E0,0E0,0E0,0E0,0E0,0E0,1.4666519E0,3.5393345E0,0E0,0E0,3.0840154E0,0E0,0E0,0E0,0E0,0E0,0E0,0E0],"parents":[2147483647,0,0,1,1,2,2,3,3,4,4,5,5,6,6,7,7,8,8,9,9,11,11,12,12,13,13,14,14,15,15,16,16,17,17,19,19,20,20,21,21,22,22,25,25,26,26,27,27,29,29,31,31,32,32,33,33,34,34,40,40,43,43,44,44,47,47,51,51,52,52,53,53,59,59,61,61,62,62,63,63,64,64,67,67,68,68,69,69,70,70,75,75,76,76,77,77,78,78,79,79,80,80,83,83,84,84,86,86,88,88,91,91,94,94,95,95,96,96,97,97,115,115,116,116,119,119],"right_children":[2,4,6,8,10,12,14,16,18,20,-1,22,24,26,28,30,32,34,-1,36,38,40,42,-1,-1,44,46,48,-1,50,-1,52,54,56,58,-1,-1,-1,-1,-1,60,-1,-1,62,64,-1,-1,66,-1,-1,-1,68,70,72,-1,-1,-1,-1,-1,74,-1,76,78,80,82,-1,-1,84,86,88,90,-1,-1,-1,-1,92,94,96,98,100,102,-1,-1,104,106,-1,108,-1,110,-1,-1,112,-1,-1,114,116,118,120,-1,-1,-1,-1,-1,-1,-1,-1,-1,-1,-1,-1,-1,-1,-1,-1,-1,122,124,-1,-1,126,-1,-1,-1,-1,-1,-1,-1],"split_conditions":[1.39E0,1.27E0,1.33E0,1.17E0,4.496E1,1.21E0,1.665E1,1.4E1,1.902E2,8.7E-1,-6.6895954E-2,5.9E1,8.23E0,1.07E0,5.2E1,1.809E2,2.05E0,6E1,-1.1585818E-2,1.06E0,5.72E0,7.3E-1,1.07E0,-1.0983708E-2,1.7672775E-2,1.03E0,6E0,2.072E2,8.171839E-3,1.14E0,-1.30110355E-2,1.17E0,8.3E-1,7.2E-1,1.14E0,-4.630829E-4,2.404123E-2,9.064413E-3,-1.2826756E-2,-1.8068112E-2,6.51E0,-4.036931E-2,2.5864018E-3,7.2E-1,1.218E2,4.6934775E-4,4.3245073E-2,2.98E0,6.9727064E-3,3.389752E-2,1.3630236E-3,1.83E0,7.874E0,6.2E-1,1.6801722E-2,9.5273955E-3,-1.4781776E-2,4.5493167E-2,3.5309598E-3,6.9E-1,1.9220252E-2,9.4E-1,1.61E0,2.78E0,1.44E0,-3.398946E-2,-5.463881E-4,7.5E-1,1.04E0,6.3E-1,6.9E-1,7.866802E-3,-1.31718805E-2,9.796991E-3,-1.1738403E-2,2.09E0,1.218E2,2.62E0,9E0,8.96E0,1.04E0,1.0108754E-2,-3.6668025E-2,7.2E-1,2.1E1,-6.0120758E-2,1.06E0,-1.178645E-2,3.214E0,9.707871E-3,-2.2859152E-2,7.4E-1,-3.1185985E-2,2.4883823E-2,1.44E0,9.32E0,5.8E-1,8.4E1,3.829013E-2,1.654209E-4,1.671819E-2,-1.3547565E-2,9.693318E-3,-1.2998096E-2,2.5603566E-2,1.1030423E-2,-3.4176584E-2,7.864202E-3,-1.6743278E-2,4.654896E-4,2.3955412E-2,2.0034496E-2,-1.3479759E-2,1.0375339E-2,-1.9271186E-2,6.24E0,5.4E-1,6.2190316E-4,-3.1251874E-2,7.4E-1,1.7373556E-2,1.5161674E-3,4.0401496E-2,1.7579716E-2,-9.434504E-3,8.982332E-3,-2.0646071E-2],"split_indices":[6,6,27,20,1,13,17,14,1,13,0,14,17,13,21,1,4,14,0,20,17,20,13,0,0,13,14,1,0,6,0,13,20,13,6,0,0,0,0,0,17,0,0,20,1,0,0,4,0,0,0,4,17,20,0,0,0,0,0,13,0,13,6,4,6,0,0,13,13,20,20,0,0,0,0,4,1,4,21,17,13,0,0,13,14,0,13,0,24,0,0,13,0,0,6,17,13,14,0,0,0,0,0,0,0,0,0,0,0,0,0,0,0,0,0,17,13,0,0,20,0,0,0,0,0,0,0],"split_type":[0,0,0,0,0,0,0,0,0,0,0,0,0,0,0,0,0,0,0,0,0,0,0,0,0,0,0,0,0,0,0,0,0,0,0,0,0,0,0,0,0,0,0,0,0,0,0,0,0,0,0,0,0,0,0,0,0,0,0,0,0,0,0,0,0,0,0,0,0,0,0,0,0,0,0,0,0,0,0,0,0,0,0,0,0,0,0,0,0,0,0,0,0,0,0,0,0,0,0,0,0,0,0,0,0,0,0,0,0,0,0,0,0,0,0,0,0,0,0,0,0,0,0,0,0,0,0],"sum_hessian":[9.0144775E2,3.6881076E2,5.32637E2,1.6684386E2,2.019669E2,4.615315E1,4.8648386E2,1.2512195E2,4.1721905E1,1.6658972E1,1.8530794E2,3.519067E1,1.0962477E1,4.6642584E2,2.0058023E1,2.5341898E1,9.978005E1,3.9057034E1,2.6648698E0,1.1691857E1,4.9671135E0,1.7640265E1,1.7550407E1,2.2377634E0,8.724713E0,3.153812E2,1.5104463E2,1.7330976E1,2.7270467E0,2.2215996E1,3.1259024E0,8.9366974E1,1.0413082E1,5.4587264E0,3.359831E1,4.4723887E0,7.219469E0,2.4743903E0,2.4927232E0,4.199458E0,1.3440806E1,1.3577827E1,3.9725792E0,2.8494226E2,3.0438951E1,4.218409E0,1.4682623E2,1.4342092E1,2.9888856E0,1.7787823E1,4.428173E0,6.738375E1,2.1983221E1,5.4390836E0,4.973999E0,2.473161E0,2.9855652E0,2.9906542E1,3.691767E0,4.973201E0,8.467606E0,3.9313488E1,2.4562877E2,1.7453909E1,1.2985044E1,9.8624115E0,4.4796796E0,2.5193718E1,4.2190033E1,1.3848617E1,8.134604E0,2.7171404E0,2.7219431E0,2.4940872E0,2.4791136E0,1.956543E1,1.9748058E1,7.6327095E1,1.6930168E2,8.840424E0,8.613485E0,2.207746E0,1.0777297E1,1.3098057E1,1.2095661E1,3.557687E1,6.6131625E0,2.4561713E0,1.1392446E1,2.477228E0,5.6573763E0,1.0917613E1,8.647818E0,1.330965E1,6.438408E0,5.445933E1,2.1867764E1,1.1635413E1,1.5766626E2,4.183225E0,4.6571984E0,2.7271936E0,5.8862915E0,2.9295397E0,1.0168517E1,2.2427819E0,9.85288E0,2.7113736E0,3.901789E0,4.180679E0,7.2117667E0,8.177462E0,2.740152E0,2.2209265E0,4.217481E0,3.833578E1,1.6123547E1,4.4625864E0,1.7405176E1,6.9407325E0,4.6946807E0,3.974653E0,3.436113E1,4.6921024E0,1.1431444E1,2.4577117E0,4.483021E0],"tree_param":{"num_deleted":"0","num_feature":"28","num_nodes":"127","size_leaf_vector":"1"}},{"base_weights":[-1.1239521E-2,-6.7610115E-1,4.5321107E-1,-5.451507E-2,-1.1497744E0,5.185854E-1,-3.9620978E-1,-9.2805254E-1,4.3457454E-1,2.9170445E-1,-6.47441E-2,5.7807195E-1,-5.3241664E-1,-6.264161E-1,1.7329948E-1,-1.0817363E0,7.209522E-2,6.5327317E-1,5.725662E-3,2.2463828E-2,-1.2034454E-1,-2.1540254E-1,6.5307164E-1,1.44145535E-2,-4.1701615E-2,-7.8154075E-1,1.0939631E-2,1.2747382E-2,-4.4001855E-2,5.7480303E-3,-5.9217997E-2,-1.3652756E-2,1.6500024E-2,1.4681263E-1,4.2313214E-2,2.4010952E-1,-2.6629208E-2,7.6484755E-3,-1.4387624E-2,-4.382686E-1,1.6320962E-2,-3.6010638E-2,6.975991E-1,3.8406886E-3,-4.555456E-2,9.673446E-3,-1.2164056E-2,3.9903134E-1,-2.1260275E-2,-2.323578E-1,4.006546E-1,-5.8122265E-1,7.6174274E-2,-2.9887006E-1,1.8123219E-2,7.2165173E-1,-1.1332837E-1,3.022006E-2,-8.32991E-2,9.577781E-3,-2.1431923E-2,5.3251725E-1,-1.2353743E-2,-6.7659396E-1,2.3356786E-3,1.7454116E-2,-1.4253037E-2,1.0271967E-2,-4.3612924E-1,-1.1724734E-1,7.3799086E-1,1.4440471E-2,-2.1624517E-2,1.2598899E-2,-1.893096E-2,1.9731827E-2,3.2241654E-2,-3.7746157E-2,-5.5474665E-2,-3.3293344E-2,1.20184004E-1,-1.5611546E-2,9.368586E-3,8.74896E-1,5.36731E-1,1.4021699E-2,-1.4503392E-2,-1.0729596E-2,7.244052E-3,1.0850482E-2,-5.752729E-2,2.8704163E-1,9.325089E-1,8.954766E-2,4.175727E-2,-1.1615506E-2,8.125405E-3,2.8140068E-2,-6.2324903E-3,5.1052645E-3,4.79387E-2,2.4419328E-2,-2.4983194E-2],"categories":[],"categories_nodes":[],"categories_segments":[],"categories_sizes":[],"default_left":[0,0,0,0,0,0,0,0,0,0,0,0,0,0,0,0,0,0,0,0,0,0,0,0,0,0,0,0,0,0,0,0,0,0,0,0,0,0,0,0,0,0,0,0,0,0,0,0,0,0,0,0,0,0,0,0,0,0,0,0,0,0,0,0,0,0,0,0,0,0,0,0,0,0,0,0,0,0,0,0,0,0,0,0,0,0,0,0,0,0,0,0,0,0,0,0,0,0,0,0,0,0,0],"id":7,"left_children":[1,3,5,7,9,11,13,15,17,19,-1,21,23,25,27,29,31,33,35,-1,37,39,41,-1,-1,43,-1,-1,45,-1,-1,-1,-1,47,-1,49,-1,-1,-1,51,-1,53,55,-1,-1,-1,-1,57,-1,59,61,63,65,67,-1,69,71,-1,73,-1,-1,75,-1,77,-1,-1,-1,-1,79,81,83,-1,-1,-1,-1,85,-1,-1,87,-1,89,-1,-1,91,93,-1,-1,-1,-1,-1,95,97,99,101,-1,-1,-1,-1,-1,-1,-1,-1,-1],"loss_changes":[2.8720547E2,1.1152362E2,3.3913338E1,8.513667E1,5.1638336E1,3.7494644E1,8.241524E0,1.2267654E1,1.2038689E1,3.1036727E0,0E0,3.1940567E1,1.3120748E1,7.9450893E0,6.761293E-1,1.0023041E1,3.7945807E0,6.2259903E0,9.836395E0,0E0,1.7876469E0,9.153589E0,1.4476059E1,0E0,0E0,5.213579E0,0E0,0E0,1.8398387E0,0E0,0E0,0E0,0E0,9.247724E0,0E0,5.6806464E0,0E0,0E0,0E0,4.186861E0,0E0,6.4457726E0,9.795349E0,0E0,0E0,0E0,0E0,4.7566485E0,0E0,3.43123E0,6.213836E0,2.843711E0,4.1744723E0,4.0014734E0,0E0,7.238968E0,5.6023707E0,0E0,4.265618E0,0E0,0E0,2.3222103E0,0E0,9.6811867E-1,0E0,0E0,0E0,0E0,5.653029E0,2.3433683E0,3.4546204E0,0E0,0E0,0E0,0E0,3.4388313E0,0E0,0E0,1.236766E0,0E0,6.289309E-1,0E0,0E0,2.9028625E0,2.7023903E1,0E0,0E0,0E0,0E0,0E0,1.487059E0,6.2108374E0,2.5422668E0,2.856639E1,0E0,0E0,0E0,0E0,0E0,0E0,0E0,0E0,0E0],"parents":[2147483647,0,0,1,1,2,2,3,3,4,4,5,5,6,6,7,7,8,8,9,9,11,11,12,12,13,13,14,14,15,15,16,16,17,17,18,18,20,20,21,21,22,22,25,25,28,28,33,33,35,35,39,39,41,41,42,42,47,47,49,49,50,50,51,51,52,52,53,53,55,55,56,56,58,58,61,61,63,63,68,68,69,69,70,70,75,75,78,78,80,80,83,83,84,84,90,90,91,91,92,92,93,93],"right_children":[2,4,6,8,10,12,14,16,18,20,-1,22,24,26,28,30,32,34,36,-1,38,40,42,-1,-1,44,-1,-1,46,-1,-1,-1,-1,48,-1,50,-1,-1,-1,52,-1,54,56,-1,-1,-1,-1,58,-1,60,62,64,66,68,-1,70,72,-1,74,-1,-1,76,-1,78,-1,-1,-1,-1,80,82,84,-1,-1,-1,-1,86,-1,-1,88,-1,90,-1,-1,92,94,-1,-1,-1,-1,-1,96,98,100,102,-1,-1,-1,-1,-1,-1,-1,-1,-1],"split_conditions":[1.39E0,1.27E0,1.665E1,1.18E1,2.1E1,1.665E1,2.56E0,2.479E1,1.83E0,1.82E0,-6.47441E-2,1.33E0,1.82E0,2.145E1,4.6E1,1.82E0,8.78E0,1.72E0,1.48E0,2.2463828E-2,5.907E0,1.3546E1,1.42E0,1.44145535E-2,-4.1701615E-2,1.4E0,1.0939631E-2,1.2747382E-2,8.78E0,5.7480303E-3,-5.9217997E-2,-1.3652756E-2,1.6500024E-2,7.19E0,4.2313214E-2,4.4E1,-2.6629208E-2,7.6484755E-3,-1.4387624E-2,2.223E1,1.6320962E-2,1.05E1,1.064E1,3.8406886E-3,-4.555456E-2,9.673446E-3,-1.2164056E-2,6.77E0,-2.1260275E-2,2.1E1,1.15E1,2.7E0,4.1E1,1.738E0,1.8123219E-2,1.52E0,1.79E0,3.022006E-2,1.4E0,9.577781E-3,-2.1431923E-2,8.3E0,-1.2353743E-2,1.59E0,2.3356786E-3,1.7454116E-2,-1.4253037E-2,1.0271967E-2,5.8E1,2.67E0,5.1E1,1.4440471E-2,-2.1624517E-2,1.2598899E-2,-1.893096E-2,1.17E0,3.2241654E-2,-3.7746157E-2,6.9E0,-3.3293344E-2,6E1,-1.5611546E-2,9.368586E-3,1.22E0,6.3E1,1.4021699E-2,-1.4503392E-2,-1.0729596E-2,7.244052E-3,1.0850482E-2,7.874E0,5.24E0,1.44E0,5.7E1,4.175727E-2,-1.1615506E-2,8.125405E-3,2.8140068E-2,-6.2324903E-3,5.1052645E-3,4.79387E-2,2.4419328E-2,-2.4983194E-2],"split_indices":[6,6,10,2,0,17,18,9,18,18,0,27,10,17,0,10,2,18,12,0,10,10,18,0,0,18,0,0,9,0,0,0,0,17,0,14,0,0,0,9,0,10,12,0,0,0,0,10,0,14,10,18,14,10,0,9,18,0,18,0,0,9,0,12,0,0,0,0,0,18,0,0,0,0,0,12,0,0,10,0,0,0,0,12,0,0,0,0,0,0,10,10,6,0,0,0,0,0,0,0,0,0,0],"split_type":[0,0,0,0,0,0,0,0,0,0,0,0,0,0,0,0,0,0,0,0,0,0,0,0,0,0,0,0,0,0,0,0,0,0,0,0,0,0,0,0,0,0,0,0,0,0,0,0,0,0,0,0,0,0,0,0,0,0,0,0,0,0,0,0,0,0,0,0,0,0,0,0,0,0,0,0,0,0,0,0,0,0,0,0,0,0,0,0,0,0,0,0,0,0,0,0,0,0,0,0,0,0,0],"sum_hessian":[8.962145E2,3.6539877E2,5.3081573E2,1.6622441E2,1.9917436E2,4.990299E2,3.1785807E1,5.4186695E1,1.1203771E2,1.6645515E1,1.8252884E2,4.7953778E2,1.9492123E1,2.1426237E1,1.035957E1,4.576725E1,8.419445E0,6.830701E1,4.37307E1,1.0929895E1,5.71562E0,3.8663574E1,4.408742E2,5.440185E0,1.4051938E1,1.91856E1,2.2406368E0,5.3894086E0,4.970161E0,3.4533966E0,4.2313854E1,3.1736236E0,5.2458215E0,2.7105963E1,4.1201042E1,3.7026405E1,6.704296E0,2.7280092E0,2.9876108E0,2.969731E1,8.966265E0,2.6956837E1,4.1391736E2,3.4234326E0,1.5762167E1,2.4939342E0,2.476227E0,2.2379341E1,4.726621E0,7.462085E0,2.9564322E1,2.1512592E1,8.184715E0,1.8802755E1,8.154081E0,4.0381158E2,1.0105776E1,1.267854E1,9.700802E0,2.4911377E0,4.9709473E0,2.707607E1,2.4882507E0,1.7532454E1,3.9801402E0,4.988152E0,3.1965635E0,2.2161129E0,1.6586641E1,5.708926E0,3.9810266E2,5.1869874E0,4.918788E0,5.7115035E0,3.989298E0,8.456037E0,1.8620035E1,1.2316963E1,5.21549E0,9.369569E0,7.2170734E0,3.221853E0,2.4870732E0,2.0306735E2,1.9503532E2,5.466931E0,2.989106E0,2.2336514E0,2.9818385E0,2.2382557E0,4.978818E0,2.7202656E1,1.7586469E2,8.690571E1,1.0812961E2,2.246212E0,2.732606E0,1.2553955E1,1.46487E1,7.9393477E0,1.6792534E2,5.3559887E1,3.334582E1],"tree_param":{"num_deleted":"0","num_feature":"28","num_nodes":"103","size_leaf_vector":"1"}},{"base_weights":[-1.1497212E-2,-6.5256554E-1,4.336118E-1,-5.441016E-2,-1.112171E0,4.8148942E-1,-5.9025586E-1,-9.009853E-1,4.1742754E-1,2.8525066E-1,-6.2752925E-2,6.21316E-1,1.5585442E-1,-3.8326718E-2,9.571678E-3,-5.5668265E-2,-1.0259801E-1,6.3166535E-1,1.0743505E-4,2.203846E-2,-1.1939103E-1,8.1747854E-1,3.352081E-1,-4.5649526E-1,4.4519624E-1,2.6568118E-1,-2.2719748E-2,1.4060643E-1,8.197715E-1,3.1406322E-1,-5.155198E-1,1.0540754E-2,-1.6513174E-2,-2.2671312E-1,8.749591E-1,-4.9952903E-1,4.4608647E-1,-6.605382E-1,2.7908495E-1,2.7383582E-3,9.0477324E-1,-4.4864725E-2,1.8880552E-2,3.8972124E-1,-2.1032266E-2,6.851877E-4,4.3713212E-2,-1.9386694E-1,4.7940794E-1,-3.001349E-2,-4.288547E-4,-2.007115E-2,7.927306E-3,9.681064E-1,9.325046E-2,-3.1344738E-2,3.6661979E-3,6.716989E-1,1.7951788E-1,-8.1570405E-1,-1.4012694E-1,2.0824931E-5,1.6781917E-2,2.3858954E-1,-3.5665804E-1,5.1316123E-2,-1.1628935E-1,-1.2294492E-2,9.963044E-3,5.612329E-1,-1.4817648E-1,9.517237E-3,-1.945771E-2,3.240465E-2,-1.3458966E-1,2.5608677E-3,9.8279995E-1,3.357956E-1,-2.9411396E-1,7.8981304E-1,-2.045433E-1,-3.3504546E-1,5.383849E-1,2.5552034E-3,-4.667257E-2,-4.0563715E-1,1.498953E-2,4.3345764E-1,-2.4726254E-1,-6.2353665E-1,1.6443801E-1,-1.3534282E-2,6.849691E-3,3.1823E-2,4.275105E-4,-1.7806737E-2,1.036488E-2,1.0835777E-2,-1.7505785E-2,5.0430566E-2,1.0496601E-1,2.4750024E-2,-1.0663263E-2,9.846901E-3,-2.466072E-2,8.658238E-2,4.2004015E-2,-1.6417056E-2,4.572481E-3,8.5570335E-2,-3.7363064E-2,-1.3081455E-1,6.363535E-1,-2.7764251E-2,6.004584E-3,5.9299976E-1,-1.5442075E-2,-3.7322623E-1,6.542777E-3,-3.728129E-2,1.6894386E-3,1.5498004E-2,-1.055814E-1,8.578267E-3,-1.9346838E-3,1.6173763E-2,-1.258032E-2,2.9278037E-1,-2.5606814E-1,8.893534E-3,-1.6008163E-2,-3.6340095E-2,7.0479906E-1,-4.9364246E-2,3.793216E-2,5.981225E-3,-2.6362896E-2,6.938574E-3,-1.30063165E-2,1.9546345E-2,-3.3220865E-3,8.590903E-3,-2.1851858E-2,-1.1224932E-2,9.042887E-3,3.760444E-2,8.54267E-4,1.1709988E-2,-1.6443275E-2],"categories":[],"categories_nodes":[],"categories_segments":[],"categories_sizes":[],"default_left":[0,0,0,0,0,0,0,0,0,0,0,0,0,0,0,0,0,0,0,0,0,0,0,0,0,0,0,0,0,0,0,0,0,0,0,0,0,0,0,0,0,0,0,0,0,0,0,0,0,0,0,0,0,0,0,0,0,0,0,0,0,0,0,0,0,0,0,0,0,0,0,0,0,0,0,0,0,0,0,0,0,0,0,0,0,0,0,0,0,0,0,0,0,0,0,0,0,0,0,0,0,0,0,0,0,0,0,0,0,0,0,0,0,0,0,0,0,0,0,0,0,0,0,0,0,0,0,0,0,0,0,0,0,0,0,0,0,0,0,0,0,0,0,0,0,0,0,0,0],"id":8,"left_children":[1,3,5,7,9,11,13,15,17,19,-1,21,23,-1,-1,-1,25,27,29,-1,31,33,35,37,39,41,-1,43,45,47,49,-1,-1,51,53,55,57,59,61,63,65,67,-1,69,-1,-1,-1,71,73,-1,-1,-1,-1,75,77,-1,-1,79,81,83,85,-1,-1,87,89,-1,91,-1,-1,93,95,-1,-1,-1,97,-1,99,101,103,105,107,109,111,-1,-1,113,-1,115,117,119,121,-1,-1,-1,-1,-1,-1,-1,-1,-1,123,-1,-1,-1,-1,125,-1,-1,-1,127,-1,129,131,-1,-1,133,-1,135,-1,-1,-1,-1,137,-1,-1,-1,-1,139,141,-1,-1,143,145,147,-1,-1,-1,-1,-1,-1,-1,-1,-1,-1,-1,-1,-1,-1,-1],"loss_changes":[2.6361514E2,1.03017136E2,3.1573166E1,7.9220825E1,4.8645508E1,2.2509491E1,6.905034E0,1.0034546E1,1.1504345E1,3.0105526E0,0E0,1.5852219E1,3.571226E1,0E0,0E0,0E0,6.4011807E0,5.894985E0,1.2571773E1,0E0,2.7650723E0,1.5675873E1,2.0213215E1,1.3162117E1,2.6849377E1,1.2309122E0,0E0,8.948648E0,2.34227E0,5.6334996E0,1.1752295E0,0E0,0E0,2.7106223E0,1.2867432E1,2.8847857E0,7.91164E0,2.688284E0,4.1462064E-1,8.603231E0,1.007333E1,1.9313209E0,0E0,5.0437465E0,0E0,0E0,0E0,3.0568612E0,5.7611427E0,0E0,0E0,0E0,0E0,1.5009155E0,5.4250083E0,0E0,0E0,1.1389252E1,2.1371267E1,4.9604473E0,6.0034766E0,0E0,0E0,7.6127324E0,7.342986E0,0E0,1.4971799E0,0E0,0E0,1.2955322E0,2.952477E0,0E0,0E0,0E0,3.0297718E0,0E0,2.0799408E0,4.631759E0,4.03826E0,1.4884453E0,1.3687336E0,9.965568E0,5.671322E0,0E0,0E0,3.3554168E0,0E0,9.01456E0,2.1797767E0,2.8500443E0,1.6208267E0,0E0,0E0,0E0,0E0,0E0,0E0,0E0,0E0,0E0,3.4119183E-1,0E0,0E0,0E0,0E0,3.314042E0,0E0,0E0,0E0,4.1485367E0,0E0,2.2768779E0,3.17626E0,0E0,0E0,5.6201096E0,0E0,3.0207162E0,0E0,0E0,0E0,0E0,1.4507955E0,0E0,0E0,0E0,0E0,1.6121614E0,3.1656294E0,0E0,0E0,1.5755944E0,1.5658321E0,3.3353624E0,0E0,0E0,0E0,0E0,0E0,0E0,0E0,0E0,0E0,0E0,0E0,0E0,0E0,0E0,0E0],"parents":[2147483647,0,0,1,1,2,2,3,3,4,4,5,5,6,6,7,7,8,8,9,9,11,11,12,12,16,16,17,17,18,18,20,20,21,21,22,22,23,23,24,24,25,25,27,27,28,28,29,29,30,30,33,33,34,34,35,35,36,36,37,37,38,38,39,39,40,40,41,41,43,43,47,47,48,48,53,53,54,54,57,57,58,58,59,59,60,60,63,63,64,64,66,66,69,69,70,70,74,74,76,76,77,77,78,78,79,79,80,80,81,81,82,82,85,85,87,87,88,88,89,89,90,90,100,100,105,105,109,109,111,111,112,112,115,115,117,117,122,122,127,127,128,128,131,131,132,132,133,133],"right_children":[2,4,6,8,10,12,14,16,18,20,-1,22,24,-1,-1,-1,26,28,30,-1,32,34,36,38,40,42,-1,44,46,48,50,-1,-1,52,54,56,58,60,62,64,66,68,-1,70,-1,-1,-1,72,74,-1,-1,-1,-1,76,78,-1,-1,80,82,84,86,-1,-1,88,90,-1,92,-1,-1,94,96,-1,-1,-1,98,-1,100,102,104,106,108,110,112,-1,-1,114,-1,116,118,120,122,-1,-1,-1,-1,-1,-1,-1,-1,-1,124,-1,-1,-1,-1,126,-1,-1,-1,128,-1,130,132,-1,-1,134,-1,136,-1,-1,-1,-1,138,-1,-1,-1,-1,140,142,-1,-1,144,146,148,-1,-1,-1,-1,-1,-1,-1,-1,-1,-1,-1,-1,-1,-1,-1],"split_conditions":[1.39E0,1.27E0,1.935E1,1.18E1,2.1E1,1.09E0,2.74E0,1.4E0,1.83E0,1.82E0,-6.2752925E-2,7.19E0,1.64E0,-3.8326718E-2,9.571678E-3,-5.5668265E-2,7.01E0,1.72E0,1.85E0,2.203846E-2,1.4E0,1.4E0,2.7E1,9.1E1,1.69E0,5.7E1,-2.2719748E-2,1.57E0,2.8E1,9.122E1,1.625E2,1.0540754E-2,-1.6513174E-2,2.74E0,2.42E0,5.59E1,1.76E0,2.16E0,2.23E0,3.8E1,2.35E0,2.51E0,1.8880552E-2,5.7E1,-2.1032266E-2,6.851877E-4,4.3713212E-2,4.496E1,1.589E2,-3.001349E-2,-4.288547E-4,-2.007115E-2,7.927306E-3,1.4E0,1.97E0,-3.1344738E-2,3.6661979E-3,5.59E1,1.48E0,1.44E0,2.62E0,2.0824931E-5,1.6781917E-2,1.187E2,1.625E2,5.1316123E-2,9.75E0,-1.2294492E-2,9.963044E-3,6.77E0,1.665E1,9.517237E-3,-1.945771E-2,3.240465E-2,5E0,2.5608677E-3,2.09E2,3.206E1,1.389E2,1.44E0,3.8E1,1.28E0,6.5E-1,2.5552034E-3,-4.667257E-2,7E1,1.498953E-2,2.67E0,1.022E1,2.67E0,1.71E0,-1.3534282E-2,6.849691E-3,3.1823E-2,4.275105E-4,-1.7806737E-2,1.036488E-2,1.0835777E-2,-1.7505785E-2,5.0430566E-2,1.44E0,2.4750024E-2,-1.0663263E-2,9.846901E-3,-2.466072E-2,8.55E0,4.2004015E-2,-1.6417056E-2,4.572481E-3,1.89E0,-3.7363064E-2,5.094E1,2.01E0,-2.7764251E-2,6.004584E-3,2.01E0,-1.5442075E-2,1.738E0,6.542777E-3,-3.728129E-2,1.6894386E-3,1.5498004E-2,1.79E0,8.578267E-3,-1.9346838E-3,1.6173763E-2,-1.258032E-2,2.08E1,6.5E-1,8.893534E-3,-1.6008163E-2,2.16E0,7.4E1,1.72E0,3.793216E-2,5.981225E-3,-2.6362896E-2,6.938574E-3,-1.30063165E-2,1.9546345E-2,-3.3220865E-3,8.590903E-3,-2.1851858E-2,-1.1224932E-2,9.042887E-3,3.760444E-2,8.54267E-4,1.1709988E-2,-1.6443275E-2],"split_indices":[6,6,10,2,0,25,18,5,18,18,0,10,6,0,0,0,10,18,11,0,11,18,7,7,19,7,0,18,7,15,15,0,0,11,18,2,18,11,18,0,19,18,0,7,0,0,0,15,15,0,0,0,0,11,5,0,0,2,19,6,18,0,0,15,15,0,10,0,0,10,10,0,0,0,0,0,15,22,15,6,0,19,25,0,0,7,0,11,10,11,11,0,0,0,0,0,0,0,0,0,6,0,0,0,0,10,0,0,0,18,0,15,18,0,0,11,0,10,0,0,0,0,18,0,0,0,0,2,25,0,0,11,7,18,0,0,0,0,0,0,0,0,0,0,0,0,0,0,0],"split_type":[0,0,0,0,0,0,0,0,0,0,0,0,0,0,0,0,0,0,0,0,0,0,0,0,0,0,0,0,0,0,0,0,0,0,0,0,0,0,0,0,0,0,0,0,0,0,0,0,0,0,0,0,0,0,0,0,0,0,0,0,0,0,0,0,0,0,0,0,0,0,0,0,0,0,0,0,0,0,0,0,0,0,0,0,0,0,0,0,0,0,0,0,0,0,0,0,0,0,0,0,0,0,0,0,0,0,0,0,0,0,0,0,0,0,0,0,0,0,0,0,0,0,0,0,0,0,0,0,0,0,0,0,0,0,0,0,0,0,0,0,0,0,0,0,0,0,0,0,0],"sum_hessian":[8.8998816E2,3.614649E2,5.2852325E2,1.6532047E2,1.9614444E2,5.13516E2,1.5007298E1,5.363185E1,1.1168862E2,1.6624199E1,1.7952025E2,3.484545E2,1.6506146E2,1.2514703E1,2.4925957E0,3.7065273E1,1.656658E1,6.803183E1,4.365679E1,1.0912372E1,5.711827E0,1.8799057E2,1.6046393E2,4.9814793E1,1.1524667E2,1.0126762E1,6.439817E0,2.7070478E1,4.0961353E1,3.1265368E1,1.2391423E1,2.2278507E0,3.4839761E0,7.1971097E0,1.8079346E2,1.1828193E1,1.4863574E2,4.0354996E1,9.459796E0,6.7429855E1,4.781682E1,5.381594E0,4.745168E0,2.2347137E1,4.7233405E0,3.9409602E0,3.702039E1,6.9580564E0,2.430731E1,7.935169E0,4.4562545E0,4.4609046E0,2.736205E0,1.5792207E2,2.2871391E1,8.364681E0,3.4635115E0,6.650887E1,8.212687E1,2.3655653E1,1.6699345E1,4.4850044E0,4.9747915E0,4.416274E1,2.3267117E1,4.2651882E1,5.1649356E0,2.8839512E0,2.4976428E0,1.6385143E1,5.961994E0,2.4898107E0,4.468246E0,1.8328E1,5.9793105E0,3.6936336E0,1.5422844E2,1.5456557E1,7.4148345E0,6.0086285E1,6.422587E0,3.4207184E1,4.7919685E1,3.9797916E0,1.9675861E1,1.1240132E1,5.4592123E0,3.2828854E1,1.1333884E1,1.3176708E1,1.0090407E1,2.4831984E0,2.6817374E0,1.2153931E1,4.231213E0,3.7415376E0,2.2204566E0,2.2378368E0,3.741474E0,1.4736282E2,6.8656063E0,1.3279785E1,2.1767719E0,2.1923525E0,5.222482E0,7.095996E0,5.2990288E1,3.2185588E0,3.204028E0,2.3598667E1,1.0608518E1,5.391571E0,4.2528114E1,8.005613E0,3.2345183E0,2.983554E1,2.9933133E0,8.666666E0,2.6672184E0,9.186741E0,3.989968E0,4.9227686E0,5.1676383E0,2.434686E0,4.43092E0,4.607897E0,2.4880996E0,1.620265E1,7.396017E0,2.4416285E0,2.9499426E0,4.663974E0,3.786414E1,8.562805E0,2.1272736E1,2.9678712E0,5.698795E0,2.674321E0,2.4933174E0,1.1547292E1,4.6553583E0,2.4538107E0,4.9422064E0,2.1928642E0,2.4711096E0,3.393904E1,3.9251008E0,5.6182475E0,2.9445574E0],"tree_param":{"num_deleted":"0","num_feature":"28","num_nodes":"149","size_leaf_vector":"1"}},{"base_weights":[-1.2354578E-2,-6.305098E-1,4.1399074E-1,-5.465139E-2,-1.0770109E0,4.7576773E-1,-3.8124532E-1,-8.777981E-1,4.0226308E-1,2.7931944E-1,-1.2180331E0,5.3309923E-1,-5.21466E-1,-4.8896867E-1,1.0765061E-2,-5.3723313E-2,-1.5053542E-1,-5.282146E-2,4.6541086E-1,2.0277329E-2,-2.3956167E-2,-5.911538E-1,-6.724023E-2,-2.0150056E-1,6.0295826E-1,1.3901944E-2,-4.0698417E-2,4.9458332E-2,-6.902484E-1,2.3132278E-1,-2.406769E-2,-1.7955756E-2,2.192097E-1,6.164135E-1,8.4383875E-2,-2.0191953E-1,1.0818058E-2,-8.206431E-1,5.0636955E-2,-4.1751137E-1,1.5884796E-2,6.269437E-1,-1.5473755E-1,1.7426066E-2,-1.744858E-2,3.753793E-3,-4.112747E-2,-3.1442232E-2,1.5758168E-2,-3.3689014E-4,1.3467354E-2,1.21715836E-1,7.34928E-1,4.209207E-1,-1.7207558E-1,8.731379E-3,-1.9269941E-2,-4.5749336E-2,-5.761035E-2,-1.9980071E-2,2.0078931E-2,7.7818766E-2,-5.574508E-1,8.51581E-1,4.938661E-1,-1.9964153E-2,9.273677E-3,-9.668993E-3,7.53382E-3,2.5032649E-2,-3.502702E-1,-1.0678566E-1,8.5112894E-1,2.43135E-2,2.5938192E-4,-3.112515E-1,8.158042E-3,1.2266882E-2,-1.4617643E-2,-1.1145167E-2,1.3851118E-2,-6.0986584E-1,-5.2165862E-2,5.2008785E-2,3.436105E-1,-2.3406204E-3,5.7819116E-1,-2.714321E-2,9.887087E-3,-1.4627183E-2,8.858443E-3,4.4364255E-2,2.537336E-3,-2.2872044E-2,-2.7275132E-2,-3.892369E-2,-3.4572456E-2,-1.2410591E-2,9.583316E-3,-6.9441006E-2,6.080738E-1,-3.687062E-2,3.8438535E-1,6.6153985E-1,2.491021E-1,1.1270506E-2,-2.4249959E-1,1.0922071E-2,-1.2714103E-2,2.3680924E-1,-3.7039E-1,1.3397088E-3,3.2672923E-2,-1.971072E-1,6.254091E-1,6.474631E-2,6.910971E-1,4.6012968E-1,-4.5761704E-1,2.7282594E-3,-1.7023107E-2,1.6261037E-2,-2.7028718E-3,3.1949126E-3,-2.420118E-2,-2.6070034E-2,1.4605206E-2,-1.645422E-3,3.6026124E-2,1.7342534E-2,-1.1501285E-2,1.0772564E-2,3.921518E-2,3.5328142E-2,-3.1403997E-3,-2.7632112E-2,6.2687154E-4],"categories":[],"categories_nodes":[],"categories_segments":[],"categories_sizes":[],"default_left":[0,0,0,0,0,0,0,0,0,0,0,0,0,0,0,0,0,0,0,0,0,0,0,0,0,0,0,0,0,0,0,0,0,0,0,0,0,0,0,0,0,0,0,0,0,0,0,0,0,0,0,0,0,0,0,0,0,0,0,0,0,0,0,0,0,0,0,0,0,0,0,0,0,0,0,0,0,0,0,0,0,0,0,0,0,0,0,0,0,0,0,0,0,0,0,0,0,0,0,0,0,0,0,0,0,0,0,0,0,0,0,0,0,0,0,0,0,0,0,0,0,0,0,0,0,0,0,0,0,0,0,0,0,0,0,0,0],"id":9,"left_children":[1,3,5,7,9,11,13,15,17,19,21,23,25,27,-1,-1,29,31,33,-1,35,37,-1,39,41,-1,-1,43,45,47,-1,-1,49,51,53,55,-1,57,59,61,-1,63,65,-1,-1,-1,-1,67,-1,-1,-1,69,71,73,75,-1,-1,-1,77,-1,-1,79,81,83,85,-1,-1,-1,-1,-1,87,89,91,-1,-1,93,-1,-1,-1,-1,-1,95,97,-1,99,101,103,-1,-1,-1,-1,-1,-1,-1,105,107,-1,-1,-1,109,111,-1,113,115,117,-1,119,-1,-1,121,123,-1,-1,125,127,129,131,133,135,-1,-1,-1,-1,-1,-1,-1,-1,-1,-1,-1,-1,-1,-1,-1,-1,-1,-1],"loss_changes":[2.4176465E2,9.524226E1,2.9769531E1,7.422232E1,4.593686E1,3.397593E1,4.9124074E0,7.274761E0,4.1048546E0,1.4514172E0,1.8489685E0,2.7324387E1,1.2361458E1,5.604368E0,0E0,0E0,6.274958E0,3.9129364E0,5.6976357E0,0E0,1.8515046E0,9.963821E0,0E0,8.477595E0,9.894852E0,0E0,0E0,5.4608846E0,4.581545E0,7.7614975E-1,0E0,0E0,3.3583367E-1,3.1245575E0,5.7335396E0,2.7807739E0,0E0,2.5079231E0,7.873889E0,3.9626465E0,0E0,6.0982513E0,3.5516028E0,0E0,0E0,0E0,0E0,1.1480026E0,0E0,0E0,0E0,9.363957E0,7.466793E0,7.0404863E-1,2.8075829E0,0E0,0E0,0E0,2.879545E0,0E0,0E0,2.557365E0,4.7514725E-1,7.4695663E0,1.3360977E1,0E0,0E0,0E0,0E0,0E0,4.557914E0,2.0652308E0,8.289261E-1,0E0,0E0,1.2530651E0,0E0,0E0,0E0,0E0,0E0,1.0873165E0,1.8697528E0,0E0,7.6727667E0,2.2794157E1,4.6738434E0,0E0,0E0,0E0,0E0,0E0,0E0,0E0,2.5646927E0,2.172551E0,0E0,0E0,0E0,5.187877E0,7.723236E-1,0E0,9.469046E0,2.8940277E0,1.5859952E1,0E0,1.0267403E0,0E0,0E0,1.076776E0,1.8513246E0,0E0,0E0,7.0856247E0,2.9870243E0,3.7291596E0,5.8013306E0,1.0018251E1,1.3444824E0,0E0,0E0,0E0,0E0,0E0,0E0,0E0,0E0,0E0,0E0,0E0,0E0,0E0,0E0,0E0,0E0,0E0,0E0],"parents":[2147483647,0,0,1,1,2,2,3,3,4,4,5,5,6,6,7,7,8,8,9,9,10,10,11,11,12,12,13,13,16,16,17,17,18,18,20,20,21,21,23,23,24,24,27,27,28,28,29,29,32,32,33,33,34,34,35,35,37,37,38,38,39,39,41,41,42,42,47,47,51,51,52,52,53,53,54,54,58,58,61,61,62,62,63,63,64,64,70,70,71,71,72,72,75,75,81,81,82,82,84,84,85,85,86,86,94,94,95,95,99,99,100,100,102,102,103,103,104,104,106,106,109,109,110,110,113,113,114,114,115,115,116,116,117,117,118,118],"right_children":[2,4,6,8,10,12,14,16,18,20,22,24,26,28,-1,-1,30,32,34,-1,36,38,-1,40,42,-1,-1,44,46,48,-1,-1,50,52,54,56,-1,58,60,62,-1,64,66,-1,-1,-1,-1,68,-1,-1,-1,70,72,74,76,-1,-1,-1,78,-1,-1,80,82,84,86,-1,-1,-1,-1,-1,88,90,92,-1,-1,94,-1,-1,-1,-1,-1,96,98,-1,100,102,104,-1,-1,-1,-1,-1,-1,-1,106,108,-1,-1,-1,110,112,-1,114,116,118,-1,120,-1,-1,122,124,-1,-1,126,128,130,132,134,136,-1,-1,-1,-1,-1,-1,-1,-1,-1,-1,-1,-1,-1,-1,-1,-1,-1,-1],"split_conditions":[1.39E0,1.27E0,1.665E1,1.18E1,2.1E1,1.665E1,2.145E1,1.97E0,1.2E0,6.15E0,1.645E1,1.33E0,1.82E0,4.6E1,1.0765061E-2,-5.3723313E-2,7.01E0,7.874E0,7.43E0,2.0277329E-2,7.8E1,1.59E0,-6.724023E-2,1.3546E1,1.064E1,1.3901944E-2,-4.0698417E-2,6.9E0,5E-1,6.3E1,-2.406769E-2,-1.7955756E-2,5.2E1,3E1,2.1E1,5.72E0,1.0818058E-2,2.053E1,6.9E0,4.1E1,1.5884796E-2,5.72E0,8.57E0,1.7426066E-2,-1.744858E-2,3.753793E-3,-4.112747E-2,1.85E0,1.5758168E-2,-3.3689014E-4,1.3467354E-2,1.4E1,7.13E0,3.7E1,1.237E1,8.731379E-3,-1.9269941E-2,-4.5749336E-2,5.323E0,-1.9980071E-2,2.0078931E-2,2.4E1,1.59E0,5.1E1,1.22E0,-1.9964153E-2,9.273677E-3,-9.668993E-3,7.53382E-3,2.5032649E-2,7.19E0,6.1E1,7.01E0,2.43135E-2,2.5938192E-4,1.022E1,8.158042E-3,1.2266882E-2,-1.4617643E-2,-1.1145167E-2,1.3851118E-2,6.684E0,7.01E0,5.2008785E-2,6.3E1,4.7E1,2.35E1,-2.714321E-2,9.887087E-3,-1.4627183E-2,8.858443E-3,4.4364255E-2,2.537336E-3,-2.2872044E-2,1.15E1,5.9E1,-3.4572456E-2,-1.2410591E-2,9.583316E-3,2.05E1,3.4E1,-3.687062E-2,8.23E0,1.873E0,1.65E0,1.1270506E-2,5.907E0,1.0922071E-2,-1.2714103E-2,7.31E0,1.738E0,1.3397088E-3,3.2672923E-2,5.59E1,3.8E1,1.26E0,1.34E0,3.8E1,7.107E1,2.7282594E-3,-1.7023107E-2,1.6261037E-2,-2.7028718E-3,3.1949126E-3,-2.420118E-2,-2.6070034E-2,1.4605206E-2,-1.645422E-3,3.6026124E-2,1.7342534E-2,-1.1501285E-2,1.0772564E-2,3.921518E-2,3.5328142E-2,-3.1403997E-3,-2.7632112E-2,6.2687154E-4],"split_indices":[6,6,10,2,0,17,17,4,12,10,23,27,10,0,0,0,10,10,10,0,14,12,0,10,12,0,0,17,27,14,0,0,14,14,14,17,0,10,10,14,0,10,17,0,0,0,0,12,0,0,0,14,17,0,17,0,0,0,17,0,0,14,12,0,12,0,0,0,0,0,10,14,10,0,0,10,0,0,0,0,0,10,10,0,0,14,23,0,0,0,0,0,0,0,10,14,0,0,0,23,14,0,10,17,12,0,17,0,0,17,10,0,0,2,0,12,12,0,2,0,0,0,0,0,0,0,0,0,0,0,0,0,0,0,0,0,0],"split_type":[0,0,0,0,0,0,0,0,0,0,0,0,0,0,0,0,0,0,0,0,0,0,0,0,0,0,0,0,0,0,0,0,0,0,0,0,0,0,0,0,0,0,0,0,0,0,0,0,0,0,0,0,0,0,0,0,0,0,0,0,0,0,0,0,0,0,0,0,0,0,0,0,0,0,0,0,0,0,0,0,0,0,0,0,0,0,0,0,0,0,0,0,0,0,0,0,0,0,0,0,0,0,0,0,0,0,0,0,0,0,0,0,0,0,0,0,0,0,0,0,0,0,0,0,0,0,0,0,0,0,0,0,0,0,0,0,0],"sum_hessian":[8.8351E2,3.573091E2,5.262009E2,1.6438297E2,1.9292613E2,4.9460727E2,3.159363E1,5.308648E1,1.1129649E2,1.659985E1,1.763263E2,4.7519995E2,1.940731E1,2.9357912E1,2.2357175E0,3.539805E1,1.7688429E1,1.39004755E1,9.739602E1,7.673345E0,8.926505E0,4.5853954E1,1.3047234E2,3.8484394E1,4.3671558E2,5.423554E0,1.3983756E1,1.147768E1,1.7880232E1,1.0584159E1,7.10427E0,3.9786215E0,9.921854E0,6.2231396E1,3.5164623E1,6.689183E0,2.2373219E0,3.028665E1,1.55673065E1,2.9528555E1,8.955837E0,4.261588E2,1.0556766E1,7.7728357E0,3.7048445E0,3.719144E0,1.4161088E1,5.1301928E0,5.453966E0,4.4741626E0,5.447691E0,1.8687243E1,4.354415E1,1.0493252E1,2.4671373E1,2.4602523E0,4.228931E0,2.3941048E1,6.3456025E0,5.786465E0,9.780841E0,8.167022E0,2.1361534E1,1.2439412E2,3.0176468E2,4.424585E0,6.13218E0,2.1591332E0,2.9710593E0,9.792635E0,8.894608E0,5.4492626E0,3.809489E1,6.575307E0,3.9179444E0,1.8293129E1,6.3782425E0,2.435351E0,3.9102519E0,2.448372E0,5.71865E0,1.6166014E1,5.19552E0,7.772576E1,4.6668358E1,4.6233597E1,2.5553108E2,6.699734E0,2.1948733E0,2.9833736E0,2.465889E0,3.4682354E1,3.4125345E0,5.2210574E0,1.3072072E1,5.16071E0,1.1005303E1,2.710707E0,2.4848127E0,2.3110115E1,2.355824E1,1.0624075E1,3.5609524E1,1.901883E2,6.53428E1,5.6426983E0,7.429374E0,2.2401893E0,2.9205205E0,1.3249921E1,9.860195E0,3.6642013E0,1.989404E1,1.1342418E1,2.4267105E1,1.1534425E1,1.7865387E2,5.488554E1,1.0457255E1,3.7100115E0,3.7193627E0,8.621486E0,4.628435E0,3.588013E0,6.272182E0,6.1482363E0,5.194181E0,4.467043E0,1.9800062E1,4.359146E0,7.175278E0,3.8496628E1,1.4015724E2,3.3248062E1,2.1637478E1,6.2179046E0,4.2393503E0],"tree_param":{"num_deleted":"0","num_feature":"28","num_nodes":"137","size_leaf_vector":"1"}},{"base_weights":[-1.3178809E-2,-6.108607E-1,3.963574E-1,-5.346768E-2,-1.0473557E0,4.4195965E-1,-5.6691307E-1,-8.564514E-1,3.8991353E-1,-1.1873955E0,2.759531E-1,5.730524E-1,1.3762972E-1,-3.6540046E-2,8.166222E-3,-9.90434E-1,-2.7698256E-2,1.5536767E-1,7.2784317E-1,-5.7763654E-1,-6.5574996E-2,-3.486731E-2,2.0605847E-2,7.6107913E-1,3.0128148E-1,-4.3825468E-1,4.1162005E-1,-5.3209472E-2,-9.7636156E-2,1.1449637E-2,-1.4716138E-2,5.414739E-1,-3.0464056E-1,-6.458448E-2,4.225299E-2,-7.619331E-1,1.3372901E-2,9.524846E-3,-1.3475018E-2,7.991963E-1,-4.3005448E-2,-4.8831457E-1,4.3997848E-1,-6.366583E-1,1.35728195E-2,-1.7088827E-2,8.631438E-1,-1.31376255E-2,7.663652E-3,3.4532152E-2,-4.2691743E-3,-3.4823895E-2,4.243501E-2,1.0293182E-2,-1.3613649E-2,-8.552745E-1,3.7314344E-2,8.3937883E-1,-1.24399684E-1,8.09813E-3,-1.2560839E-2,-3.8002204E-2,1.1202959E-2,1.8786612E-1,6.809581E-1,-7.173797E-1,-1.2335998E-1,1.7755808E-2,-1.3226244E-1,4.9089838E-2,-1.152934E-1,-1.8489428E-2,1.48934275E-2,3.75243E-1,-3.1949195E-1,-4.6472255E-2,-1.4420213E-1,-1.0586702E-2,1.2891376E-2,1.6853303E-1,9.07429E-1,9.52231E-3,-1.6063884E-2,-1.4673321E-1,5.679322E-1,1.7421276E-3,3.5277795E-2,1.4960537E-3,-8.0553454E-1,-1.9874707E-2,1.1399619E-2,-4.2632976E-1,2.0244123E-1,-1.3486079E-2,6.858098E-3,2.2446526E-2,-1.0684616E-3,1.0981498E-1,-2.6419511E-2,-1.9544436E-2,1.3793674E-2,-1.8135732E-2,4.0882948E-1,4.703462E-2,6.379117E-2,-6.0043174E-1,1.5749688E-1,-4.1481923E-2,6.4086723E-1,-4.4365954E-2,-6.2404208E-2,-7.441408E-1,1.5573397E-1,3.3058354E-1,-1.3074766E-2,1.0718508E-2,-6.6856466E-2,2.7087564E-2,-8.70709E-2,9.671211E-3,-9.556316E-2,-3.8746733E-2,9.516125E-3,3.7142527E-1,-3.2614094E-1,1.00562675E-2,-1.2373649E-2,4.619337E-2,3.655324E-2,7.4369013E-3,-1.12239E-2,3.654707E-3,-4.3649495E-2,1.4827104E-2,-1.24532364E-1,-3.0052944E-3,3.9851823E-1,-1.1376173E-2,7.3853023E-3,-1.3014789E-2,8.143479E-3,-1.3960296E-2,8.8036815E-3,3.0267978E-2,-7.6259873E-3,7.0515084E-3,-2.4265833E-2,-1.2634664E-2,1.3848105E-2,-1.3601628E-2,6.464725E-3,2.1683078E-2,3.7317415E-4],"categories":[],"categories_nodes":[],"categories_segments":[],"categories_sizes":[],"default_left":[0,0,0,0,0,0,0,0,0,0,0,0,0,0,0,0,0,0,0,0,0,0,0,0,0,0,0,0,0,0,0,0,0,0,0,0,0,0,0,0,0,0,0,0,0,0,0,0,0,0,0,0,0,0,0,0,0,0,0,0,0,0,0,0,0,0,0,0,0,0,0,0,0,0,0,0,0,0,0,0,0,0,0,0,0,0,0,0,0,0,0,0,0,0,0,0,0,0,0,0,0,0,0,0,0,0,0,0,0,0,0,0,0,0,0,0,0,0,0,0,0,0,0,0,0,0,0,0,0,0,0,0,0,0,0,0,0,0,0,0,0,0,0,0,0,0,0,0,0,0,0,0,0],"id":10,"left_children":[1,3,5,7,9,11,13,15,17,19,21,23,25,-1,-1,27,29,31,33,35,-1,37,-1,39,41,43,45,-1,47,-1,-1,49,51,53,-1,55,-1,-1,-1,57,59,61,63,65,-1,67,69,-1,-1,-1,71,-1,73,-1,-1,75,77,79,81,-1,-1,-1,-1,83,85,87,89,-1,91,-1,93,-1,-1,95,97,-1,99,-1,-1,101,103,-1,-1,105,107,-1,-1,-1,109,-1,-1,111,113,-1,-1,-1,-1,115,-1,-1,-1,-1,117,-1,119,121,123,125,127,-1,129,131,133,135,-1,-1,137,-1,139,-1,141,-1,-1,143,145,-1,-1,147,-1,-1,-1,-1,-1,-1,149,-1,151,-1,-1,-1,-1,-1,-1,-1,-1,-1,-1,-1,-1,-1,-1,-1,-1],"loss_changes":[2.2295924E2,8.912204E1,2.801744E1,6.994258E1,4.387732E1,1.9642433E1,5.8460913E0,7.2543373E0,8.220905E0,1.5096436E0,1.6653066E0,1.4612053E1,3.1582357E1,0E0,0E0,2.1428146E0,3.0049884E0,2.0060484E1,5.369461E0,1.3204065E1,0E0,2.2424133E0,0E0,6.8050156E0,2.2956348E1,1.2301364E1,2.5652473E1,0E0,1.6477573E0,0E0,0E0,4.8484955E0,8.01148E0,2.1860511E0,0E0,4.7021065E0,0E0,0E0,0E0,8.998909E0,1.7721735E0,9.552715E0,7.4774513E0,8.59396E-1,0E0,4.398692E0,9.3825035E0,0E0,0E0,0E0,5.1357255E0,0E0,7.494982E0,0E0,0E0,3.921051E-1,2.142838E0,6.015671E0,2.4609532E0,0E0,0E0,0E0,0E0,1.4276183E1,7.7014923E-1,3.4248085E0,4.264784E0,0E0,8.999108E0,0E0,1.4929149E0,0E0,0E0,1.0813193E0,3.756188E0,0E0,4.414014E0,0E0,0E0,7.404868E0,3.679367E0,0E0,0E0,1.0895104E1,2.7113876E0,0E0,0E0,0E0,1.5837498E0,0E0,0E0,1.0517962E1,4.2825E0,0E0,0E0,0E0,0E0,6.9036865E-1,0E0,0E0,0E0,0E0,3.0651217E0,0E0,8.2218534E-1,6.72163E0,7.6200314E0,1.9156098E0,1.9165401E0,0E0,1.3343203E0,4.541851E0,1.8266006E0,1.5905128E0,0E0,0E0,1.3279879E0,0E0,1.6690496E0,0E0,1.9535637E0,0E0,0E0,7.1110563E0,3.0623448E0,0E0,0E0,2.863208E0,0E0,0E0,0E0,0E0,0E0,0E0,1.4264853E0,0E0,4.975462E-1,0E0,0E0,0E0,0E0,0E0,0E0,0E0,0E0,0E0,0E0,0E0,0E0,0E0,0E0,0E0,0E0],"parents":[2147483647,0,0,1,1,2,2,3,3,4,4,5,5,6,6,7,7,8,8,9,9,10,10,11,11,12,12,15,15,16,16,17,17,18,18,19,19,21,21,23,23,24,24,25,25,26,26,28,28,31,31,32,32,33,33,35,35,39,39,40,40,41,41,42,42,43,43,45,45,46,46,50,50,52,52,55,55,56,56,57,57,58,58,63,63,64,64,65,65,66,66,68,68,70,70,73,73,74,74,76,76,79,79,80,80,83,83,84,84,88,88,91,91,92,92,97,97,102,102,104,104,105,105,106,106,107,107,108,108,110,110,111,111,112,112,113,113,116,116,118,118,120,120,123,123,124,124,127,127,134,134,136,136],"right_children":[2,4,6,8,10,12,14,16,18,20,22,24,26,-1,-1,28,30,32,34,36,-1,38,-1,40,42,44,46,-1,48,-1,-1,50,52,54,-1,56,-1,-1,-1,58,60,62,64,66,-1,68,70,-1,-1,-1,72,-1,74,-1,-1,76,78,80,82,-1,-1,-1,-1,84,86,88,90,-1,92,-1,94,-1,-1,96,98,-1,100,-1,-1,102,104,-1,-1,106,108,-1,-1,-1,110,-1,-1,112,114,-1,-1,-1,-1,116,-1,-1,-1,-1,118,-1,120,122,124,126,128,-1,130,132,134,136,-1,-1,138,-1,140,-1,142,-1,-1,144,146,-1,-1,148,-1,-1,-1,-1,-1,-1,150,-1,152,-1,-1,-1,-1,-1,-1,-1,-1,-1,-1,-1,-1,-1,-1,-1,-1],"split_conditions":[1.39E0,1.27E0,1.935E1,1.18E1,2.239E1,1.09E0,1.26E0,1.17E0,1.17E0,1.645E1,1.06E0,7.19E0,1.64E0,-3.6540046E-2,8.166222E-3,1.85E0,7.01E0,7.5E-1,6E1,1.85E0,-6.5574996E-2,3.3E1,2.0605847E-2,1.2E0,5.893E1,2.310359E2,1.69E0,-5.3209472E-2,3.214E0,1.1449637E-2,-1.4716138E-2,1.57E0,8.3E-1,1.16E0,4.225299E-2,2.06E1,1.3372901E-2,9.524846E-3,-1.3475018E-2,1.91E0,5.9E1,1.74E0,1.06E0,1.59E0,1.35728195E-2,1.738E0,2.35E0,-1.31376255E-2,7.663652E-3,3.4532152E-2,1.18E0,-3.4823895E-2,1.44E0,1.0293182E-2,-1.3613649E-2,1.06E0,1.689E2,6.8E-1,2.809E1,8.09813E-3,-1.2560839E-2,-3.8002204E-2,1.1202959E-2,1.15E0,1.44E0,1.44E0,1.589E2,1.7755808E-2,8.23E0,4.9089838E-2,9.75E0,-1.8489428E-2,1.48934275E-2,1.48E0,3.206E1,-4.6472255E-2,1.06E0,-1.0586702E-2,1.2891376E-2,2.08E1,2.35E0,9.52231E-3,-1.6063884E-2,1.34E0,6.5E-1,1.7421276E-3,3.5277795E-2,1.4960537E-3,1.23E0,-1.9874707E-2,1.1399619E-2,1.409E2,2.09E2,-1.3486079E-2,6.858098E-3,2.2446526E-2,-1.0684616E-3,2.1E1,-2.6419511E-2,-1.9544436E-2,1.3793674E-2,-1.8135732E-2,1.5E1,4.703462E-2,1.81E1,8.4E1,1E0,6.355E1,2.479E1,-4.4365954E-2,6.684E0,7.4E-1,8.3E-1,2.9E1,-1.3074766E-2,1.0718508E-2,1.63E1,2.7087564E-2,3.4E1,9.671211E-3,7.5E1,-3.8746733E-2,9.516125E-3,3.4E1,1.44E0,1.00562675E-2,-1.2373649E-2,1.74E0,3.655324E-2,7.4369013E-3,-1.12239E-2,3.654707E-3,-4.3649495E-2,1.4827104E-2,7.4E1,-3.0052944E-3,1.62E0,-1.1376173E-2,7.3853023E-3,-1.3014789E-2,8.143479E-3,-1.3960296E-2,8.8036815E-3,3.0267978E-2,-7.6259873E-3,7.0515084E-3,-2.4265833E-2,-1.2634664E-2,1.3848105E-2,-1.3601628E-2,6.464725E-3,2.1683078E-2,3.7317415E-4],"split_indices":[6,6,10,2,2,25,20,20,20,23,20,10,6,0,0,12,10,20,14,19,0,14,0,20,8,8,19,0,24,0,0,12,20,12,0,2,0,0,0,19,14,19,13,12,0,10,19,0,0,0,13,0,19,0,0,20,8,20,8,0,0,0,0,20,6,6,8,0,10,0,10,0,0,12,22,0,13,0,0,2,12,0,0,12,25,0,0,0,20,0,0,8,8,0,0,0,0,14,0,0,0,0,14,0,2,14,13,8,2,0,10,13,20,14,0,0,2,0,14,0,14,0,0,14,6,0,0,19,0,0,0,0,0,0,14,0,19,0,0,0,0,0,0,0,0,0,0,0,0,0,0,0,0],"split_type":[0,0,0,0,0,0,0,0,0,0,0,0,0,0,0,0,0,0,0,0,0,0,0,0,0,0,0,0,0,0,0,0,0,0,0,0,0,0,0,0,0,0,0,0,0,0,0,0,0,0,0,0,0,0,0,0,0,0,0,0,0,0,0,0,0,0,0,0,0,0,0,0,0,0,0,0,0,0,0,0,0,0,0,0,0,0,0,0,0,0,0,0,0,0,0,0,0,0,0,0,0,0,0,0,0,0,0,0,0,0,0,0,0,0,0,0,0,0,0,0,0,0,0,0,0,0,0,0,0,0,0,0,0,0,0,0,0,0,0,0,0,0,0,0,0,0,0,0,0,0,0,0,0],"sum_hessian":[8.770683E2,3.5321915E2,5.238492E2,1.635071E2,1.8971205E2,5.089549E2,1.4894267E1,5.2531788E1,1.109753E2,1.7313588E2,1.657617E1,3.4523218E2,1.637227E2,1.2153524E1,2.7407424E0,4.2366047E1,1.0165739E1,8.015697E1,3.0818336E1,4.5535095E1,1.2760078E2,8.902137E0,7.674033E0,1.8596405E2,1.5926814E2,4.9496643E1,1.1422607E2,3.6118713E1,6.2473354E0,6.401827E0,3.763912E0,4.1942253E1,3.8214714E1,4.9548674E0,2.5863468E1,3.875612E1,6.778974E0,6.1718836E0,2.7302535E0,1.7764618E2,8.317866E0,1.739377E1,1.4187437E2,4.0050243E1,9.4464E0,6.698363E1,4.7242435E1,3.2838795E0,2.9634557E0,2.9394217E1,1.2548038E1,9.911256E0,2.8303457E1,2.2171314E0,2.737736E0,3.363617E1,5.1199503E0,1.7172513E2,5.92105E0,6.094453E0,2.223413E0,1.1767534E1,5.6262355E0,8.4120636E1,5.7753742E1,2.8767294E1,1.12829485E1,7.459752E0,5.9523876E1,4.2080997E1,5.1614413E0,3.95588E0,8.592157E0,1.4419041E1,1.3884417E1,2.5731419E1,7.904752E0,2.7222457E0,2.3977048E0,2.1258514E1,1.5046661E2,2.4917057E0,3.4293442E0,5.0286552E1,3.3834084E1,3.6246502E0,5.4129093E1,4.220393E0,2.4546902E1,5.0838504E0,6.1990976E0,2.9208117E1,3.031576E1,2.4810736E0,2.6803675E0,1.0268682E1,4.150359E0,7.18397E0,6.7004466E0,5.7243366E0,2.1804152E0,3.923607E0,1.7334908E1,1.4287743E2,7.58919E0,1.3541188E1,3.674536E1,4.4000826E0,2.9434002E1,1.9141779E1,5.405123E0,1.583073E1,1.3377386E1,2.7583471E1,2.732288E0,2.2342284E0,4.9497414E0,1.2431052E1,4.903856E0,2.1806562E0,5.408534E0,1.1371774E1,2.1694143E0,2.821103E1,8.534333E0,2.2048554E0,2.195227E0,7.26198E0,2.2172022E1,2.954688E0,2.450435E0,3.157868E0,1.2672863E1,8.246863E0,5.130523E0,4.3760543E0,2.3207417E1,2.2431417E0,2.7066E0,2.48043E0,2.4234262E0,2.944305E0,2.464229E0,1.7676931E1,1.0534098E1,2.661358E0,5.872975E0,2.460319E0,4.801661E0,2.4737127E0,2.6568108E0,1.9594305E1,3.613113E0],"tree_param":{"num_deleted":"0","num_feature":"28","num_nodes":"153","size_leaf_vector":"1"}},{"base_weights":[-1.4239306E-2,-5.9271276E-1,3.7944007E-1,-5.3512644E-2,-1.0191885E0,4.381534E-1,-3.6914757E-1,1.23611815E-1,-4.063774E-2,2.7076182E-1,-1.158169E0,4.9360457E-1,-5.119563E-1,-5.8420396E-1,1.6235088E-1,-3.179367E-2,2.570702E-1,2.120153E-2,-1.2028097E-1,-1.1871089E0,-2.2226988E-1,-1.9137986E-1,5.592312E-1,1.3361283E-2,-3.9759204E-2,-7.3575747E-1,1.0747137E-2,1.2192094E-2,-5.0619204E-2,5.035948E-1,-1.3670917E-1,7.3022405E-3,-1.4035994E-2,-4.7323072E-1,-6.445926E-2,-2.1513466E-2,1.1105679E-2,-5.614284E-1,1.8518065E-1,-5.859779E-2,6.006366E-1,3.504162E-3,-4.2801153E-2,9.373477E-3,-1.2041388E-2,6.6052616E-2,7.195516E-1,-4.353582E-1,3.674132E-1,-3.9821114E-2,1.7600825E-1,-3.532875E-2,5.8860625E-3,-1.3241358E-2,3.416283E-1,-3.0384207E-1,1.6524086E-2,6.2331045E-1,-1.23028554E-1,4.463502E-1,-3.7623405E-1,-6.198081E-2,8.0430776E-1,8.515383E-3,-6.691512E-1,2.2618944E-2,-4.0820085E-2,-1.5780825E-2,2.32979E-2,4.8081163E-1,-1.02310605E-1,9.497759E-3,-4.322083E-1,6.4591897E-1,-3.8246997E-2,1.3557555E-2,-2.1297837E-2,2.9977938E-2,-1.0390069E-2,9.392923E-3,-3.186473E-2,-1.2599656E-2,9.4051575E-3,1.9142401E-1,4.563154E-2,1.702376E-2,-3.171664E-1,-4.0367246E-2,5.375789E-3,1.0235342E-2,-1.2365003E-2,1.4366948E-3,2.6613275E-2,9.733124E-3,-1.502807E-2,-3.254675E-2,1.0982366E-1,3.7883267E-1,7.302422E-1,1.6915334E-2,-3.2923442E-1,1.9169984E-2,-1.2417634E-2,-2.3149358E-2,6.197279E-3,1.0654283E-2,-6.5753795E-2,5.8951193E-1,-3.4410845E-2,7.638901E-1,-1.5628235E-2,-2.3994302E-2,6.46127E-3,-1.1340944E-2,7.4126455E-3,3.886344E-3,3.651401E-2,1.2541945E-2,4.1359168E-2,-2.0460507E-2,1.6636541E-2],"categories":[],"categories_nodes":[],"categories_segments":[],"categories_sizes":[],"default_left":[0,0,0,0,0,0,0,0,0,0,0,0,0,0,0,0,0,0,0,0,0,0,0,0,0,0,0,0,0,0,0,0,0,0,0,0,0,0,0,0,0,0,0,0,0,0,0,0,0,0,0,0,0,0,0,0,0,0,0,0,0,0,0,0,0,0,0,0,0,0,0,0,0,0,0,0,0,0,0,0,0,0,0,0,0,0,0,0,0,0,0,0,0,0,0,0,0,0,0,0,0,0,0,0,0,0,0,0,0,0,0,0,0,0,0,0,0,0,0,0,0],"id":11,"left_children":[1,3,5,7,9,11,13,15,-1,17,19,21,23,25,27,-1,29,-1,31,33,35,37,39,-1,-1,41,-1,-1,43,45,47,-1,-1,49,-1,-1,-1,51,53,55,57,-1,-1,-1,-1,59,61,63,65,-1,67,-1,-1,-1,69,71,-1,73,75,77,79,81,83,85,87,-1,89,-1,-1,91,93,-1,95,97,99,-1,-1,-1,-1,-1,-1,-1,-1,101,-1,-1,103,-1,-1,-1,-1,-1,-1,-1,-1,-1,105,107,109,-1,111,-1,-1,-1,-1,-1,113,115,-1,117,119,-1,-1,-1,-1,-1,-1,-1,-1,-1,-1],"loss_changes":[2.058297E2,8.320082E1,2.6404076E1,2.5848688E1,4.1784073E1,3.0997597E1,7.1409254E0,1.9027922E1,0E0,2.878171E0,5.732422E-1,2.3735321E1,1.1621788E1,7.306734E0,6.825195E-1,0E0,1.5582E1,0E0,1.6665657E0,2.5454407E0,4.075821E0,9.471907E0,1.2090454E1,0E0,0E0,4.498787E0,0E0,0E0,1.7463872E0,8.161852E0,1.3337637E1,0E0,0E0,1.2671877E1,0E0,0E0,0E0,4.578621E0,4.3673487E0,5.8773193E0,8.236633E0,0E0,0E0,0E0,0E0,1.1279781E1,4.943741E0,5.5004616E0,1.5437932E0,0E0,6.807831E0,0E0,0E0,0E0,3.1375299E0,3.656359E0,0E0,6.58963E0,5.191577E0,5.5964193E0,6.803839E0,1.8433428E0,8.147087E-1,5.5927806E0,5.1592216E0,0E0,1.9607904E0,0E0,0E0,4.6893692E-1,2.3432848E0,0E0,5.1865215E0,4.3016205E0,5.145691E0,0E0,0E0,0E0,0E0,0E0,0E0,0E0,0E0,4.157778E0,0E0,0E0,2.6699798E0,0E0,0E0,0E0,0E0,0E0,0E0,0E0,0E0,0E0,6.765208E-1,3.6406246E1,7.3694E0,0E0,2.8056598E0,0E0,0E0,0E0,0E0,0E0,1.3280531E0,7.5921936E0,0E0,5.356079E0,6.2887306E0,0E0,0E0,0E0,0E0,0E0,0E0,0E0,0E0,0E0,0E0],"parents":[2147483647,0,0,1,1,2,2,3,3,4,4,5,5,6,6,7,7,9,9,10,10,11,11,12,12,13,13,14,14,16,16,18,18,19,19,20,20,21,21,22,22,25,25,28,28,29,29,30,30,33,33,37,37,38,38,39,39,40,40,45,45,46,46,47,47,48,48,50,50,54,54,55,55,57,57,58,58,59,59,60,60,61,61,62,62,63,63,64,64,66,66,69,69,70,70,72,72,73,73,74,74,83,83,86,86,96,96,97,97,98,98,100,100,106,106,107,107,109,109,110,110],"right_children":[2,4,6,8,10,12,14,16,-1,18,20,22,24,26,28,-1,30,-1,32,34,36,38,40,-1,-1,42,-1,-1,44,46,48,-1,-1,50,-1,-1,-1,52,54,56,58,-1,-1,-1,-1,60,62,64,66,-1,68,-1,-1,-1,70,72,-1,74,76,78,80,82,84,86,88,-1,90,-1,-1,92,94,-1,96,98,100,-1,-1,-1,-1,-1,-1,-1,-1,102,-1,-1,104,-1,-1,-1,-1,-1,-1,-1,-1,-1,106,108,110,-1,112,-1,-1,-1,-1,-1,114,116,-1,118,120,-1,-1,-1,-1,-1,-1,-1,-1,-1,-1],"split_conditions":[1.39E0,1.27E0,1.665E1,1.902E2,4.496E1,1.665E1,2.56E0,1.23E0,-4.063774E-2,1.82E0,2.145E1,1.33E0,1.82E0,2.145E1,1.47E0,-3.179367E-2,1.83E0,2.120153E-2,5.907E0,9E0,1.85E0,1.589E2,1.42E0,1.3361283E-2,-3.9759204E-2,1.4E0,1.0747137E-2,1.2192094E-2,4.008E1,1.72E0,2.56E0,7.3022405E-3,-1.4035994E-2,1.59E0,-6.445926E-2,-2.1513466E-2,1.1105679E-2,2.7E0,6.51E0,1.05E1,1.064E1,3.504162E-3,-4.2801153E-2,9.373477E-3,-1.2041388E-2,6.77E0,6.355E1,1.6E1,2.67E0,-3.9821114E-2,1.589E2,-3.532875E-2,5.8860625E-3,-1.3241358E-2,9.3E0,1.738E0,1.6524086E-2,2.09E2,1.79E0,7.19E0,1.4E0,1.45E0,1.36E0,8.547E1,2.044E2,2.2618944E-2,1.16E0,-1.5780825E-2,2.32979E-2,1.389E2,1.26E0,9.497759E-3,1.401E2,1.61E0,1.44E0,1.3557555E-2,-2.1297837E-2,2.9977938E-2,-1.0390069E-2,9.392923E-3,-3.186473E-2,-1.2599656E-2,9.4051575E-3,7.874E0,4.563154E-2,1.702376E-2,2.42E0,-4.0367246E-2,5.375789E-3,1.0235342E-2,-1.2365003E-2,1.4366948E-3,2.6613275E-2,9.733124E-3,-1.502807E-2,-3.254675E-2,1.442E2,1.6E1,2.62E0,1.6915334E-2,2.310359E2,1.9169984E-2,-1.2417634E-2,-2.3149358E-2,6.197279E-3,1.0654283E-2,7.874E0,1.36E0,-3.4410845E-2,1.22E0,8.23E0,-2.3994302E-2,6.46127E-3,-1.1340944E-2,7.4126455E-3,3.886344E-3,3.651401E-2,1.2541945E-2,4.1359168E-2,-2.0460507E-2,1.6636541E-2],"split_indices":[6,6,10,1,1,17,18,5,0,18,10,27,10,17,6,0,18,0,10,21,19,8,18,0,0,18,0,0,1,18,18,0,0,12,0,0,0,18,17,10,12,0,0,0,0,10,8,21,18,0,8,0,0,0,17,10,0,8,18,17,18,12,19,1,8,0,12,0,0,1,19,0,1,6,5,0,0,0,0,0,0,0,0,17,0,0,18,0,0,0,0,0,0,0,0,0,1,21,19,0,8,