{"learner":{"attributes":{"scikit_learn":"{\"_estimator_type\": \"regressor\"}"},"feature_names":["A_Number","A_Relative mess","A_Volume","A_Density","A_Atomic radius (A)","A_Covalent radius (A)","A_Effective ion radius","B1_Number","B1_Relative mess","B1_Volume","B1_Density","B1_Atomic radius (A)","B1_Covalent radius (A)","B1_Effective ion radius","B2_Number","B2_Relative mess","B2_Volume","B2_Density","B2_Atomic radius (A)","B2_Covalent radius (A)","B2_Effective ion radius","X_Number","X_Relative mess","X_Volume","X_Density","X_Atomic radius (A)","X_Covalent radius (A)","X_Effective ion radius","minimum Number","maximum Number","range Number","mean Number","avg_dev Number","mode Number","minimum MendeleevNumber","maximum MendeleevNumber","range MendeleevNumber","mean MendeleevNumber","avg_dev MendeleevNumber","mode MendeleevNumber","minimum AtomicWeight","maximum AtomicWeight","range AtomicWeight","mean AtomicWeight","avg_dev AtomicWeight","mode AtomicWeight","minimum MeltingT","maximum MeltingT","range MeltingT","mean MeltingT","avg_dev MeltingT","mode MeltingT","minimum Column","maximum Column","range Column","mean Column","avg_dev Column","mode Column","minimum Row","maximum Row","range Row","mean Row","avg_dev Row","mode Row","minimum CovalentRadius","maximum CovalentRadius","range CovalentRadius","mean CovalentRadius","avg_dev CovalentRadius","mode CovalentRadius","minimum Electronegativity","maximum Electronegativity","range Electronegativity","mean Electronegativity","avg_dev Electronegativity","mode Electronegativity","minimum NsValence","maximum NsValence","range NsValence","mean NsValence","avg_dev NsValence","mode NsValence","minimum NpValence","maximum NpValence","range NpValence","mean NpValence","avg_dev NpValence","mode NpValence","minimum NdValence","maximum NdValence","range NdValence","mean NdValence","avg_dev NdValence","mode NdValence","minimum NfValence","maximum NfValence","range NfValence","mean NfValence","avg_dev NfValence","mode NfValence","minimum NValence","maximum NValence","range NValence","mean NValence","avg_dev NValence","mode NValence","minimum NsUnfilled","maximum NsUnfilled","range NsUnfilled","mean NsUnfilled","avg_dev NsUnfilled","mode NsUnfilled","minimum NpUnfilled","maximum NpUnfilled","range NpUnfilled","mean NpUnfilled","avg_dev NpUnfilled","mode NpUnfilled","minimum NdUnfilled","maximum NdUnfilled","range NdUnfilled","mean NdUnfilled","avg_dev NdUnfilled","mode NdUnfilled","minimum NfUnfilled","maximum NfUnfilled","range NfUnfilled","mean NfUnfilled","avg_dev NfUnfilled","mode NfUnfilled","minimum NUnfilled","maximum NUnfilled","range NUnfilled","mean NUnfilled","avg_dev NUnfilled","mode NUnfilled","minimum GSvolume_pa","maximum GSvolume_pa","range GSvolume_pa","mean GSvolume_pa","avg_dev GSvolume_pa","mode GSvolume_pa","minimum GSbandgap","maximum GSbandgap","range GSbandgap","mean GSbandgap","avg_dev GSbandgap","mode GSbandgap","minimum GSmagmom","maximum GSmagmom","range GSmagmom","mean GSmagmom","avg_dev GSmagmom","mode GSmagmom","minimum SpaceGroupNumber","maximum SpaceGroupNumber","range SpaceGroupNumber","mean SpaceGroupNumber","avg_dev SpaceGroupNumber","mode SpaceGroupNumber"],"feature_types":["int","float","float","float","float","float","float","int","float","float","float","float","float","float","int","float","float","float","float","float","float","int","float","float","float","float","float","float","int","int","int","float","float","int","int","int","int","float","float","int","float","float","float","float","float","float","float","float","float","float","float","float","int","int","int","float","float","int","int","int","int","float","float","int","int","int","int","float","float","int","float","float","float","float","float","float","int","int","int","float","float","int","int","int","int","float","float","int","int","int","int","float","float","int","int","int","int","float","float","int","int","int","int","float","float","int","int","int","int","float","float","int","int","int","int","float","float","int","int","int","int","float","float","int","int","int","int","float","float","int","int","int","int","float","float","int","float","float","float","float","float","float","int","float","float","float","float","float","int","float","float","float","float","int","int","int","int","float","float","int"],"gradient_booster":{"model":{"gbtree_model_param":{"num_parallel_tree":"1","num_trees":"1000"},"iteration_indptr":[0,1,2,3,4,5,6,7,8,9,10,11,12,13,14,15,16,17,18,19,20,21,22,23,24,25,26,27,28,29,30,31,32,33,34,35,36,37,38,39,40,41,42,43,44,45,46,47,48,49,50,51,52,53,54,55,56,57,58,59,60,61,62,63,64,65,66,67,68,69,70,71,72,73,74,75,76,77,78,79,80,81,82,83,84,85,86,87,88,89,90,91,92,93,94,95,96,97,98,99,100,101,102,103,104,105,106,107,108,109,110,111,112,113,114,115,116,117,118,119,120,121,122,123,124,125,126,127,128,129,130,131,132,133,134,135,136,137,138,139,140,141,142,143,144,145,146,147,148,149,150,151,152,153,154,155,156,157,158,159,160,161,162,163,164,165,166,167,168,169,170,171,172,173,174,175,176,177,178,179,180,181,182,183,184,185,186,187,188,189,190,191,192,193,194,195,196,197,198,199,200,201,202,203,204,205,206,207,208,209,210,211,212,213,214,215,216,217,218,219,220,221,222,223,224,225,226,227,228,229,230,231,232,233,234,235,236,237,238,239,240,241,242,243,244,245,246,247,248,249,250,251,252,253,254,255,256,257,258,259,260,261,262,263,264,265,266,267,268,269,270,271,272,273,274,275,276,277,278,279,280,281,282,283,284,285,286,287,288,289,290,291,292,293,294,295,296,297,298,299,300,301,302,303,304,305,306,307,308,309,310,311,312,313,314,315,316,317,318,319,320,321,322,323,324,325,326,327,328,329,330,331,332,333,334,335,336,337,338,339,340,341,342,343,344,345,346,347,348,349,350,351,352,353,354,355,356,357,358,359,360,361,362,363,364,365,366,367,368,369,370,371,372,373,374,375,376,377,378,379,380,381,382,383,384,385,386,387,388,389,390,391,392,393,394,395,396,397,398,399,400,401,402,403,404,405,406,407,408,409,410,411,412,413,414,415,416,417,418,419,420,421,422,423,424,425,426,427,428,429,430,431,432,433,434,435,436,437,438,439,440,441,442,443,444,445,446,447,448,449,450,451,452,453,454,455,456,457,458,459,460,461,462,463,464,465,466,467,468,469,470,471,472,473,474,475,476,477,478,479,480,481,482,483,484,485,486,487,488,489,490,491,492,493,494,495,496,497,498,499,500,501,502,503,504,505,506,507,508,509,510,511,512,513,514,515,516,517,518,519,520,521,522,523,524,525,526,527,528,529,530,531,532,533,534,535,536,537,538,539,540,541,542,543,544,545,546,547,548,549,550,551,552,553,554,555,556,557,558,559,560,561,562,563,564,565,566,567,568,569,570,571,572,573,574,575,576,577,578,579,580,581,582,583,584,585,586,587,588,589,590,591,592,593,594,595,596,597,598,599,600,601,602,603,604,605,606,607,608,609,610,611,612,613,614,615,616,617,618,619,620,621,622,623,624,625,626,627,628,629,630,631,632,633,634,635,636,637,638,639,640,641,642,643,644,645,646,647,648,649,650,651,652,653,654,655,656,657,658,659,660,661,662,663,664,665,666,667,668,669,670,671,672,673,674,675,676,677,678,679,680,681,682,683,684,685,686,687,688,689,690,691,692,693,694,695,696,697,698,699,700,701,702,703,704,705,706,707,708,709,710,711,712,713,714,715,716,717,718,719,720,721,722,723,724,725,726,727,728,729,730,731,732,733,734,735,736,737,738,739,740,741,742,743,744,745,746,747,748,749,750,751,752,753,754,755,756,757,758,759,760,761,762,763,764,765,766,767,768,769,770,771,772,773,774,775,776,777,778,779,780,781,782,783,784,785,786,787,788,789,790,791,792,793,794,795,796,797,798,799,800,801,802,803,804,805,806,807,808,809,810,811,812,813,814,815,816,817,818,819,820,821,822,823,824,825,826,827,828,829,830,831,832,833,834,835,836,837,838,839,840,841,842,843,844,845,846,847,848,849,850,851,852,853,854,855,856,857,858,859,860,861,862,863,864,865,866,867,868,869,870,871,872,873,874,875,876,877,878,879,880,881,882,883,884,885,886,887,888,889,890,891,892,893,894,895,896,897,898,899,900,901,902,903,904,905,906,907,908,909,910,911,912,913,914,915,916,917,918,919,920,921,922,923,924,925,926,927,928,929,930,931,932,933,934,935,936,937,938,939,940,941,942,943,944,945,946,947,948,949,950,951,952,953,954,955,956,957,958,959,960,961,962,963,964,965,966,967,968,969,970,971,972,973,974,975,976,977,978,979,980,981,982,983,984,985,986,987,988,989,990,991,992,993,994,995,996,997,998,999,1000],"tree_info":[0,0,0,0,0,0,0,0,0,0,0,0,0,0,0,0,0,0,0,0,0,0,0,0,0,0,0,0,0,0,0,0,0,0,0,0,0,0,0,0,0,0,0,0,0,0,0,0,0,0,0,0,0,0,0,0,0,0,0,0,0,0,0,0,0,0,0,0,0,0,0,0,0,0,0,0,0,0,0,0,0,0,0,0,0,0,0,0,0,0,0,0,0,0,0,0,0,0,0,0,0,0,0,0,0,0,0,0,0,0,0,0,0,0,0,0,0,0,0,0,0,0,0,0,0,0,0,0,0,0,0,0,0,0,0,0,0,0,0,0,0,0,0,0,0,0,0,0,0,0,0,0,0,0,0,0,0,0,0,0,0,0,0,0,0,0,0,0,0,0,0,0,0,0,0,0,0,0,0,0,0,0,0,0,0,0,0,0,0,0,0,0,0,0,0,0,0,0,0,0,0,0,0,0,0,0,0,0,0,0,0,0,0,0,0,0,0,0,0,0,0,0,0,0,0,0,0,0,0,0,0,0,0,0,0,0,0,0,0,0,0,0,0,0,0,0,0,0,0,0,0,0,0,0,0,0,0,0,0,0,0,0,0,0,0,0,0,0,0,0,0,0,0,0,0,0,0,0,0,0,0,0,0,0,0,0,0,0,0,0,0,0,0,0,0,0,0,0,0,0,0,0,0,0,0,0,0,0,0,0,0,0,0,0,0,0,0,0,0,0,0,0,0,0,0,0,0,0,0,0,0,0,0,0,0,0,0,0,0,0,0,0,0,0,0,0,0,0,0,0,0,0,0,0,0,0,0,0,0,0,0,0,0,0,0,0,0,0,0,0,0,0,0,0,0,0,0,0,0,0,0,0,0,0,0,0,0,0,0,0,0,0,0,0,0,0,0,0,0,0,0,0,0,0,0,0,0,0,0,0,0,0,0,0,0,0,0,0,0,0,0,0,0,0,0,0,0,0,0,0,0,0,0,0,0,0,0,0,0,0,0,0,0,0,0,0,0,0,0,0,0,0,0,0,0,0,0,0,0,0,0,0,0,0,0,0,0,0,0,0,0,0,0,0,0,0,0,0,0,0,0,0,0,0,0,0,0,0,0,0,0,0,0,0,0,0,0,0,0,0,0,0,0,0,0,0,0,0,0,0,0,0,0,0,0,0,0,0,0,0,0,0,0,0,0,0,0,0,0,0,0,0,0,0,0,0,0,0,0,0,0,0,0,0,0,0,0,0,0,0,0,0,0,0,0,0,0,0,0,0,0,0,0,0,0,0,0,0,0,0,0,0,0,0,0,0,0,0,0,0,0,0,0,0,0,0,0,0,0,0,0,0,0,0,0,0,0,0,0,0,0,0,0,0,0,0,0,0,0,0,0,0,0,0,0,0,0,0,0,0,0,0,0,0,0,0,0,0,0,0,0,0,0,0,0,0,0,0,0,0,0,0,0,0,0,0,0,0,0,0,0,0,0,0,0,0,0,0,0,0,0,0,0,0,0,0,0,0,0,0,0,0,0,0,0,0,0,0,0,0,0,0,0,0,0,0,0,0,0,0,0,0,0,0,0,0,0,0,0,0,0,0,0,0,0,0,0,0,0,0,0,0,0,0,0,0,0,0,0,0,0,0,0,0,0,0,0,0,0,0,0,0,0,0,0,0,0,0,0,0,0,0,0,0,0,0,0,0,0,0,0,0,0,0,0,0,0,0,0,0,0,0,0,0,0,0,0,0,0,0,0,0,0,0,0,0,0,0,0,0,0,0,0,0,0,0,0,0,0,0,0,0,0,0,0,0,0,0,0,0,0,0,0,0,0,0,0,0,0,0,0,0,0,0,0,0,0,0,0,0,0,0,0,0,0,0,0,0,0,0,0,0,0,0,0,0,0,0,0,0,0,0,0,0,0,0,0,0,0,0,0,0,0,0,0,0,0,0,0,0,0,0,0,0,0,0,0,0,0,0,0,0,0,0,0,0,0,0,0,0,0,0,0,0,0,0,0,0,0,0,0,0,0,0,0,0,0,0,0,0,0,0,0,0,0,0,0,0,0,0,0,0,0,0,0,0,0,0,0,0,0,0,0,0,0,0,0,0,0,0,0,0,0,0,0,0,0,0,0,0,0,0,0,0,0,0,0,0,0,0,0,0,0,0,0,0,0,0,0,0,0,0,0,0,0,0,0,0,0,0,0,0,0,0,0,0,0,0,0,0,0,0,0,0,0,0,0,0,0,0,0,0,0,0,0,0,0,0,0,0],"trees":[{"base_weights":[-5.379728E-4,-1.4772809E0,7.1740335E-1,-1.7784986E-1,1.438487E-1,-1.7066954E-1,1.2529473E0,-1.4747034E-1,1.4603117E0,-1.3468775E-1,1.6159871E0,1.6994829E0,-1.065587E-1,-9.894551E-2,1.7732074E0,5.295167E-1,1.8785298E0,1.6444068E-1,-1.1898333E-1,1.9429615E-1,8.93678E-2],"categories":[],"categories_nodes":[],"categories_segments":[],"categories_sizes":[],"default_left":[0,0,0,0,0,0,0,0,0,0,0,0,0,0,0,0,0,0,0,0,0],"id":0,"left_children":[1,3,5,-1,-1,-1,7,-1,9,-1,11,13,-1,-1,15,17,19,-1,-1,-1,-1],"loss_changes":[1.00484985E3,2.9277228E2,8.450271E2,0E0,0E0,0E0,3.152827E2,0E0,2.3318323E2,0E0,1.200426E2,1.052832E2,0E0,0E0,5.1100586E1,1.0448295E2,1.2286011E1,0E0,0E0,0E0,0E0],"parents":[2147483647,0,0,1,1,2,2,6,6,8,8,10,10,11,11,14,14,15,15,16,16],"right_children":[2,4,6,-1,-1,-1,8,-1,10,-1,12,14,-1,-1,16,18,20,-1,-1,-1,-1],"split_conditions":[7.3272E0,7.2E1,7.2E-1,-1.7784986E-1,1.438487E-1,-1.7066954E-1,7.1E0,-1.4747034E-1,1E2,-1.3468775E-1,2.66E0,3.24E0,-1.065587E-1,-9.894551E-2,9.2E0,5E0,2.46E0,1.6444068E-1,-1.1898333E-1,1.9429615E-1,8.93678E-2],"split_indices":[140,34,116,0,0,0,103,0,66,0,128,56,0,0,9,7,72,0,0,0,0],"split_type":[0,0,0,0,0,0,0,0,0,0,0,0,0,0,0,0,0,0,0,0,0],"sum_hessian":[9.317826E2,3.020437E2,6.297389E2,2.7659045E2,2.5453259E1,1.1078488E2,5.1895404E2,3.3210682E1,4.8574335E2,2.2305681E1,4.6343768E2,4.5228482E2,1.1152841E1,9.417954E0,4.4286688E2,3.8340984E1,4.0452588E2,2.3470531E1,1.4870454E1,3.7238092E2,3.2144962E1],"tree_param":{"num_deleted":"0","num_feature":"160","num_nodes":"21","size_leaf_vector":"1"}},{"base_weights":[-4.9853586E-3,-1.3604304E0,6.4071757E-1,-1.6459374E-1,1.3202004E-1,-1.5827642E-1,1.1195813E0,-1.3778506E-1,1.3056623E0,-1.2641846E-1,1.445712E0,1.5228225E0,-1.0640299E-1,1.5932994E0,-9.887E-2,9.964138E-1,1.7954326E0,-1.373799E-1,1.5982889E-1,1.8704745E-1,8.5543565E-2],"categories":[],"categories_nodes":[],"categories_segments":[],"categories_sizes":[],"default_left":[0,0,0,0,0,0,0,0,0,0,0,0,0,0,0,0,0,0,0,0,0],"id":1,"left_children":[1,3,5,-1,-1,-1,7,-1,9,-1,11,13,-1,15,-1,17,19,-1,-1,-1,-1],"loss_changes":[8.235508E2,2.4974811E2,6.9283685E2,0E0,0E0,0E0,2.6029187E2,0E0,1.9333142E2,0E0,1.0481409E2,9.468994E1,0E0,4.0483276E1,0E0,2.0711366E2,1.0427612E1,0E0,0E0,0E0,0E0],"parents":[2147483647,0,0,1,1,2,2,6,6,8,8,10,10,11,11,13,13,15,15,16,16],"right_children":[2,4,6,-1,-1,-1,8,-1,10,-1,12,14,-1,16,-1,18,20,-1,-1,-1,-1],"split_conditions":[7.3272E0,7.2E1,7.2E-1,-1.6459374E-1,1.3202004E-1,-1.5827642E-1,7.1E0,-1.3778506E-1,1E2,-1.2641846E-1,7.3656E2,1.2E0,-1.0640299E-1,2E0,-9.887E-2,9.17E1,9.072E1,-1.373799E-1,1.5982889E-1,1.8704745E-1,8.5543565E-2],"split_indices":[140,34,116,0,0,0,103,0,66,0,49,20,0,18,0,157,158,0,0,0,0],"split_type":[0,0,0,0,0,0,0,0,0,0,0,0,0,0,0,0,0,0,0,0,0],"sum_hessian":[9.250025E2,2.9560983E2,6.2939264E2,2.6994644E2,2.5663378E1,1.082623E2,5.211304E2,3.2583504E1,4.8854684E2,2.192989E1,4.6661697E2,4.5575986E2,1.0857107E1,4.4616467E2,9.59519E0,1.2486947E2,3.212952E2,2.3209415E1,1.0166005E2,2.9020828E2,3.108692E1],"tree_param":{"num_deleted":"0","num_feature":"160","num_nodes":"21","size_leaf_vector":"1"}},{"base_weights":[-8.828441E-3,-1.5363047E-1,4.8142815E-1,-1.0714386E0,1.0147291E0,-1.5143685E-1,1.20356284E-1,-1.2967508E-1,1.1846269E0,-1.1933255E-1,1.3129935E0,1.3846936E0,-1.0100627E-1,1.4502869E0,-9.4173215E-2,9.052836E-1,1.6345516E-1,-1.2881267E-1,1.4591846E-1],"categories":[],"categories_nodes":[],"categories_segments":[],"categories_sizes":[],"default_left":[0,0,0,0,0,0,0,0,0,0,0,0,0,0,0,0,0,0,0],"id":2,"left_children":[1,-1,3,5,7,-1,-1,-1,9,-1,11,13,-1,15,-1,17,-1,-1,-1],"loss_changes":[6.90922E2,0E0,5.872156E2,1.9845145E2,2.1811102E2,0E0,0E0,0E0,1.6283801E2,0E0,8.963782E1,8.116058E1,0E0,3.3432312E1,0E0,1.7520308E2,0E0,0E0,0E0],"parents":[2147483647,0,0,2,2,3,3,4,4,8,8,10,10,11,11,13,13,15,15],"right_children":[2,-1,4,6,8,-1,-1,-1,10,-1,12,14,-1,16,-1,18,-1,-1,-1],"split_conditions":[7.2E-1,-1.5363047E-1,7.3272E0,7.8E1,7.1E0,-1.5143685E-1,1.20356284E-1,-1.2967508E-1,1E2,-1.1933255E-1,7.3656E2,1.2E0,-1.0100627E-1,2E0,-9.4173215E-2,9.17E1,1.6345516E-1,-1.2881267E-1,1.4591846E-1],"split_indices":[116,0,140,30,103,0,0,0,66,0,49,20,0,18,0,157,0,0,0],"split_type":[0,0,0,0,0,0,0,0,0,0,0,0,0,0,0,0,0,0,0],"sum_hessian":[9.0673627E2,2.1616592E2,6.905703E2,1.7447148E2,5.160989E2,1.4827745E2,2.6194029E1,3.170385E1,4.8439502E2,2.1410072E1,4.6298492E2,4.522577E2,1.0727246E1,4.4278622E2,9.47147E0,1.2383138E2,3.1895483E2,2.2828325E1,1.0100306E2],"tree_param":{"num_deleted":"0","num_feature":"160","num_nodes":"19","size_leaf_vector":"1"}},{"base_weights":[-1.3046844E-2,-1.4524798E-1,4.4066632E-1,-1.0038867E0,9.2888856E-1,-1.4292018E-1,1.152931E-1,-1.22760974E-1,1.0861038E0,-1.13172546E-1,1.2054701E0,1.2731591E0,-9.616575E-2,1.3351873E0,-8.991783E-2,8.304837E-1,1.5058957E0,-1.2149399E-1,1.346E-1,1.5768932E-1,6.638259E-2],"categories":[],"categories_nodes":[],"categories_segments":[],"categories_sizes":[],"default_left":[0,0,0,0,0,0,0,0,0,0,0,0,0,0,0,0,0,0,0,0,0],"id":3,"left_children":[1,-1,3,5,7,-1,-1,-1,9,-1,11,13,-1,15,-1,17,19,-1,-1,-1,-1],"loss_changes":[5.851752E2,0E0,4.8806018E2,1.7461307E2,1.8474988E2,0E0,0E0,0E0,1.3873395E2,0E0,7.757147E1,7.0440674E1,0E0,2.8091187E1,0E0,1.4973315E2,1.0791443E1,0E0,0E0,0E0,0E0],"parents":[2147483647,0,0,2,2,3,3,4,4,8,8,10,10,11,11,13,13,15,15,16,16],"right_children":[2,-1,4,6,8,-1,-1,-1,10,-1,12,14,-1,16,-1,18,20,-1,-1,-1,-1],"split_conditions":[7.2E-1,-1.4524798E-1,7.3272E0,7.2E1,7.1E0,-1.4292018E-1,1.152931E-1,-1.22760974E-1,1E2,-1.13172546E-1,7.3656E2,1.2E0,-9.616575E-2,2E0,-8.991783E-2,9.17E1,9.072E1,-1.2149399E-1,1.346E-1,1.5768932E-1,6.638259E-2],"split_indices":[116,0,140,34,103,0,0,0,66,0,49,20,0,18,0,157,158,0,0,0,0],"split_type":[0,0,0,0,0,0,0,0,0,0,0,0,0,0,0,0,0,0,0,0,0],"sum_hessian":[8.801699E2,2.0672177E2,6.734482E2,1.6797972E2,5.0546844E2,1.4256532E2,2.5414406E1,3.0645172E1,4.7482327E2,2.0785194E1,4.540381E2,4.4348615E2,1.0551943E1,4.3417188E2,9.31425E0,1.2159441E2,3.1257748E2,2.2292013E1,9.93024E1,2.8183408E2,3.0743402E1],"tree_param":{"num_deleted":"0","num_feature":"160","num_nodes":"21","size_leaf_vector":"1"}},{"base_weights":[-1.6173206E-2,-1.3835244E-1,4.0763208E-1,-9.475281E-1,8.5900515E-1,-1.3670875E-1,1.0621132E-1,-1.1677259E-1,1.0061587E0,-1.07748285E-1,1.1185158E0,1.1832304E0,-9.179245E-2,1.242666E0,-8.6039096E-2,7.6744044E-1,1.4038782E-1,-1.15148425E-1,1.251329E-1],"categories":[],"categories_nodes":[],"categories_segments":[],"categories_sizes":[],"default_left":[0,0,0,0,0,0,0,0,0,0,0,0,0,0,0,0,0,0,0],"id":4,"left_children":[1,-1,3,5,7,-1,-1,-1,9,-1,11,13,-1,15,-1,17,-1,-1,-1],"loss_changes":[5.003113E2,0E0,4.0980563E2,1.5372182E2,1.5815607E2,0E0,0E0,0E0,1.1951355E2,0E0,6.789136E1,6.1862305E1,0E0,2.430542E1,0E0,1.2899313E2,0E0,0E0,0E0],"parents":[2147483647,0,0,2,2,3,3,4,4,8,8,10,10,11,11,13,13,15,15],"right_children":[2,-1,4,6,8,-1,-1,-1,10,-1,12,14,-1,16,-1,18,-1,-1,-1],"split_conditions":[7.2E-1,-1.3835244E-1,7.3272E0,7.8E1,7.1E0,-1.3670875E-1,1.0621132E-1,-1.1677259E-1,1E2,-1.07748285E-1,7.3656E2,1.2E0,-9.179245E-2,2E0,-8.6039096E-2,9.17E1,1.4038782E-1,-1.15148425E-1,1.251329E-1],"split_indices":[116,0,140,30,103,0,0,0,66,0,49,20,0,18,0,157,0,0,0],"split_type":[0,0,0,0,0,0,0,0,0,0,0,0,0,0,0,0,0,0,0],"sum_hessian":[8.475781E2,1.9625887E2,6.513192E2,1.6053882E2,4.9078043E2,1.3492746E2,2.5611362E1,2.9465927E1,4.6131448E2,2.0086973E1,4.412275E2,4.3088647E2,1.034104E1,4.217558E2,9.130698E0,1.18505455E2,3.0325034E2,2.1642406E1,9.6863045E1],"tree_param":{"num_deleted":"0","num_feature":"160","num_nodes":"19","size_leaf_vector":"1"}},{"base_weights":[-1.9877307E-2,-1.3258204E-1,3.7823877E-1,-1.3008198E-1,6.993169E-1,-1.22418344E-1,8.4569E-1,9.759929E-1,-1.130875E-1,-1.0703249E-1,1.0641779E0,1.1462011E0,-9.671096E-2,1.2485199E0,5.019919E-1,1.3748741E-1,7.306769E-1,-1.0881116E-1,1.20630324E-1,1.3417546E-1,-1.2642166E-1],"categories":[],"categories_nodes":[],"categories_segments":[],"categories_sizes":[],"default_left":[0,0,0,0,0,0,0,0,0,0,0,0,0,0,0,0,0,0,0,0,0],"id":5,"left_children":[1,-1,3,-1,5,-1,7,9,-1,-1,11,13,-1,15,17,-1,19,-1,-1,-1,-1],"loss_changes":[4.300891E2,0E0,3.4922034E2,0E0,1.5965915E2,0E0,1.3873105E2,9.527359E1,0E0,0E0,8.5802185E1,2.4482422E1,0E0,1.6878296E1,9.417362E1,0E0,1.25430084E2,0E0,0E0,0E0,0E0],"parents":[2147483647,0,0,2,2,4,4,6,6,7,7,10,10,11,11,13,13,14,14,16,16],"right_children":[2,-1,4,-1,6,-1,8,10,-1,-1,12,14,-1,16,18,-1,20,-1,-1,-1,-1],"split_conditions":[7.2E-1,-1.3258204E-1,2.148E1,-1.3008198E-1,5.635916E1,-1.22418344E-1,7.3656E2,5E0,-1.130875E-1,-1.0703249E-1,1.2E0,1.34E1,-9.671096E-2,5.028E1,5.88E0,1.3748741E-1,1.1E1,-1.0881116E-1,1.20630324E-1,1.3417546E-1,-1.2642166E-1],"split_indices":[116,0,138,0,43,0,49,131,0,0,20,55,0,68,98,0,55,0,0,0,0],"split_type":[0,0,0,0,0,0,0,0,0,0,0,0,0,0,0,0,0,0,0,0,0],"sum_hessian":[8.1151044E2,1.8523637E2,6.2627405E2,9.66159E1,5.2965814E2,3.3289577E1,4.963686E2,4.694691E2,2.6899504E1,1.5714663E1,4.5375443E2,4.394935E2,1.4260905E1,3.7278076E2,6.671274E1,2.890197E2,8.376107E1,1.9140448E1,4.7572285E1,6.612488E1,1.7636194E1],"tree_param":{"num_deleted":"0","num_feature":"160","num_nodes":"21","size_leaf_vector":"1"}},{"base_weights":[-2.4688425E-2,-1.2768096E-1,3.5074928E-1,-1.2501661E-1,6.52487E-1,-1.1697628E-1,7.9138374E-1,9.152816E-1,-1.0817349E-1,-1.0229414E-1,1.0001069E0,1.0790933E0,-9.260632E-2,1.242777E-1,6.7104167E-1,-1.1738292E-1,1.0917352E0,3.985792E-2,1.2685667E-1],"categories":[],"categories_nodes":[],"categories_segments":[],"categories_sizes":[],"default_left":[0,0,0,0,0,0,0,0,0,0,0,0,0,0,0,0,0,0,0],"id":6,"left_children":[1,-1,3,-1,5,-1,7,9,-1,-1,11,13,-1,-1,15,-1,17,-1,-1],"loss_changes":[3.7096335E2,0E0,2.999861E2,0E0,1.381143E2,0E0,1.203884E2,8.362973E1,0E0,0E0,7.549783E1,2.2042389E1,0E0,0E0,1.1927321E2,0E0,1.0483398E1,0E0,0E0],"parents":[2147483647,0,0,2,2,4,4,6,6,7,7,10,10,11,11,14,14,16,16],"right_children":[2,-1,4,-1,6,-1,8,10,-1,-1,12,14,-1,-1,16,-1,18,-1,-1],"split_conditions":[7.2E-1,-1.2768096E-1,2.148E1,-1.2501661E-1,5.635916E1,-1.1697628E-1,7.3656E2,5E0,-1.0817349E-1,-1.0229414E-1,1.2E0,2.5E0,-9.260632E-2,1.242777E-1,2.16E0,-1.1738292E-1,1.04E0,3.985792E-2,1.2685667E-1],"split_indices":[116,0,138,0,43,0,49,131,0,0,20,133,0,0,18,0,13,0,0],"split_type":[0,0,0,0,0,0,0,0,0,0,0,0,0,0,0,0,0,0,0],"sum_hessian":[7.7350543E2,1.7399808E2,5.995073E2,9.1086784E1,5.0842056E2,3.1803364E1,4.766172E2,4.5088425E2,2.5732958E1,1.5195613E1,4.3568863E2,4.2190573E2,1.3782903E1,2.894373E2,1.3246844E2,2.1938702E1,1.1052974E2,2.7757193E1,8.2772545E1],"tree_param":{"num_deleted":"0","num_feature":"160","num_nodes":"19","size_leaf_vector":"1"}},{"base_weights":[-2.9148694E-2,-1.2346279E-1,3.25403E-1,-8.361788E-1,7.013628E-1,-1.2265716E-1,9.186646E-2,-1.097938E-1,8.24317E-1,-1.0091485E-1,9.273008E-1,1.0031182E0,-8.9535244E-2,-8.257236E-2,1.0651144E0,1.18185095E-1,3.6407107E-1,1.0639434E-1,-1.2528102E-1],"categories":[],"categories_nodes":[],"categories_segments":[],"categories_sizes":[],"default_left":[0,0,0,0,0,0,0,0,0,0,0,0,0,0,0,0,0,0,0],"id":7,"left_children":[1,-1,3,5,7,-1,-1,-1,9,-1,11,13,-1,-1,15,-1,17,-1,-1],"loss_changes":[3.2127744E2,0E0,2.5858295E2,1.08903755E2,1.0537163E2,0E0,0E0,0E0,8.674521E1,0E0,6.2683167E1,5.118033E1,0E0,0E0,2.7661896E1,0E0,8.514165E1,0E0,0E0],"parents":[2147483647,0,0,2,2,3,3,4,4,8,8,10,10,11,11,14,14,16,16],"right_children":[2,-1,4,6,8,-1,-1,-1,10,-1,12,14,-1,-1,16,-1,18,-1,-1],"split_conditions":[7.2E-1,-1.2346279E-1,7.3272E0,7.2E1,5.635916E1,-1.2265716E-1,9.186646E-2,-1.097938E-1,1.84E0,-1.0091485E-1,2.66E0,3.24E0,-8.9535244E-2,-8.257236E-2,9.114E1,1.18185095E-1,1.89E2,1.0639434E-1,-1.2528102E-1],"split_indices":[116,0,140,34,43,0,0,0,72,0,128,56,0,0,158,0,65,0,0],"split_type":[0,0,0,0,0,0,0,0,0,0,0,0,0,0,0,0,0,0,0],"sum_hessian":[7.361739E2,1.6279877E2,5.733751E2,1.3780716E2,4.3556796E2,1.14698875E2,2.3108294E1,2.3802797E1,4.1176517E2,1.8154793E1,3.9361038E2,3.813446E2,1.2265768E1,9.272135E0,3.7207248E2,3.142563E2,5.7816208E1,4.2259758E1,1.5556449E1],"tree_param":{"num_deleted":"0","num_feature":"160","num_nodes":"19","size_leaf_vector":"1"}},{"base_weights":[-3.305502E-2,-1.1978816E-1,3.032247E-1,-1.1718086E-1,5.7232547E-1,-1.07764676E-1,6.9814205E-1,8.1254977E-1,-1.0102878E-1,-9.693684E-2,8.936835E-1,9.7020435E-1,-8.812589E-2,1.348036E-1,1.036366E0,9.298867E-2,-1.0220528E-1,5.4691E-1,1.1577064E-1,1.1476953E-1,-1.1202053E-1],"categories":[],"categories_nodes":[],"categories_segments":[],"categories_sizes":[],"default_left":[0,0,0,0,0,0,0,0,0,0,0,0,0,0,0,0,0,0,0,0,0],"id":8,"left_children":[1,-1,3,-1,5,-1,7,9,-1,-1,11,13,-1,15,17,-1,-1,19,-1,-1,-1],"loss_changes":[2.7953708E2,0E0,2.2542258E2,0E0,1.0446663E2,0E0,9.3641205E1,6.7934906E1,0E0,0E0,6.2220337E1,2.0698212E1,0E0,4.270414E1,1.6585114E1,0E0,0E0,9.800633E1,0E0,0E0,0E0],"parents":[2147483647,0,0,2,2,4,4,6,6,7,7,10,10,11,11,13,13,14,14,17,17],"right_children":[2,-1,4,-1,6,-1,8,10,-1,-1,12,14,-1,16,18,-1,-1,20,-1,-1,-1],"split_conditions":[7.2E-1,-1.1978816E-1,2.148E1,-1.1718086E-1,5.635916E1,-1.07764676E-1,7.3656E2,5E0,-1.0102878E-1,-9.693684E-2,1.2E0,9.2E0,-8.812589E-2,5E0,1.31E1,9.298867E-2,-1.0220528E-1,6E0,1.1577064E-1,1.1476953E-1,-1.1202053E-1],"split_indices":[116,0,138,0,43,0,49,131,0,0,20,9,0,7,16,0,0,14,0,0,0],"split_type":[0,0,0,0,0,0,0,0,0,0,0,0,0,0,0,0,0,0,0,0,0],"sum_hessian":[6.982189E2,1.5182405E2,5.463948E2,8.016217E1,4.6623264E2,2.8745068E1,4.3748755E2,4.139611E2,2.3526464E1,1.4213411E1,3.9974768E2,3.8670334E2,1.3044351E1,3.0161674E1,3.5654166E2,1.8806158E1,1.1355517E1,7.958286E1,2.769588E2,6.0332962E1,1.9249897E1],"tree_param":{"num_deleted":"0","num_feature":"160","num_nodes":"21","size_leaf_vector":"1"}},{"base_weights":[-3.797786E-2,-1.1655052E-1,2.818667E-1,-1.1366612E-1,5.370098E-1,-1.0406426E-1,6.58133E-1,7.5508386E-1,-9.4584204E-2,-9.7886585E-2,8.4690195E-1,9.1663665E-1,-8.2991645E-2,1.0369093E0,2.637687E-1,1.1329583E-1,4.408354E-1,-1.0275755E-1,9.717644E-2,-1.1197766E-1,1.0148628E-1],"categories":[],"categories_nodes":[],"categories_segments":[],"categories_sizes":[],"default_left":[0,0,0,0,0,0,0,0,0,0,0,0,0,0,0,0,0,0,0,0,0],"id":9,"left_children":[1,-1,3,-1,5,-1,7,9,-1,-1,11,13,-1,15,17,-1,19,-1,-1,-1,-1],"loss_changes":[2.4358284E2,0E0,1.955961E2,0E0,9.1859665E1,0E0,7.175899E1,7.1103485E1,0E0,0E0,5.1558014E1,2.7426666E1,0E0,1.4081787E1,7.143881E1,0E0,6.0076378E1,0E0,0E0,0E0,0E0],"parents":[2147483647,0,0,2,2,4,4,6,6,7,7,10,10,11,11,13,13,14,14,16,16],"right_children":[2,-1,4,-1,6,-1,8,10,-1,-1,12,14,-1,16,18,-1,20,-1,-1,-1,-1],"split_conditions":[7.2E-1,-1.1655052E-1,2.148E1,-1.1366612E-1,2.32E0,-1.0406426E-1,7.3656E2,5E0,-9.4584204E-2,-9.7886585E-2,1.2E0,1.34E1,-8.2991645E-2,9.114E1,5.88E0,1.1329583E-1,6.83292E2,-1.0275755E-1,9.717644E-2,-1.1197766E-1,1.0148628E-1],"split_indices":[116,0,138,0,104,0,49,131,0,0,20,55,0,158,98,0,49,0,0,0,0],"split_type":[0,0,0,0,0,0,0,0,0,0,0,0,0,0,0,0,0,0,0,0,0],"sum_hessian":[6.601429E2,1.4120616E2,5.189367E2,7.4895836E1,4.440409E2,2.7329971E1,4.1671094E2,3.9695148E2,1.9759462E1,1.6075943E1,3.8087552E2,3.6915027E2,1.1725251E1,3.0775E2,6.1400276E1,2.5883655E2,4.891346E1,2.0464003E1,4.0936275E1,1.11080475E1,3.7805412E1],"tree_param":{"num_deleted":"0","num_feature":"160","num_nodes":"21","size_leaf_vector":"1"}},{"base_weights":[-4.2938087E-2,-1.13666855E-1,2.6195887E-1,-1.1048766E-1,5.0447935E-1,-1.0086236E-1,6.2197524E-1,7.281596E-1,-9.385341E-2,-8.93788E-2,8.0503064E-1,8.779414E-1,-8.157526E-2,1.03809595E-1,4.8567295E-1,-1.07482865E-1,8.900524E-1,2.0838331E-2,1.0772107E-1],"categories":[],"categories_nodes":[],"categories_segments":[],"categories_sizes":[],"default_left":[0,0,0,0,0,0,0,0,0,0,0,0,0,0,0,0,0,0,0],"id":10,"left_children":[1,-1,3,-1,5,-1,7,9,-1,-1,11,13,-1,-1,15,-1,17,-1,-1],"loss_changes":[2.127761E2,0E0,1.7016145E2,0E0,8.1472946E1,0E0,7.241112E1,5.3480087E1,0E0,0E0,4.941284E1,1.843216E1,0E0,0E0,8.256049E1,0E0,1.0790184E1,0E0,0E0],"parents":[2147483647,0,0,2,2,4,4,6,6,7,7,10,10,11,11,14,14,16,16],"right_children":[2,-1,4,-1,6,-1,8,10,-1,-1,12,14,-1,-1,16,-1,18,-1,-1],"split_conditions":[7.2E-1,-1.13666855E-1,2.148E1,-1.1048766E-1,5.635916E1,-1.0086236E-1,7.3656E2,5E0,-9.385341E-2,-8.93788E-2,1.2E0,2.5E0,-8.157526E-2,1.03809595E-1,2.16E0,-1.07482865E-1,2.09E0,2.0838331E-2,1.0772107E-1],"split_indices":[116,0,138,0,43,0,49,131,0,0,20,133,0,0,18,0,11,0,0],"split_type":[0,0,0,0,0,0,0,0,0,0,0,0,0,0,0,0,0,0,0],"sum_hessian":[6.2291376E2,1.3103584E2,4.918779E2,6.9836395E1,4.220415E2,2.6038973E1,3.960025E2,3.747686E2,2.1233942E1,1.3111171E1,3.616574E2,3.4959738E2,1.2060029E1,2.3889194E2,1.10705444E2,2.005384E1,9.06516E1,2.3169773E1,6.748183E1],"tree_param":{"num_deleted":"0","num_feature":"160","num_nodes":"19","size_leaf_vector":"1"}},{"base_weights":[-4.7486316E-2,-1.1107136E-1,2.4299641E-1,-1.0758205E-1,4.7321716E-1,-5.503802E-1,6.42601E-1,7.822627E-2,-1.1595694E-1,-8.656416E-2,7.391989E-1,8.061403E-1,-8.214443E-2,2.9115468E-1,9.5437074E-1,9.654873E-2,-1.08560644E-1,2.1319646E-2,1.0307081E-1],"categories":[],"categories_nodes":[],"categories_segments":[],"categories_sizes":[],"default_left":[0,0,0,0,0,0,0,0,0,0,0,0,0,0,0,0,0,0,0],"id":11,"left_children":[1,-1,3,-1,5,7,9,-1,-1,-1,11,13,-1,15,17,-1,-1,-1,-1],"loss_changes":[1.8629764E2,0E0,1.4824211E2,0E0,7.3884575E1,5.7993866E1,5.688736E1,0E0,0E0,0E0,4.06353E1,2.2844238E1,0E0,8.721064E1,1.2470184E1,0E0,0E0,0E0,0E0],"parents":[2147483647,0,0,2,2,4,4,5,5,6,6,10,10,11,11,13,13,14,14],"right_children":[2,-1,4,-1,6,8,10,-1,-1,-1,12,14,-1,16,18,-1,-1,-1,-1],"split_conditions":[7.2E-1,-1.1107136E-1,2.148E1,-1.0758205E-1,9.2E0,5E0,7.1E0,7.822627E-2,-1.1595694E-1,-8.656416E-2,3.173E2,1.31E1,-8.214443E-2,6E0,1.79E0,9.654873E-2,-1.08560644E-1,2.1319646E-2,1.0307081E-1],"split_indices":[116,0,138,0,9,7,103,0,0,0,46,16,0,14,18,0,0,0,0],"split_type":[0,0,0,0,0,0,0,0,0,0,0,0,0,0,0,0,0,0,0],"sum_hessian":[5.882084E2,1.21372025E2,4.6683633E2,6.501496E1,4.0182138E2,5.4497154E1,3.4732422E2,1.6383749E1,3.8113403E1,1.7072382E1,3.3025183E2,3.203774E2,9.874449E0,7.6905174E1,2.4347221E2,5.3225384E1,2.3679792E1,2.5568193E1,2.1790402E2],"tree_param":{"num_deleted":"0","num_feature":"160","num_nodes":"19","size_leaf_vector":"1"}},{"base_weights":[-5.012841E-2,-1.08711086E-1,2.2754137E-1,-1.0489847E-1,4.4687948E-1,-9.542193E-2,5.5713135E-1,6.4598024E-1,-8.580241E-2,-8.897219E-2,7.321995E-1,7.994542E-1,-7.598656E-2,9.194551E-1,1.7599365E-1,1.0170349E-1,3.4759325E-1,-9.636714E-2,8.399721E-2,9.227225E-2,-1.04284E-1],"categories":[],"categories_nodes":[],"categories_segments":[],"categories_sizes":[],"default_left":[0,0,0,0,0,0,0,0,0,0,0,0,0,0,0,0,0,0,0,0,0],"id":12,"left_children":[1,-1,3,-1,5,-1,7,9,-1,-1,11,13,-1,15,17,-1,19,-1,-1,-1,-1],"loss_changes":[1.640235E2,0E0,1.2989313E2,0E0,6.450938E1,0E0,5.0537445E1,5.149759E1,0E0,0E0,3.8514572E1,2.3006561E1,0E0,1.2265839E1,5.363491E1,0E0,4.894656E1,0E0,0E0,0E0,0E0],"parents":[2147483647,0,0,2,2,4,4,6,6,7,7,10,10,11,11,13,13,14,14,16,16],"right_children":[2,-1,4,-1,6,-1,8,10,-1,-1,12,14,-1,16,18,-1,20,-1,-1,-1,-1],"split_conditions":[7.2E-1,-1.08711086E-1,2.148E1,-1.0489847E-1,2.32E0,-9.542193E-2,7.3656E2,5E0,-8.580241E-2,-8.897219E-2,1.2E0,1.34E1,-7.598656E-2,9.114E1,5.88E0,1.0170349E-1,1.89E2,-9.636714E-2,8.399721E-2,9.227225E-2,-1.04284E-1],"split_indices":[116,0,138,0,104,0,49,131,0,0,20,55,0,158,98,0,65,0,0,0,0],"split_type":[0,0,0,0,0,0,0,0,0,0,0,0,0,0,0,0,0,0,0,0,0],"sum_hessian":[5.5477466E2,1.12249176E2,4.4252548E2,6.045036E1,3.8207513E2,2.3404732E1,3.5867038E2,3.415733E2,1.7097073E1,1.4194382E1,3.2737894E2,3.1681223E2,1.0566713E1,2.6249103E2,5.432119E1,2.1890964E2,4.358139E1,1.8668076E1,3.565311E1,3.273297E1,1.0848418E1],"tree_param":{"num_deleted":"0","num_feature":"160","num_nodes":"21","size_leaf_vector":"1"}},{"base_weights":[-5.541581E-2,-1.0654286E-1,2.1031138E-1,-1.0239589E-1,4.1975695E-1,-9.3228646E-2,5.2822953E-1,6.2559223E-1,-8.555993E-2,-8.145171E-2,6.985905E-1,7.686719E-1,-7.46742E-2,9.2696704E-2,3.845326E-1,-1.0026779E-1,7.778794E-1,1.12936115E-2,9.828194E-2],"categories":[],"categories_nodes":[],"categories_segments":[],"categories_sizes":[],"default_left":[0,0,0,0,0,0,0,0,0,0,0,0,0,0,0,0,0,0,0],"id":13,"left_children":[1,-1,3,-1,5,-1,7,9,-1,-1,11,13,-1,-1,15,-1,17,-1,-1],"loss_changes":[1.4399861E2,0E0,1.1360864E2,0E0,5.820632E1,0E0,5.112113E1,3.9181747E1,0E0,0E0,3.6784927E1,1.5820602E1,0E0,0E0,6.259587E1,0E0,1.0691265E1,0E0,0E0],"parents":[2147483647,0,0,2,2,4,4,6,6,7,7,10,10,11,11,14,14,16,16],"right_children":[2,-1,4,-1,6,-1,8,10,-1,-1,12,14,-1,-1,16,-1,18,-1,-1],"split_conditions":[7.2E-1,-1.0654286E-1,2.148E1,-1.0239589E-1,5.635916E1,-9.3228646E-2,7.3656E2,5E0,-8.555993E-2,-8.145171E-2,1.2E0,2.5E0,-7.46742E-2,9.2696704E-2,2.16E0,-1.0026779E-1,1.04E0,1.12936115E-2,9.828194E-2],"split_indices":[116,0,138,0,43,0,49,131,0,0,20,133,0,0,18,0,13,0,0],"split_type":[0,0,0,0,0,0,0,0,0,0,0,0,0,0,0,0,0,0,0],"sum_hessian":[5.218528E2,1.0368324E2,4.1816953E2,5.615208E1,3.6201746E2,2.2374596E1,3.3964285E2,3.2141248E2,1.8230366E1,1.1585691E1,3.0982678E2,2.990708E2,1.0756003E1,2.0378906E2,9.528172E1,1.8311186E1,7.6970535E1,2.105725E1,5.591329E1],"tree_param":{"num_deleted":"0","num_feature":"160","num_nodes":"19","size_leaf_vector":"1"}},{"base_weights":[-6.025523E-2,-8.5019374E-1,2.5993767E-1,-1.0961443E-1,7.416197E-2,-9.630854E-2,4.593093E-1,-9.0833835E-2,5.8211076E-1,6.7263913E-1,-7.777574E-2,1.9581419E-1,8.5945725E-1,-1.3015646E-1,8.4279254E-2,8.992664E-3,9.521689E-2],"categories":[],"categories_nodes":[],"categories_segments":[],"categories_sizes":[],"default_left":[0,0,0,0,0,0,0,0,0,0,0,0,0,0,0,0,0],"id":14,"left_children":[1,3,5,-1,-1,-1,7,-1,9,11,-1,13,15,-1,-1,-1,-1],"loss_changes":[1.2822974E2,6.369554E1,9.178309E1,0E0,0E0,0E0,5.7401108E1,0E0,4.0548607E1,2.3705887E1,0E0,9.5508865E1,1.3562881E1,0E0,0E0,0E0,0E0],"parents":[2147483647,0,0,1,1,2,2,6,6,8,8,9,9,11,11,12,12],"right_children":[2,4,6,-1,-1,-1,8,-1,10,12,-1,14,16,-1,-1,-1,-1],"split_conditions":[1E2,7.8E1,7.2E-1,-1.0961443E-1,7.416197E-2,-9.630854E-2,5.635916E1,-9.0833835E-2,7.3656E2,2E0,-7.777574E-2,6.46E0,1.31E1,-1.3015646E-1,8.4279254E-2,8.992664E-3,9.521689E-2],"split_indices":[66,30,116,0,0,0,43,0,49,11,0,104,16,0,0,0,0],"split_type":[0,0,0,0,0,0,0,0,0,0,0,0,0,0,0,0,0],"sum_hessian":[4.9198178E2,1.3808192E2,3.5389987E2,1.21759926E2,1.6321993E1,4.530943E1,3.0859045E2,2.1209082E1,2.8738135E2,2.7323465E2,1.4146707E1,8.152912E1,1.9170554E2,2.2156237E1,5.9372887E1,2.2307472E1,1.6939806E2],"tree_param":{"num_deleted":"0","num_feature":"160","num_nodes":"17","size_leaf_vector":"1"}},{"base_weights":[-6.2072985E-2,-8.246627E-1,2.4641238E-1,-1.0706232E-1,6.6417806E-2,-9.450925E-2,4.431778E-1,-8.307101E-2,5.4482937E-1,-7.976986E-2,6.284148E-1,1.460746E-1,8.259406E-1,-1.250998E-1,8.732938E-2,3.782561E-2,9.3363E-2,7.5377494E-2,-8.4072106E-2],"categories":[],"categories_nodes":[],"categories_segments":[],"categories_sizes":[],"default_left":[0,0,0,0,0,0,0,0,0,0,0,0,0,0,0,0,0,0,0],"id":15,"left_children":[1,3,5,-1,-1,-1,7,-1,9,-1,11,13,15,-1,-1,17,-1,-1,-1],"loss_changes":[1.1254822E2,5.6093132E1,8.350122E1,0E0,0E0,0E0,4.23212E1,0E0,3.5611076E1,0E0,2.4718666E1,9.818745E1,1.5803726E1,0E0,0E0,2.4645895E1,0E0,0E0,0E0],"parents":[2147483647,0,0,1,1,2,2,6,6,8,8,10,10,11,11,12,12,15,15],"right_children":[2,4,6,-1,-1,-1,8,-1,10,-1,12,14,16,-1,-1,18,-1,-1,-1],"split_conditions":[7.3272E0,1.68E0,7.2E-1,-1.0706232E-1,6.6417806E-2,-9.450925E-2,7.1E0,-8.307101E-2,3.24E0,-7.976986E-2,2E0,6.46E0,1.31E1,-1.250998E-1,8.732938E-2,5E0,9.3363E-2,7.5377494E-2,-8.4072106E-2],"split_indices":[140,116,116,0,0,0,103,0,56,0,11,104,16,0,0,14,0,0,0],"split_type":[0,0,0,0,0,0,0,0,0,0,0,0,0,0,0,0,0,0,0],"sum_hessian":[4.6351382E2,1.296434E2,3.3387042E2,1.1319113E2,1.6452263E1,4.300858E1,2.9086185E2,1.7254398E1,2.7360745E2,1.2030381E1,2.6157706E2,8.004082E1,1.8153625E2,2.5428236E1,5.461258E1,2.3122955E1,1.584133E2,1.3366461E1,9.756494E0],"tree_param":{"num_deleted":"0","num_feature":"160","num_nodes":"19","size_leaf_vector":"1"}},{"base_weights":[-6.4349964E-2,-1.0092311E-1,1.7086585E-1,-9.581983E-2,3.5479364E-1,-5.213159E-1,5.0421995E-1,6.332141E-2,-1.0363539E-1,-7.516485E-2,5.904972E-1,3.746274E-1,9.71859E-2,5.8050054E-1,-1.1135781E-1,-8.93667E-2,7.475763E-1,1.7386188E-1,9.362777E-2,7.0980065E-2,-8.9682624E-2],"categories":[],"categories_nodes":[],"categories_segments":[],"categories_sizes":[],"default_left":[0,0,0,0,0,0,0,0,0,0,0,0,0,0,0,0,0,0,0,0,0],"id":16,"left_children":[1,-1,3,-1,5,7,9,-1,-1,-1,11,13,-1,15,-1,-1,17,19,-1,-1,-1],"loss_changes":[9.990449E1,0E0,7.785077E1,0E0,4.35954E1,3.5049034E1,3.3329544E1,0E0,0E0,0E0,1.8627075E1,6.034809E1,0E0,4.5605537E1,0E0,0E0,1.5064575E1,3.220113E1,0E0,0E0,0E0],"parents":[2147483647,0,0,2,2,4,4,5,5,6,6,10,10,11,11,13,13,16,16,17,17],"right_children":[2,-1,4,-1,6,8,10,-1,-1,-1,12,14,-1,16,-1,-1,18,20,-1,-1,-1],"split_conditions":[7.2E-1,-1.0092311E-1,2.148E1,-9.581983E-2,9.2E0,5E0,7.1E0,6.332141E-2,-1.0363539E-1,-7.516485E-2,6.04E0,5.22E0,9.71859E-2,4E0,-1.1135781E-1,-8.93667E-2,1.053E2,4.1E1,9.362777E-2,7.0980065E-2,-8.9682624E-2],"split_indices":[116,0,138,0,9,7,103,0,0,0,56,56,0,60,0,0,67,7,0,0,0],"split_type":[0,0,0,0,0,0,0,0,0,0,0,0,0,0,0,0,0,0,0,0,0],"sum_hessian":[4.353049E2,8.151744E1,3.5378748E2,4.4842E1,3.0894547E2,4.2114048E1,2.6683142E2,1.2425326E1,2.968872E1,1.3186731E1,2.536447E2,1.7209122E2,8.155349E1,1.5546428E2,1.6626926E1,1.2284332E1,1.4317995E2,3.9242058E1,1.039379E2,2.7948683E1,1.1293375E1],"tree_param":{"num_deleted":"0","num_feature":"160","num_nodes":"21","size_leaf_vector":"1"}},{"base_weights":[-6.837816E-2,-9.921815E-2,1.5803936E-1,-9.3751885E-2,3.3501405E-1,-5.000876E-1,4.7826308E-1,6.108631E-2,-1.0047686E-1,-7.28718E-2,5.629058E-1,3.4986985E-1,9.432094E-2,5.507438E-1,-1.0666799E-1,-8.651073E-2,7.143943E-1,8.9883424E-2,1.444101E-1,7.110187E-2,-8.877837E-2],"categories":[],"categories_nodes":[],"categories_segments":[],"categories_sizes":[],"default_left":[0,0,0,0,0,0,0,0,0,0,0,0,0,0,0,0,0,0,0,0,0],"id":17,"left_children":[1,-1,3,-1,5,7,9,-1,-1,-1,11,13,-1,15,-1,-1,17,-1,19,-1,-1],"loss_changes":[8.838019E1,0E0,6.871434E1,0E0,3.778422E1,3.171898E1,2.9847763E1,0E0,0E0,0E0,1.7412994E1,5.3460197E1,0E0,4.0940712E1,0E0,0E0,1.4062218E1,0E0,3.1162384E1,0E0,0E0],"parents":[2147483647,0,0,2,2,4,4,5,5,6,6,10,10,11,11,13,13,16,16,18,18],"right_children":[2,-1,4,-1,6,8,10,-1,-1,-1,12,14,-1,16,-1,-1,18,-1,20,-1,-1],"split_conditions":[7.2E-1,-9.921815E-2,2.148E1,-9.3751885E-2,9.2E0,5E0,7.1E0,6.108631E-2,-1.0047686E-1,-7.28718E-2,6.04E0,5.22E0,9.432094E-2,4E0,-1.0666799E-1,-8.651073E-2,2.734E0,8.9883424E-2,1.57E0,7.110187E-2,-8.877837E-2],"split_indices":[116,0,138,0,9,7,103,0,0,0,56,56,0,60,0,0,73,0,11,0,0],"split_type":[0,0,0,0,0,0,0,0,0,0,0,0,0,0,0,0,0,0,0,0,0],"sum_hessian":[4.0854025E2,7.5093895E1,3.3344638E2,4.159202E1,2.9185437E2,3.9815117E1,2.5203923E2,1.1911424E1,2.7903694E1,1.2527396E1,2.3951184E2,1.633611E2,7.615074E1,1.4735506E2,1.6006039E1,1.1714497E1,1.3564056E2,9.8992294E1,3.664827E1,2.5267363E1,1.1380908E1],"tree_param":{"num_deleted":"0","num_feature":"160","num_nodes":"21","size_leaf_vector":"1"}},{"base_weights":[-7.245415E-2,-9.757676E-2,1.4552537E-1,-9.17484E-2,3.1587404E-1,-1.6859107E-1,5.5995524E-1,-1.083164E-1,3.7664938E-1,6.8095607E-1,-8.6048946E-2,6.908839E-2,-7.8658365E-2,-1.3771391E-1,7.8609444E-2,-8.12369E-2,5.8516648E-2],"categories":[],"categories_nodes":[],"categories_segments":[],"categories_sizes":[],"default_left":[0,0,0,0,0,0,0,0,0,0,0,0,0,0,0,0,0],"id":18,"left_children":[1,-1,3,-1,5,7,9,-1,11,13,-1,-1,-1,15,-1,-1,-1],"loss_changes":[7.8238914E1,0E0,6.0702232E1,0E0,3.4318436E1,5.3748703E1,3.7446125E1,0E0,2.9701698E1,1.6367851E1,0E0,0E0,0E0,1.7119225E1,0E0,0E0,0E0],"parents":[2147483647,0,0,2,2,4,4,5,5,6,6,8,8,9,9,13,13],"right_children":[2,-1,4,-1,6,8,10,-1,12,14,-1,-1,-1,16,-1,-1,-1],"split_conditions":[7.2E-1,-9.757676E-2,2.148E1,-9.17484E-2,9.8E-1,4.48E0,2.41E0,-1.083164E-1,3.5E0,1.38164E3,-8.6048946E-2,6.908839E-2,-7.8658365E-2,9.1505E1,7.8609444E-2,-8.12369E-2,5.8516648E-2],"split_indices":[116,0,138,0,13,98,72,0,61,48,0,0,0,138,0,0,0],"split_type":[0,0,0,0,0,0,0,0,0,0,0,0,0,0,0,0,0],"sum_hessian":[3.8357654E2,6.9160805E1,3.1441574E2,3.858022E1,2.758355E2,9.324072E1,1.825948E2,3.1877516E1,6.136321E1,1.7209932E2,1.04954815E1,5.0869816E1,1.0493393E1,1.9304482E1,1.5279483E2,9.473049E0,9.831432E0],"tree_param":{"num_deleted":"0","num_feature":"160","num_nodes":"17","size_leaf_vector":"1"}},{"base_weights":[-7.665999E-2,-7.7244234E-1,1.9200087E-1,-1.0157635E-1,6.0913827E-2,-8.877196E-2,3.4693807E-1,-7.454612E-2,4.5833808E-1,7.113474E-2,2.1859575E-2,4.7191823E-1,-1.0056605E-1,-7.060015E-2,7.548263E-2],"categories":[],"categories_nodes":[],"categories_segments":[],"categories_sizes":[],"default_left":[0,0,0,0,0,0,0,0,0,0,0,0,0,0,0],"id":19,"left_children":[1,3,5,-1,-1,-1,7,-1,9,-1,11,13,-1,-1,-1],"loss_changes":[7.051847E1,4.02181E1,4.82988E1,0E0,0E0,0E0,3.2591576E1,0E0,2.501072E1,0E0,4.6236984E1,2.7345398E1,0E0,0E0,0E0],"parents":[2147483647,0,0,1,1,2,2,6,6,8,8,10,10,11,11],"right_children":[2,4,6,-1,-1,-1,8,-1,10,-1,12,14,-1,-1,-1],"split_conditions":[1E2,7.8E1,5.635916E1,-1.0157635E-1,6.0913827E-2,-8.877196E-2,6.8E-1,-7.454612E-2,2.5E0,7.113474E-2,8.58E1,2.16E0,-1.0056605E-1,-7.060015E-2,7.548263E-2],"split_indices":[66,30,43,0,0,0,116,0,133,0,157,18,0,0,0],"split_type":[0,0,0,0,0,0,0,0,0,0,0,0,0,0,0],"sum_hessian":[3.6289917E2,9.6912445E1,2.6598672E2,8.420133E1,1.2711112E1,2.8630592E1,2.3735614E2,1.7751286E1,2.1960484E2,1.3583104E2,8.37738E1,6.126515E1,2.2508654E1,9.547778E0,5.171737E1],"tree_param":{"num_deleted":"0","num_feature":"160","num_nodes":"15","size_leaf_vector":"1"}},{"base_weights":[-7.882627E-2,-7.5213325E-1,1.7932042E-1,-9.976744E-2,5.672555E-2,-8.42322E-2,3.3666918E-1,-1.2811624E-1,5.741165E-1,-1.1265216E-1,6.0407218E-2,-2.1273425E-1,7.2698526E-2,6.309341E-2,-8.453606E-2],"categories":[],"categories_nodes":[],"categories_segments":[],"categories_sizes":[],"default_left":[0,0,0,0,0,0,0,0,0,0,0,0,0,0,0],"id":20,"left_children":[1,3,5,-1,-1,-1,7,9,11,-1,-1,13,-1,-1,-1],"loss_changes":[6.202201E1,3.6507305E1,4.405063E1,0E0,0E0,0E0,2.6075409E1,6.730923E1,1.9798523E1,0E0,0E0,2.0968046E1,0E0,0E0,0E0],"parents":[2147483647,0,0,1,1,2,2,6,6,7,7,8,8,11,11],"right_children":[2,4,6,-1,-1,-1,8,10,12,-1,-1,14,-1,-1,-1],"split_conditions":[7.3272E0,1.56E1,7.2E-1,-9.976744E-2,5.672555E-2,-8.42322E-2,2E0,6.52E0,1.31E1,-1.1265216E-1,6.0407218E-2,5E0,7.2698526E-2,6.309341E-2,-8.453606E-2],"split_indices":[140,55,116,0,0,0,11,104,16,0,0,14,0,0,0],"split_type":[0,0,0,0,0,0,0,0,0,0,0,0,0,0,0],"sum_hessian":[3.4262616E2,9.071403E1,2.5191212E2,7.812541E1,1.2588622E1,2.8972458E1,2.2293967E2,7.662855E1,1.4631111E2,3.0597517E1,4.6031033E1,2.3291502E1,1.23019615E2,9.990117E0,1.3301385E1],"tree_param":{"num_deleted":"0","num_feature":"160","num_nodes":"15","size_leaf_vector":"1"}},{"base_weights":[-7.8822196E-2,-9.3016215E-2,1.1486852E-1,-8.598215E-2,2.6351416E-1,-2.1147477E-2,6.435113E-1,4.079216E-1,-1.10559665E-1,7.786305E-2,-8.240029E-3,6.0073256E-1,-7.7504374E-2,-2.214527E-1,8.162511E-2,-8.676058E-2,5.769932E-2],"categories":[],"categories_nodes":[],"categories_segments":[],"categories_sizes":[],"default_left":[0,0,0,0,0,0,0,0,0,0,0,0,0,0,0,0,0],"id":21,"left_children":[1,-1,3,-1,5,7,9,11,-1,-1,-1,13,-1,15,-1,-1,-1],"loss_changes":[5.5568176E1,0E0,4.200715E1,0E0,2.6809658E1,7.28768E1,1.0907452E1,2.9386797E1,0E0,0E0,0E0,1.9386856E1,0E0,1.8100096E1,0E0,0E0,0E0],"parents":[2147483647,0,0,2,2,4,4,5,5,6,6,7,7,11,11,13,13],"right_children":[2,-1,4,-1,6,8,10,12,-1,-1,-1,14,-1,16,-1,-1,-1],"split_conditions":[7.2E-1,-9.3016215E-2,2.148E1,-8.598215E-2,3.4E0,5.6E1,9.3E0,9.66E-1,-1.10559665E-1,7.786305E-2,-8.240029E-3,2.02E0,-7.7504374E-2,4.52885E1,8.162511E-2,-8.676058E-2,5.769932E-2],"split_indices":[116,0,138,0,97,0,17,74,0,0,0,11,0,139,0,0,0],"split_type":[0,0,0,0,0,0,0,0,0,0,0,0,0,0,0,0,0],"sum_hessian":[3.2380426E2,5.437746E1,2.6942682E2,3.0587217E1,2.3883958E2,1.4086801E2,9.797158E1,1.0450909E2,3.6358917E1,8.210735E1,1.5864229E1,9.324808E1,1.126101E1,1.9320751E1,7.392733E1,1.02957945E1,9.024957E0],"tree_param":{"num_deleted":"0","num_feature":"160","num_nodes":"17","size_leaf_vector":"1"}},{"base_weights":[-8.1684805E-2,-7.2965974E-1,1.5941949E-1,-9.765237E-2,5.4933883E-2,-3.3760375E-1,4.4760865E-1,-1.0496314E-1,3.9216843E-2,-6.824615E-2,5.6943667E-1,-1.4760519E-2,6.7644083E-1,-8.661158E-3,7.931787E-2],"categories":[],"categories_nodes":[],"categories_segments":[],"categories_sizes":[],"default_left":[0,0,0,0,0,0,0,0,0,0,0,0,0,0,0],"id":22,"left_children":[1,3,5,-1,-1,7,9,-1,-1,-1,11,-1,13,-1,-1],"loss_changes":[4.9925808E1,3.1596844E1,3.4888145E1,0E0,0E0,5.0504448E1,2.4072866E1,0E0,0E0,0E0,1.1679718E1,0E0,1.1669331E1,0E0,0E0],"parents":[2147483647,0,0,1,1,2,2,5,5,6,6,10,10,12,12],"right_children":[2,4,6,-1,-1,8,10,-1,-1,-1,12,-1,14,-1,-1],"split_conditions":[1E2,7.8E1,8.6E0,-9.765237E-2,5.4933883E-2,2.45E0,7.9354E0,-1.0496314E-1,3.9216843E-2,-6.824615E-2,1.21E1,-1.4760519E-2,8.448E-1,-8.661158E-3,7.931787E-2],"split_indices":[66,30,103,0,0,11,140,0,0,0,16,0,74,0,0],"split_type":[0,0,0,0,0,0,0,0,0,0,0,0,0,0,0],"sum_hessian":[3.0561057E2,7.848072E1,2.2712985E2,6.736945E1,1.1111262E1,8.2857895E1,1.4427196E2,4.0164047E1,4.2693848E1,1.0457157E1,1.338148E2,1.6981981E1,1.1683282E2,1.577628E1,1.0105654E2],"tree_param":{"num_deleted":"0","num_feature":"160","num_nodes":"15","size_leaf_vector":"1"}},{"base_weights":[-8.110139E-2,-9.027788E-2,1.00553825E-1,-1.10477395E-1,7.2382376E-2,-9.8275535E-2,1.4316663E-1,-1.02331854E-1,4.1898388E-1,-7.201924E-2,5.793449E-2],"categories":[],"categories_nodes":[],"categories_segments":[],"categories_sizes":[],"default_left":[0,0,0,0,0,0,0,0,0,0,0],"id":23,"left_children":[1,-1,3,5,-1,-1,7,-1,9,-1,-1],"loss_changes":[4.5291576E1,0E0,3.374735E1,4.426546E1,0E0,0E0,5.42778E1,0E0,2.7724644E1,0E0,0E0],"parents":[2147483647,0,0,2,2,3,3,6,6,8,8],"right_children":[2,-1,4,6,-1,-1,8,-1,10,-1,-1],"split_conditions":[7.2E-1,-9.027788E-2,6.12E0,4E0,7.2382376E-2,-9.8275535E-2,1.3E0,-1.02331854E-1,1.5543E1,-7.201924E-2,5.793449E-2],"split_indices":[116,0,56,60,0,0,91,0,139,0,0],"split_type":[0,0,0,0,0,0,0,0,0,0,0],"sum_hessian":[2.9057132E2,4.6858643E1,2.4371269E2,1.8698419E2,5.6728493E1,3.6942642E1,1.5004155E2,2.4546888E1,1.2549467E2,1.2039515E1,1.1345515E2],"tree_param":{"num_deleted":"0","num_feature":"160","num_nodes":"11","size_leaf_vector":"1"}},{"base_weights":[-8.4005296E-2,-8.876691E-2,8.9854464E-2,-1.1370735E-1,6.9229275E-2,-9.623536E-2,1.2752074E-1,-9.912261E-2,3.890448E-1,-7.005224E-2,5.4189663E-2],"categories":[],"categories_nodes":[],"categories_segments":[],"categories_sizes":[],"default_left":[0,0,0,0,0,0,0,0,0,0,0],"id":24,"left_children":[1,-1,3,5,-1,-1,7,-1,9,-1,-1],"loss_changes":[4.0294376E1,0E0,3.0135693E1,3.9204113E1,0E0,0E0,4.7687817E1,0E0,2.4572035E1,0E0,0E0],"parents":[2147483647,0,0,2,2,3,3,6,6,8,8],"right_children":[2,-1,4,6,-1,-1,8,-1,10,-1,-1],"split_conditions":[7.2E-1,-8.876691E-2,6.12E0,4E0,6.9229275E-2,-9.623536E-2,1.3E0,-9.912261E-2,1.5543E1,-7.005224E-2,5.4189663E-2],"split_indices":[116,0,56,60,0,0,91,0,139,0,0],"split_type":[0,0,0,0,0,0,0,0,0,0,0],"sum_hessian":[2.7581708E2,4.321432E1,2.3260277E2,1.78708E2,5.389477E1,3.4261185E1,1.4444681E2,2.3139439E1,1.21307365E2,1.1397676E1,1.0990969E2],"tree_param":{"num_deleted":"0","num_feature":"160","num_nodes":"11","size_leaf_vector":"1"}},{"base_weights":[-8.687245E-2,-8.725405E-2,7.9370975E-2,-1.16768256E-1,6.609809E-2,-3.5646412E-1,6.85159E-2,7.3916405E-2,-8.38852E-1,6.228456E-2,-6.002803E-1,-1.091769E-1,4.3076027E-2,3.553736E-2,-9.8568E-2],"categories":[],"categories_nodes":[],"categories_segments":[],"categories_sizes":[],"default_left":[0,0,0,0,0,0,0,0,0,0,0,0,0,0,0],"id":25,"left_children":[1,-1,3,5,-1,7,-1,9,11,-1,13,-1,-1,-1,-1],"loss_changes":[3.5862236E1,0E0,2.6906492E1,3.6386543E1,0E0,3.0220327E1,0E0,3.371477E1,2.5647575E1,0E0,1.8025024E1,0E0,0E0,0E0,0E0],"parents":[2147483647,0,0,2,2,3,3,5,5,7,7,8,8,10,10],"right_children":[2,-1,4,6,-1,8,-1,10,12,-1,14,-1,-1,-1,-1],"split_conditions":[7.2E-1,-8.725405E-2,6.12E0,7.7E1,6.609809E-2,1.067E2,6.85159E-2,2.734E0,2.78E0,6.228456E-2,1.7E0,-1.091769E-1,4.3076027E-2,3.553736E-2,-9.8568E-2],"split_indices":[116,0,56,30,0,67,0,73,11,0,133,0,0,0,0],"split_type":[0,0,0,0,0,0,0,0,0,0,0,0,0,0,0],"sum_hessian":[2.6232864E2,3.9877697E1,2.2245094E2,1.7113283E2,5.1318123E1,1.3517345E2,3.5959385E1,7.5017715E1,6.0155727E1,4.168623E1,3.3331486E1,5.1097336E1,9.05839E0,9.758115E0,2.3573374E1],"tree_param":{"num_deleted":"0","num_feature":"160","num_nodes":"15","size_leaf_vector":"1"}},{"base_weights":[-8.392546E-2,-8.573534E-2,7.711166E-2,-7.69963E-2,1.9835766E-1,-2.2319148E-1,4.1540223E-1,-7.269853E-1,5.12683E-2,6.1882358E-2,-2.7756962E-1,2.5798975E-2,-1.0201738E-1,4.8506867E-2,-9.639894E-2],"categories":[],"categories_nodes":[],"categories_segments":[],"categories_sizes":[],"default_left":[0,0,0,0,0,0,0,0,0,0,0,0,0,0,0],"id":26,"left_children":[1,-1,3,-1,5,7,9,11,-1,-1,13,-1,-1,-1,-1],"loss_changes":[3.244837E1,0E0,2.3760567E1,0E0,1.8888416E1,2.990183E1,2.0224218E1,1.5508753E1,0E0,0E0,2.2517681E1,0E0,0E0,0E0,0E0],"parents":[2147483647,0,0,2,2,4,4,5,5,6,6,7,7,10,10],"right_children":[2,-1,4,-1,6,8,10,12,-1,-1,14,-1,-1,-1,-1],"split_conditions":[7.2E-1,-8.573534E-2,2.148E1,-7.69963E-2,9.8E-1,2.479E1,2.29E0,2.4E1,5.12683E-2,6.1882358E-2,5.2E1,2.5798975E-2,-1.0201738E-1,4.8506867E-2,-9.639894E-2],"split_indices":[116,0,138,0,13,16,72,0,0,0,30,0,0,0,0],"split_type":[0,0,0,0,0,0,0,0,0,0,0,0,0,0,0],"sum_hessian":[2.4827715E2,3.68246E1,2.1145255E2,2.1117012E1,1.9033553E2,6.461404E1,1.2572149E2,3.8412643E1,2.6201395E1,9.785286E1,2.7868631E1,9.031501E0,2.9381142E1,1.4313015E1,1.3555616E1],"tree_param":{"num_deleted":"0","num_feature":"160","num_nodes":"15","size_leaf_vector":"1"}},{"base_weights":[-8.539351E-2,-7.112664E-1,1.0102319E-1,1.7777627E-2,-9.076358E-2,3.7222186E-1,-3.5197777E-1,-5.902764E-2,4.908433E-2,1.5357591E-1,-9.3111545E-2,-6.582087E-2,5.072641E-2],"categories":[],"categories_nodes":[],"categories_segments":[],"categories_sizes":[],"default_left":[0,0,0,0,0,0,0,0,0,0,0,0,0],"id":27,"left_children":[1,3,5,-1,-1,7,9,-1,-1,11,-1,-1,-1],"loss_changes":[2.9131607E1,1.127092E1,2.507732E1,0E0,0E0,1.6730513E1,2.3793106E1,0E0,0E0,1.6501585E1,0E0,0E0,0E0],"parents":[2147483647,0,0,1,1,2,2,5,5,6,6,9,9],"right_children":[2,4,6,-1,-1,8,10,-1,-1,12,-1,-1,-1],"split_conditions":[7.8E-1,1.4E0,2.5E0,1.7777627E-2,-9.076358E-2,2.263E1,8.58E1,-5.902764E-2,4.908433E-2,2.16E0,-9.3111545E-2,-6.582087E-2,5.072641E-2],"split_indices":[116,86,133,0,0,138,157,0,0,18,0,0,0],"split_type":[0,0,0,0,0,0,0,0,0,0,0,0,0],"sum_hessian":[2.3675873E2,4.9165943E1,1.8759277E2,9.031989E0,4.0133953E1,1.18235275E2,6.9357506E1,9.482762E0,1.0875252E2,4.0169987E1,2.9187515E1,1.010018E1,3.0069807E1],"tree_param":{"num_deleted":"0","num_feature":"160","num_nodes":"13","size_leaf_vector":"1"}},{"base_weights":[-8.731514E-2,-3.402093E-1,3.4876803E-1,-9.857445E-2,5.8517575E-2,5.3104807E-2,-2.9058902E-2,3.83567E-1,-8.459043E-2,-2.949259E-2,6.066935E-2],"categories":[],"categories_nodes":[],"categories_segments":[],"categories_sizes":[],"default_left":[0,0,0,0,0,0,0,0,0,0,0],"id":28,"left_children":[1,3,5,-1,7,-1,-1,9,-1,-1,-1],"loss_changes":[2.6848145E1,3.9762787E1,1.1740833E1,0E0,3.256445E1,0E0,0E0,1.3617368E1,0E0,0E0,0E0],"parents":[2147483647,0,0,1,1,2,2,4,4,7,7],"right_children":[2,4,6,-1,8,-1,-1,10,-1,-1,-1],"split_conditions":[3.4E0,4E0,9.3E0,-9.857445E-2,1.33E1,5.3104807E-2,-2.9058902E-2,2.02E0,-8.459043E-2,-2.949259E-2,6.066935E-2],"split_indices":[97,114,17,0,55,0,0,11,0,0,0],"split_type":[0,0,0,0,0,0,0,0,0,0,0],"sum_hessian":[2.268407E2,1.446904E2,8.2150314E1,5.074953E1,9.3940865E1,6.497985E1,1.7170464E1,7.249377E1,2.1447094E1,1.7303183E1,5.5190586E1],"tree_param":{"num_deleted":"0","num_feature":"160","num_nodes":"11","size_leaf_vector":"1"}},{"base_weights":[-8.6970314E-2,-6.5038675E-1,1.0462229E-1,3.870606E-2,-9.028501E-2,-3.2466435E-1,3.4734327E-1,-9.532259E-2,3.1452745E-2,-3.3244126E-2,5.080717E-1,-2.2415604E-2,6.549446E-2],"categories":[],"categories_nodes":[],"categories_segments":[],"categories_sizes":[],"default_left":[0,0,0,0,0,0,0,0,0,0,0,0,0],"id":29,"left_children":[1,3,5,-1,-1,7,9,-1,-1,-1,11,-1,-1],"loss_changes":[2.4888939E1,1.8075441E1,1.9156042E1,0E0,0E0,2.9482023E1,1.4001031E1,0E0,0E0,0E0,1.1584873E1,0E0,0E0],"parents":[2147483647,0,0,1,1,2,2,5,5,6,6,10,10],"right_children":[2,4,6,-1,-1,8,10,-1,-1,-1,12,-1,-1],"split_conditions":[1E2,1.33E0,8.6E0,3.870606E-2,-9.028501E-2,2.45E0,1.21E1,-9.532259E-2,3.1452745E-2,-3.3244126E-2,8.472E-1,-2.2415604E-2,6.549446E-2],"split_indices":[66,18,103,0,0,11,16,0,0,0,74,0,0],"split_type":[0,0,0,0,0,0,0,0,0,0,0,0,0],"sum_hessian":[2.1752466E2,5.0338158E1,1.671865E2,9.017496E0,4.1320663E1,5.941022E1,1.07776276E2,2.7972519E1,3.1437704E1,1.8975336E1,8.880094E1,1.4132831E1,7.466811E1],"tree_param":{"num_deleted":"0","num_feature":"160","num_nodes":"13","size_leaf_vector":"1"}},{"base_weights":[-8.5921966E-2,-2.2804345E-1,6.1923724E-2,-8.3735055E-1,1.1831778E-1,-1.0248261E-1,8.264878E-3,-8.0598526E-2,3.385622E-1,5.0759096E-2,-7.416763E-2],"categories":[],"categories_nodes":[],"categories_segments":[],"categories_sizes":[],"default_left":[0,0,0,0,0,0,0,0,0,0,0],"id":30,"left_children":[1,3,-1,5,7,-1,-1,-1,9,-1,-1],"loss_changes":[2.2842686E1,4.0080288E1,0E0,1.248555E1,2.7772326E1,0E0,0E0,0E0,2.2575712E1,0E0,0E0],"parents":[2147483647,0,0,1,1,3,3,4,4,8,8],"right_children":[2,4,-1,6,8,-1,-1,-1,10,-1,-1],"split_conditions":[7.7E1,2E0,6.1923724E-2,1.1616E0,7.932E-1,-1.0248261E-1,8.264878E-3,-8.0598526E-2,2.46E0,5.0759096E-2,-7.416763E-2],"split_indices":[30,11,0,74,74,0,0,0,72,0,0],"split_type":[0,0,0,0,0,0,0,0,0,0,0],"sum_hessian":[2.0865689E2,1.7816203E2,3.0494856E1,6.046084E1,1.17701195E2,4.9468678E1,1.0992161E1,1.8555023E1,9.914617E1,8.939856E1,9.747613E0],"tree_param":{"num_deleted":"0","num_feature":"160","num_nodes":"11","size_leaf_vector":"1"}},{"base_weights":[-8.668762E-2,-3.255592E-1,3.1211704E-2,-6.064491E-1,4.8505813E-2,-7.4873924E-2,-1.04139425E-1,4.295492E-2,-7.6586924E-2],"categories":[],"categories_nodes":[],"categories_segments":[],"categories_sizes":[],"default_left":[0,0,0,0,0,0,0,0,0],"id":31,"left_children":[1,3,-1,5,-1,7,-1,-1,-1],"loss_changes":[2.059385E1,3.2813736E1,0E0,2.3168781E1,0E0,2.1777473E1,0E0,0E0,0E0],"parents":[2147483647,0,0,1,1,3,3,5,5],"right_children":[2,4,-1,6,-1,8,-1,-1,-1],"split_conditions":[3.4E0,4.11915E1,3.1211704E-2,2.61E1,4.8505813E-2,8.886E-1,-1.04139425E-1,4.295492E-2,-7.6586924E-2],"split_indices":[97,139,0,31,0,74,0,0,0],"split_type":[0,0,0,0,0,0,0,0,0],"sum_hessian":[1.9964543E2,1.2577776E2,7.3867676E1,9.490636E1,3.0871405E1,4.692877E1,4.7977592E1,2.8876186E1,1.805258E1],"tree_param":{"num_deleted":"0","num_feature":"160","num_nodes":"9","size_leaf_vector":"1"}},{"base_weights":[-8.398722E-2,-2.2160807E-1,5.863424E-2,-8.028477E-1,1.0292879E-1,-9.966404E-2,8.796656E-3,-7.757119E-2,3.1008887E-1,5.9521534E-2,-1.1692792E-1,-8.029976E-2,3.5170037E-2],"categories":[],"categories_nodes":[],"categories_segments":[],"categories_sizes":[],"default_left":[0,0,0,0,0,0,0,0,0,0,0,0,0],"id":32,"left_children":[1,3,-1,5,7,-1,-1,-1,9,-1,11,-1,-1],"loss_changes":[1.954277E1,3.314678E1,0E0,1.1510532E1,2.33302E1,0E0,0E0,0E0,1.2839329E1,0E0,1.7395021E1,0E0,0E0],"parents":[2147483647,0,0,1,1,3,3,4,4,8,8,10,10],"right_children":[2,4,-1,6,8,-1,-1,-1,10,-1,12,-1,-1],"split_conditions":[7.7E1,2E0,5.863424E-2,1.1616E0,7.932E-1,-9.966404E-2,8.796656E-3,-7.757119E-2,9.12E-1,5.9521534E-2,6.04E0,-8.029976E-2,3.5170037E-2],"split_indices":[30,11,0,74,74,0,0,0,74,0,56,0,0],"split_type":[0,0,0,0,0,0,0,0,0,0,0,0,0],"sum_hessian":[1.9257451E2,1.6421573E2,2.8358788E1,5.4613438E1,1.0960229E2,4.4074787E1,1.0538651E1,1.672204E1,9.288025E1,5.3803555E1,3.9076694E1,1.3542493E1,2.55342E1],"tree_param":{"num_deleted":"0","num_feature":"160","num_nodes":"13","size_leaf_vector":"1"}},{"base_weights":[-8.361927E-2,-7.7235006E-2,5.1888254E-2,-1.5605389E-1,4.517441E-2,1.1517526E-1,-8.946016E-2,4.5462366E-2,-6.064235E-2],"categories":[],"categories_nodes":[],"categories_segments":[],"categories_sizes":[],"default_left":[0,0,0,0,0,0,0,0,0],"id":33,"left_children":[1,-1,3,5,-1,7,-1,-1,-1],"loss_changes":[1.824176E1,0E0,1.4528495E1,2.4148308E1,0E0,2.4801464E1,0E0,0E0,0E0],"parents":[2147483647,0,0,2,2,3,3,5,5],"right_children":[2,-1,4,6,-1,8,-1,-1,-1],"split_conditions":[7.2E-1,-7.7235006E-2,1.7E0,2.5E0,4.517441E-2,2.45E0,-8.946016E-2,4.5462366E-2,-6.064235E-2],"split_indices":[116,0,6,91,0,4,0,0,0],"split_type":[0,0,0,0,0,0,0,0,0],"sum_hessian":[1.840229E2,2.4072828E1,1.5995007E2,1.0843633E2,5.1513737E1,8.4248695E1,2.4187637E1,5.9308914E1,2.4939783E1],"tree_param":{"num_deleted":"0","num_feature":"160","num_nodes":"9","size_leaf_vector":"1"}},{"base_weights":[-8.4369786E-2,-3.1633314E-1,2.8311675E-2,-5.848945E-1,4.3467157E-2,-8.06262E-2,-1.002918E-1,-7.214206E-2,4.1682687E-2],"categories":[],"categories_nodes":[],"categories_segments":[],"categories_sizes":[],"default_left":[0,0,0,0,0,0,0,0,0],"id":34,"left_children":[1,3,-1,5,-1,7,-1,-1,-1],"loss_changes":[1.651529E1,2.5711931E1,0E0,1.8300484E1,0E0,1.8165144E1,0E0,0E0,0E0],"parents":[2147483647,0,0,1,1,3,3,5,5],"right_children":[2,4,-1,6,-1,8,-1,-1,-1],"split_conditions":[3.4E0,4.11915E1,2.8311675E-2,2.61E1,4.3467157E-2,5.635916E1,-1.002918E-1,-7.214206E-2,4.1682687E-2],"split_indices":[97,139,0,31,0,43,0,0,0],"split_type":[0,0,0,0,0,0,0,0,0],"sum_hessian":[1.7733766E2,1.0939768E2,6.793998E1,8.1884895E1,2.7512793E1,4.1439167E1,4.0445724E1,1.6536213E1,2.4902956E1],"tree_param":{"num_deleted":"0","num_feature":"160","num_nodes":"9","size_leaf_vector":"1"}},{"base_weights":[-8.192646E-2,-2.1423686E-1,5.4497022E-2,-7.655791E-1,8.931771E-2,9.335618E-3,-9.697621E-2,-7.342904E-2,2.8154352E-1,5.064861E-2,-1.779833E-1,3.5769697E-2,-7.838371E-2],"categories":[],"categories_nodes":[],"categories_segments":[],"categories_sizes":[],"default_left":[0,0,0,0,0,0,0,0,0,0,0,0,0],"id":35,"left_children":[1,3,-1,5,7,-1,-1,-1,9,-1,11,-1,-1],"loss_changes":[1.5810254E1,2.6293573E1,0E0,1.0450813E1,1.8495367E1,0E0,0E0,0E0,1.0234064E1,0E0,1.3979929E1,0E0,0E0],"parents":[2147483647,0,0,1,1,3,3,4,4,8,8,10,10],"right_children":[2,4,-1,6,8,-1,-1,-1,10,-1,12,-1,-1],"split_conditions":[7.7E1,2E0,5.4497022E-2,9.42E1,7.932E-1,9.335618E-3,-9.697621E-2,-7.342904E-2,2.29E0,5.064861E-2,9.66E-1,3.5769697E-2,-7.838371E-2],"split_indices":[30,11,0,67,74,0,0,0,72,0,74,0,0],"split_type":[0,0,0,0,0,0,0,0,0,0,0,0,0],"sum_hessian":[1.713507E2,1.4583696E2,2.5513721E1,4.7459854E1,9.837711E1,9.949138E0,3.7510715E1,1.4346936E1,8.4030174E1,5.586582E1,2.8164354E1,1.6686962E1,1.1477392E1],"tree_param":{"num_deleted":"0","num_feature":"160","num_nodes":"13","size_leaf_vector":"1"}},{"base_weights":[-8.196926E-2,-6.1739523E-2,7.258739E-2,3.0901743E-2,-3.2358125E-1,2.6676962E-2,-6.728544E-2],"categories":[],"categories_nodes":[],"categories_segments":[],"categories_sizes":[],"default_left":[0,0,0,0,0,0,0],"id":36,"left_children":[1,-1,3,-1,5,-1,-1],"loss_changes":[1.4620712E1,0E0,1.3997323E1,0E0,1.309989E1,0E0,0E0],"parents":[2147483647,0,0,2,2,4,4],"right_children":[2,-1,4,-1,6,-1,-1],"split_conditions":[7.8E-1,-6.1739523E-2,2.5E0,3.0901743E-2,8.2E-1,2.6676962E-2,-6.728544E-2],"split_indices":[116,0,133,0,116,0,0],"split_type":[0,0,0,0,0,0,0],"sum_hessian":[1.6434518E2,3.1447073E1,1.3289812E2,8.433037E1,4.856775E1,1.8755842E1,2.9811909E1],"tree_param":{"num_deleted":"0","num_feature":"160","num_nodes":"7","size_leaf_vector":"1"}},{"base_weights":[-7.896505E-2,-5.795008E-2,8.235329E-2,-2.6925153E-1,2.976375E-1,2.8292933E-2,-6.3889034E-2,-2.1323673E-1,5.1096637E-2,5.8881074E-2,-8.0855325E-2],"categories":[],"categories_nodes":[],"categories_segments":[],"categories_sizes":[],"default_left":[0,0,0,0,0,0,0,0,0,0,0],"id":37,"left_children":[1,-1,3,5,7,-1,-1,9,-1,-1,-1],"loss_changes":[1.4016128E1,0E0,1.0837509E1,1.274465E1,1.0391183E1,0E0,0E0,1.8789139E1,0E0,0E0,0E0],"parents":[2147483647,0,0,2,2,3,3,4,4,7,7],"right_children":[2,-1,4,6,8,-1,-1,10,-1,-1,-1],"split_conditions":[7.3272E0,-5.795008E-2,2E0,1.42E0,1.45E0,2.8292933E-2,-6.3889034E-2,9.42E1,5.1096637E-2,5.8881074E-2,-8.0855325E-2],"split_indices":[140,0,18,18,12,0,0,67,0,0,0],"split_type":[0,0,0,0,0,0,0,0,0,0,0],"sum_hessian":[1.6085548E2,3.415176E1,1.2670373E2,4.7355957E1,7.934777E1,1.9741686E1,2.7614273E1,2.3374529E1,5.5973244E1,9.995455E0,1.3379074E1],"tree_param":{"num_deleted":"0","num_feature":"160","num_nodes":"11","size_leaf_vector":"1"}},{"base_weights":[-7.668702E-2,-2.0572722E-1,5.1512964E-2,-7.574035E-2,7.818808E-2,-7.456366E-2,2.8510004E-1,6.476445E-2,-7.686971E-2,-5.9795707E-2,4.4274554E-2],"categories":[],"categories_nodes":[],"categories_segments":[],"categories_sizes":[],"default_left":[0,0,0,0,0,0,0,0,0,0,0],"id":38,"left_children":[1,3,-1,-1,5,-1,7,-1,9,-1,-1],"loss_changes":[1.3334448E1,2.2394602E1,0E0,0E0,1.8687235E1,0E0,1.16098995E1,0E0,1.5629794E1,0E0,0E0],"parents":[2147483647,0,0,1,1,4,4,6,6,8,8],"right_children":[2,4,-1,-1,6,-1,8,-1,10,-1,-1],"split_conditions":[7.7E1,8.484E-1,5.1512964E-2,-7.574035E-2,1.31E1,-7.456366E-2,9.12E-1,6.476445E-2,3.4E0,-5.9795707E-2,4.4274554E-2],"split_indices":[30,74,0,0,16,0,74,0,97,0,0],"split_type":[0,0,0,0,0,0,0,0,0,0,0],"sum_hessian":[1.5550586E2,1.3195363E2,2.3552237E1,4.0301685E1,9.165194E1,1.4217099E1,7.743484E1,3.5532322E1,4.1902515E1,2.03194E1,2.1583117E1],"tree_param":{"num_deleted":"0","num_feature":"160","num_nodes":"11","size_leaf_vector":"1"}},{"base_weights":[-7.4374884E-2,4.1385163E-2,-7.2892345E-2,-2.0725262E-1,3.958634E-2,-8.202365E-2,9.516948E-2,3.4121256E-2,-6.516915E-2],"categories":[],"categories_nodes":[],"categories_segments":[],"categories_sizes":[],"default_left":[0,0,0,0,0,0,0,0,0],"id":39,"left_children":[1,3,-1,5,-1,-1,7,-1,-1],"loss_changes":[1.2165933E1,1.310985E1,0E0,1.6993128E1,0E0,0E0,1.3961327E1,0E0,0E0],"parents":[2147483647,0,0,1,1,3,3,6,6],"right_children":[2,4,-1,6,-1,-1,8,-1,-1],"split_conditions":[7.3656E2,3.4E0,-7.2892345E-2,4E0,3.958634E-2,-8.202365E-2,1.33E1,3.4121256E-2,-6.516915E-2],"split_indices":[49,97,0,114,0,0,55,0,0],"split_type":[0,0,0,0,0,0,0,0,0],"sum_hessian":[1.4937772E2,1.3329758E2,1.6080132E1,8.0297806E1,5.2999767E1,2.2002605E1,5.8295204E1,4.7117947E1,1.1177257E1],"tree_param":{"num_deleted":"0","num_feature":"160","num_nodes":"9","size_leaf_vector":"1"}},{"base_weights":[-7.732349E-2,-2.0150413E-1,4.82877E-2,-7.257555E-2,8.073809E-2,-6.693034E-2,2.5408316E-2],"categories":[],"categories_nodes":[],"categories_segments":[],"categories_sizes":[],"default_left":[0,0,0,0,0,0,0],"id":40,"left_children":[1,3,-1,-1,5,-1,-1],"loss_changes":[1.1380168E1,1.9762085E1,0E0,0E0,1.3316447E1,0E0,0E0],"parents":[2147483647,0,0,1,1,4,4],"right_children":[2,4,-1,-1,6,-1,-1],"split_conditions":[7.7E1,2E0,4.82877E-2,-7.257555E-2,7.932E-1,-6.693034E-2,2.5408316E-2],"split_indices":[30,11,0,0,74,0,0],"split_type":[0,0,0,0,0,0,0],"sum_hessian":[1.4439838E2,1.223903E2,2.2008078E1,3.843255E1,8.395775E1,1.1464315E1,7.249343E1],"tree_param":{"num_deleted":"0","num_feature":"160","num_nodes":"7","size_leaf_vector":"1"}},{"base_weights":[-7.5179584E-2,3.5053935E-2,-7.044846E-2,-2.0522116E-1,3.7124194E-2,-7.950037E-2,8.2433864E-2,3.1053538E-2,-6.2146682E-2],"categories":[],"categories_nodes":[],"categories_segments":[],"categories_sizes":[],"default_left":[0,0,0,0,0,0,0,0,0],"id":41,"left_children":[1,3,-1,5,-1,-1,7,-1,-1],"loss_changes":[1.0517856E1,1.145115E1,0E0,1.4677762E1,0E0,0E0,1.1711279E1,0E0,0E0],"parents":[2147483647,0,0,1,1,3,3,6,6],"right_children":[2,4,-1,6,-1,-1,8,-1,-1],"split_conditions":[7.3656E2,3.4E0,-7.044846E-2,4E0,3.7124194E-2,-7.950037E-2,1.33E1,3.1053538E-2,-6.2146682E-2],"split_indices":[49,97,0,114,0,0,55,0,0],"split_type":[0,0,0,0,0,0,0,0,0],"sum_hessian":[1.4077066E2,1.26216125E2,1.4554531E1,7.5425606E1,5.0790516E1,2.0101448E1,5.532416E1,4.516045E1,1.01637125E1],"tree_param":{"num_deleted":"0","num_feature":"160","num_nodes":"9","size_leaf_vector":"1"}},{"base_weights":[-7.8167446E-2],"categories":[],"categories_nodes":[],"categories_segments":[],"categories_sizes":[],"default_left":[0],"id":42,"left_children":[-1],"loss_changes":[0E0],"parents":[2147483647],"right_children":[-1],"split_conditions":[-7.816745E-3],"split_indices":[0],"split_type":[0],"sum_hessian":[1.3638669E2],"tree_param":{"num_deleted":"0","num_feature":"160","num_nodes":"1","size_leaf_vector":"1"}},{"base_weights":[-7.072817E-2],"categories":[],"categories_nodes":[],"categories_segments":[],"categories_sizes":[],"default_left":[0],"id":43,"left_children":[-1],"loss_changes":[0E0],"parents":[2147483647],"right_children":[-1],"split_conditions":[-7.072817E-3],"split_indices":[0],"split_type":[0],"sum_hessian":[1.364935E2],"tree_param":{"num_deleted":"0","num_feature":"160","num_nodes":"1","size_leaf_vector":"1"}},{"base_weights":[-6.4000145E-2],"categories":[],"categories_nodes":[],"categories_segments":[],"categories_sizes":[],"default_left":[0],"id":44,"left_children":[-1],"loss_changes":[0E0],"parents":[2147483647],"right_children":[-1],"split_conditions":[-6.4000147E-3],"split_indices":[0],"split_type":[0],"sum_hessian":[1.365945E2],"tree_param":{"num_deleted":"0","num_feature":"160","num_nodes":"1","size_leaf_vector":"1"}},{"base_weights":[-5.7913646E-2,-6.698783E-2,5.2437927E-3],"categories":[],"categories_nodes":[],"categories_segments":[],"categories_sizes":[],"default_left":[0,0,0],"id":45,"left_children":[1,-1,-1],"loss_changes":[1.005209E1,0E0,0E0],"parents":[2147483647,0,0],"right_children":[2,-1,-1],"split_conditions":[2.148E1,-6.698783E-2,5.2437927E-3],"split_indices":[138,0,0],"split_type":[0,0,0],"sum_hessian":[1.3668965E2,1.468568E1,1.2200397E2],"tree_param":{"num_deleted":"0","num_feature":"160","num_nodes":"3","size_leaf_vector":"1"}},{"base_weights":[-5.6148127E-2],"categories":[],"categories_nodes":[],"categories_segments":[],"categories_sizes":[],"default_left":[0],"id":46,"left_children":[-1],"loss_changes":[0E0],"parents":[2147483647],"right_children":[-1],"split_conditions":[-5.614813E-3],"split_indices":[0],"split_type":[0],"sum_hessian":[1.356448E2],"tree_param":{"num_deleted":"0","num_feature":"160","num_nodes":"1","size_leaf_vector":"1"}},{"base_weights":[-5.0812952E-2],"categories":[],"categories_nodes":[],"categories_segments":[],"categories_sizes":[],"default_left":[0],"id":47,"left_children":[-1],"loss_changes":[0E0],"parents":[2147483647],"right_children":[-1],"split_conditions":[-5.0812955E-3],"split_indices":[0],"split_type":[0],"sum_hessian":[1.357334E2],"tree_param":{"num_deleted":"0","num_feature":"160","num_nodes":"1","size_leaf_vector":"1"}},{"base_weights":[-4.5986764E-2],"categories":[],"categories_nodes":[],"categories_segments":[],"categories_sizes":[],"default_left":[0],"id":48,"left_children":[-1],"loss_changes":[0E0],"parents":[2147483647],"right_children":[-1],"split_conditions":[-4.5986767E-3],"split_indices":[0],"split_type":[0],"sum_hessian":[1.3581586E2],"tree_param":{"num_deleted":"0","num_feature":"160","num_nodes":"1","size_leaf_vector":"1"}},{"base_weights":[-4.1620802E-2,-5.400988E-2,9.2602454E-2,3.0370785E-2,-2.838941E-2],"categories":[],"categories_nodes":[],"categories_segments":[],"categories_sizes":[],"default_left":[0,0,0,0,0],"id":49,"left_children":[1,-1,3,-1,-1],"loss_changes":[1.0027571E1,0E0,1.0242974E1,0E0,0E0],"parents":[2147483647,0,0,2,2],"right_children":[2,-1,4,-1,-1],"split_conditions":[7.8E-1,-5.400988E-2,2.5E0,3.0370785E-2,-2.838941E-2],"split_indices":[116,0,133,0,0],"split_type":[0,0,0,0,0],"sum_hessian":[1.3589235E2,2.3696665E1,1.1219569E2,7.2878586E1,3.9317097E1],"tree_param":{"num_deleted":"0","num_feature":"160","num_nodes":"5","size_leaf_vector":"1"}},{"base_weights":[-4.0897712E-2],"categories":[],"categories_nodes":[],"categories_segments":[],"categories_sizes":[],"default_left":[0],"id":50,"left_children":[-1],"loss_changes":[0E0],"parents":[2147483647],"right_children":[-1],"split_conditions":[-4.0897713E-3],"split_indices":[0],"split_type":[0],"sum_hessian":[1.3409116E2],"tree_param":{"num_deleted":"0","num_feature":"160","num_nodes":"1","size_leaf_vector":"1"}},{"base_weights":[-3.701878E-2],"categories":[],"categories_nodes":[],"categories_segments":[],"categories_sizes":[],"default_left":[0],"id":51,"left_children":[-1],"loss_changes":[0E0],"parents":[2147483647],"right_children":[-1],"split_conditions":[-3.701878E-3],"split_indices":[0],"split_type":[0],"sum_hessian":[1.3416165E2],"tree_param":{"num_deleted":"0","num_feature":"160","num_nodes":"1","size_leaf_vector":"1"}},{"base_weights":[-3.350917E-2],"categories":[],"categories_nodes":[],"categories_segments":[],"categories_sizes":[],"default_left":[0],"id":52,"left_children":[-1],"loss_changes":[0E0],"parents":[2147483647],"right_children":[-1],"split_conditions":[-3.350917E-3],"split_indices":[0],"split_type":[0],"sum_hessian":[1.3422665E2],"tree_param":{"num_deleted":"0","num_feature":"160","num_nodes":"1","size_leaf_vector":"1"}},{"base_weights":[-3.0332817E-2],"categories":[],"categories_nodes":[],"categories_segments":[],"categories_sizes":[],"default_left":[0],"id":53,"left_children":[-1],"loss_changes":[0E0],"parents":[2147483647],"right_children":[-1],"split_conditions":[-3.0332818E-3],"split_indices":[0],"split_type":[0],"sum_hessian":[1.3428654E2],"tree_param":{"num_deleted":"0","num_feature":"160","num_nodes":"1","size_leaf_vector":"1"}},{"base_weights":[-2.7459031E-2],"categories":[],"categories_nodes":[],"categories_segments":[],"categories_sizes":[],"default_left":[0],"id":54,"left_children":[-1],"loss_changes":[0E0],"parents":[2147483647],"right_children":[-1],"split_conditions":[-2.745903E-3],"split_indices":[0],"split_type":[0],"sum_hessian":[1.3434149E2],"tree_param":{"num_deleted":"0","num_feature":"160","num_nodes":"1","size_leaf_vector":"1"}},{"base_weights":[-2.4858102E-2],"categories":[],"categories_nodes":[],"categories_segments":[],"categories_sizes":[],"default_left":[0],"id":55,"left_children":[-1],"loss_changes":[0E0],"parents":[2147483647],"right_children":[-1],"split_conditions":[-2.4858103E-3],"split_indices":[0],"split_type":[0],"sum_hessian":[1.3439194E2],"tree_param":{"num_deleted":"0","num_feature":"160","num_nodes":"1","size_leaf_vector":"1"}},{"base_weights":[-2.2504445E-2],"categories":[],"categories_nodes":[],"categories_segments":[],"categories_sizes":[],"default_left":[0],"id":56,"left_children":[-1],"loss_changes":[0E0],"parents":[2147483647],"right_children":[-1],"split_conditions":[-2.2504446E-3],"split_indices":[0],"split_type":[0],"sum_hessian":[1.3443811E2],"tree_param":{"num_deleted":"0","num_feature":"160","num_nodes":"1","size_leaf_vector":"1"}},{"base_weights":[-2.0374006E-2],"categories":[],"categories_nodes":[],"categories_segments":[],"categories_sizes":[],"default_left":[0],"id":57,"left_children":[-1],"loss_changes":[0E0],"parents":[2147483647],"right_children":[-1],"split_conditions":[-2.0374006E-3],"split_indices":[0],"split_type":[0],"sum_hessian":[1.3448038E2],"tree_param":{"num_deleted":"0","num_feature":"160","num_nodes":"1","size_leaf_vector":"1"}},{"base_weights":[-1.844582E-2],"categories":[],"categories_nodes":[],"categories_segments":[],"categories_sizes":[],"default_left":[0],"id":58,"left_children":[-1],"loss_changes":[0E0],"parents":[2147483647],"right_children":[-1],"split_conditions":[-1.844582E-3],"split_indices":[0],"split_type":[0],"sum_hessian":[1.3451901E2],"tree_param":{"num_deleted":"0","num_feature":"160","num_nodes":"1","size_leaf_vector":"1"}},{"base_weights":[-1.6700255E-2],"categories":[],"categories_nodes":[],"categories_segments":[],"categories_sizes":[],"default_left":[0],"id":59,"left_children":[-1],"loss_changes":[0E0],"parents":[2147483647],"right_children":[-1],"split_conditions":[-1.6700255E-3],"split_indices":[0],"split_type":[0],"sum_hessian":[1.345543E2],"tree_param":{"num_deleted":"0","num_feature":"160","num_nodes":"1","size_leaf_vector":"1"}},{"base_weights":[-1.5120489E-2],"categories":[],"categories_nodes":[],"categories_segments":[],"categories_sizes":[],"default_left":[0],"id":60,"left_children":[-1],"loss_changes":[0E0],"parents":[2147483647],"right_children":[-1],"split_conditions":[-1.5120489E-3],"split_indices":[0],"split_type":[0],"sum_hessian":[1.3458649E2],"tree_param":{"num_deleted":"0","num_feature":"160","num_nodes":"1","size_leaf_vector":"1"}},{"base_weights":[-1.369036E-2],"categories":[],"categories_nodes":[],"categories_segments":[],"categories_sizes":[],"default_left":[0],"id":61,"left_children":[-1],"loss_changes":[0E0],"parents":[2147483647],"right_children":[-1],"split_conditions":[-1.369036E-3],"split_indices":[0],"split_type":[0],"sum_hessian":[1.3461581E2],"tree_param":{"num_deleted":"0","num_feature":"160","num_nodes":"1","size_leaf_vector":"1"}},{"base_weights":[-1.2395606E-2],"categories":[],"categories_nodes":[],"categories_segments":[],"categories_sizes":[],"default_left":[0],"id":62,"left_children":[-1],"loss_changes":[0E0],"parents":[2147483647],"right_children":[-1],"split_conditions":[-1.2395607E-3],"split_indices":[0],"split_type":[0],"sum_hessian":[1.3464256E2],"tree_param":{"num_deleted":"0","num_feature":"160","num_nodes":"1","size_leaf_vector":"1"}},{"base_weights":[-1.1223528E-2],"categories":[],"categories_nodes":[],"categories_segments":[],"categories_sizes":[],"default_left":[0],"id":63,"left_children":[-1],"loss_changes":[0E0],"parents":[2147483647],"right_children":[-1],"split_conditions":[-1.1223528E-3],"split_indices":[0],"split_type":[0],"sum_hessian":[1.346669E2],"tree_param":{"num_deleted":"0","num_feature":"160","num_nodes":"1","size_leaf_vector":"1"}},{"base_weights":[-1.0162441E-2],"categories":[],"categories_nodes":[],"categories_segments":[],"categories_sizes":[],"default_left":[0],"id":64,"left_children":[-1],"loss_changes":[0E0],"parents":[2147483647],"right_children":[-1],"split_conditions":[-1.0162442E-3],"split_indices":[0],"split_type":[0],"sum_hessian":[1.3468906E2],"tree_param":{"num_deleted":"0","num_feature":"160","num_nodes":"1","size_leaf_vector":"1"}},{"base_weights":[-9.20183E-3],"categories":[],"categories_nodes":[],"categories_segments":[],"categories_sizes":[],"default_left":[0],"id":65,"left_children":[-1],"loss_changes":[0E0],"parents":[2147483647],"right_children":[-1],"split_conditions":[-9.20183E-4],"split_indices":[0],"split_type":[0],"sum_hessian":[1.3470921E2],"tree_param":{"num_deleted":"0","num_feature":"160","num_nodes":"1","size_leaf_vector":"1"}},{"base_weights":[-8.332338E-3],"categories":[],"categories_nodes":[],"categories_segments":[],"categories_sizes":[],"default_left":[0],"id":66,"left_children":[-1],"loss_changes":[0E0],"parents":[2147483647],"right_children":[-1],"split_conditions":[-8.332338E-4],"split_indices":[0],"split_type":[0],"sum_hessian":[1.347275E2],"tree_param":{"num_deleted":"0","num_feature":"160","num_nodes":"1","size_leaf_vector":"1"}},{"base_weights":[-7.5445757E-3],"categories":[],"categories_nodes":[],"categories_segments":[],"categories_sizes":[],"default_left":[0],"id":67,"left_children":[-1],"loss_changes":[0E0],"parents":[2147483647],"right_children":[-1],"split_conditions":[-7.544576E-4],"split_indices":[0],"split_type":[0],"sum_hessian":[1.3474419E2],"tree_param":{"num_deleted":"0","num_feature":"160","num_nodes":"1","size_leaf_vector":"1"}},{"base_weights":[-6.8317675E-3],"categories":[],"categories_nodes":[],"categories_segments":[],"categories_sizes":[],"default_left":[0],"id":68,"left_children":[-1],"loss_changes":[0E0],"parents":[2147483647],"right_children":[-1],"split_conditions":[-6.8317674E-4],"split_indices":[0],"split_type":[0],"sum_hessian":[1.3475931E2],"tree_param":{"num_deleted":"0","num_feature":"160","num_nodes":"1","size_leaf_vector":"1"}},{"base_weights":[-6.1863186E-3],"categories":[],"categories_nodes":[],"categories_segments":[],"categories_sizes":[],"default_left":[0],"id":69,"left_children":[-1],"loss_changes":[0E0],"parents":[2147483647],"right_children":[-1],"split_conditions":[-6.186319E-4],"split_indices":[0],"split_type":[0],"sum_hessian":[1.3477303E2],"tree_param":{"num_deleted":"0","num_feature":"160","num_nodes":"1","size_leaf_vector":"1"}},{"base_weights":[-5.60166E-3],"categories":[],"categories_nodes":[],"categories_segments":[],"categories_sizes":[],"default_left":[0],"id":70,"left_children":[-1],"loss_changes":[0E0],"parents":[2147483647],"right_children":[-1],"split_conditions":[-5.60166E-4],"split_indices":[0],"split_type":[0],"sum_hessian":[1.3478552E2],"tree_param":{"num_deleted":"0","num_feature":"160","num_nodes":"1","size_leaf_vector":"1"}},{"base_weights":[-5.0726924E-3],"categories":[],"categories_nodes":[],"categories_segments":[],"categories_sizes":[],"default_left":[0],"id":71,"left_children":[-1],"loss_changes":[0E0],"parents":[2147483647],"right_children":[-1],"split_conditions":[-5.0726923E-4],"split_indices":[0],"split_type":[0],"sum_hessian":[1.3479681E2],"tree_param":{"num_deleted":"0","num_feature":"160","num_nodes":"1","size_leaf_vector":"1"}},{"base_weights":[-4.5932545E-3],"categories":[],"categories_nodes":[],"categories_segments":[],"categories_sizes":[],"default_left":[0],"id":72,"left_children":[-1],"loss_changes":[0E0],"parents":[2147483647],"right_children":[-1],"split_conditions":[-4.5932547E-4],"split_indices":[0],"split_type":[0],"sum_hessian":[1.3480711E2],"tree_param":{"num_deleted":"0","num_feature":"160","num_nodes":"1","size_leaf_vector":"1"}},{"base_weights":[-4.1592987E-3],"categories":[],"categories_nodes":[],"categories_segments":[],"categories_sizes":[],"default_left":[0],"id":73,"left_children":[-1],"loss_changes":[0E0],"parents":[2147483647],"right_children":[-1],"split_conditions":[-4.1592988E-4],"split_indices":[0],"split_type":[0],"sum_hessian":[1.3481645E2],"tree_param":{"num_deleted":"0","num_feature":"160","num_nodes":"1","size_leaf_vector":"1"}},{"base_weights":[-3.7663407E-3],"categories":[],"categories_nodes":[],"categories_segments":[],"categories_sizes":[],"default_left":[0],"id":74,"left_children":[-1],"loss_changes":[0E0],"parents":[2147483647],"right_children":[-1],"split_conditions":[-3.7663407E-4],"split_indices":[0],"split_type":[0],"sum_hessian":[1.3482492E2],"tree_param":{"num_deleted":"0","num_feature":"160","num_nodes":"1","size_leaf_vector":"1"}},{"base_weights":[-3.4105144E-3],"categories":[],"categories_nodes":[],"categories_segments":[],"categories_sizes":[],"default_left":[0],"id":75,"left_children":[-1],"loss_changes":[0E0],"parents":[2147483647],"right_children":[-1],"split_conditions":[-3.4105146E-4],"split_indices":[0],"split_type":[0],"sum_hessian":[1.348326E2],"tree_param":{"num_deleted":"0","num_feature":"160","num_nodes":"1","size_leaf_vector":"1"}},{"base_weights":[-3.0885225E-3],"categories":[],"categories_nodes":[],"categories_segments":[],"categories_sizes":[],"default_left":[0],"id":76,"left_children":[-1],"loss_changes":[0E0],"parents":[2147483647],"right_children":[-1],"split_conditions":[-3.0885226E-4],"split_indices":[0],"split_type":[0],"sum_hessian":[1.3483955E2],"tree_param":{"num_deleted":"0","num_feature":"160","num_nodes":"1","size_leaf_vector":"1"}},{"base_weights":[-2.7968641E-3],"categories":[],"categories_nodes":[],"categories_segments":[],"categories_sizes":[],"default_left":[0],"id":77,"left_children":[-1],"loss_changes":[0E0],"parents":[2147483647],"right_children":[-1],"split_conditions":[-2.796864E-4],"split_indices":[0],"split_type":[0],"sum_hessian":[1.3484586E2],"tree_param":{"num_deleted":"0","num_feature":"160","num_nodes":"1","size_leaf_vector":"1"}},{"base_weights":[-2.532836E-3],"categories":[],"categories_nodes":[],"categories_segments":[],"categories_sizes":[],"default_left":[0],"id":78,"left_children":[-1],"loss_changes":[0E0],"parents":[2147483647],"right_children":[-1],"split_conditions":[-2.5328362E-4],"split_indices":[0],"split_type":[0],"sum_hessian":[1.3485156E2],"tree_param":{"num_deleted":"0","num_feature":"160","num_nodes":"1","size_leaf_vector":"1"}},{"base_weights":[-2.293782E-3],"categories":[],"categories_nodes":[],"categories_segments":[],"categories_sizes":[],"default_left":[0],"id":79,"left_children":[-1],"loss_changes":[0E0],"parents":[2147483647],"right_children":[-1],"split_conditions":[-2.2937822E-4],"split_indices":[0],"split_type":[0],"sum_hessian":[1.3485674E2],"tree_param":{"num_deleted":"0","num_feature":"160","num_nodes":"1","size_leaf_vector":"1"}},{"base_weights":[-2.07702E-3],"categories":[],"categories_nodes":[],"categories_segments":[],"categories_sizes":[],"default_left":[0],"id":80,"left_children":[-1],"loss_changes":[0E0],"parents":[2147483647],"right_children":[-1],"split_conditions":[-2.07702E-4],"split_indices":[0],"split_type":[0],"sum_hessian":[1.3486145E2],"tree_param":{"num_deleted":"0","num_feature":"160","num_nodes":"1","size_leaf_vector":"1"}},{"base_weights":[-1.8808974E-3],"categories":[],"categories_nodes":[],"categories_segments":[],"categories_sizes":[],"default_left":[0],"id":81,"left_children":[-1],"loss_changes":[0E0],"parents":[2147483647],"right_children":[-1],"split_conditions":[-1.8808975E-4],"split_indices":[0],"split_type":[0],"sum_hessian":[1.348657E2],"tree_param":{"num_deleted":"0","num_feature":"160","num_nodes":"1","size_leaf_vector":"1"}},{"base_weights":[-1.7033396E-3],"categories":[],"categories_nodes":[],"categories_segments":[],"categories_sizes":[],"default_left":[0],"id":82,"left_children":[-1],"loss_changes":[0E0],"parents":[2147483647],"right_children":[-1],"split_conditions":[-1.7033397E-4],"split_indices":[0],"split_type":[0],"sum_hessian":[1.3486957E2],"tree_param":{"num_deleted":"0","num_feature":"160","num_nodes":"1","size_leaf_vector":"1"}},{"base_weights":[-1.5427669E-3],"categories":[],"categories_nodes":[],"categories_segments":[],"categories_sizes":[],"default_left":[0],"id":83,"left_children":[-1],"loss_changes":[0E0],"parents":[2147483647],"right_children":[-1],"split_conditions":[-1.542767E-4],"split_indices":[0],"split_type":[0],"sum_hessian":[1.3487305E2],"tree_param":{"num_deleted":"0","num_feature":"160","num_nodes":"1","size_leaf_vector":"1"}},{"base_weights":[-1.3969736E-3,9.986679E-3,-6.5636106E-2],"categories":[],"categories_nodes":[],"categories_segments":[],"categories_sizes":[],"default_left":[0,0,0],"id":84,"left_children":[1,-1,-1],"loss_changes":[1.000053E1,0E0,0E0],"parents":[2147483647,0,0],"right_children":[2,-1,-1],"split_conditions":[7.3656E2,9.986679E-3,-6.5636106E-2],"split_indices":[49,0,0],"split_type":[0,0,0],"sum_hessian":[1.3487622E2,1.22687706E2,1.2188517E1],"tree_param":{"num_deleted":"0","num_feature":"160","num_nodes":"3","size_leaf_vector":"1"}},{"base_weights":[-4.5524496E-3],"categories":[],"categories_nodes":[],"categories_segments":[],"categories_sizes":[],"default_left":[0],"id":85,"left_children":[-1],"loss_changes":[0E0],"parents":[2147483647],"right_children":[-1],"split_conditions":[-4.5524497E-4],"split_indices":[0],"split_type":[0],"sum_hessian":[1.3388408E2],"tree_param":{"num_deleted":"0","num_feature":"160","num_nodes":"1","size_leaf_vector":"1"}},{"base_weights":[-4.1226936E-3],"categories":[],"categories_nodes":[],"categories_segments":[],"categories_sizes":[],"default_left":[0],"id":86,"left_children":[-1],"loss_changes":[0E0],"parents":[2147483647],"right_children":[-1],"split_conditions":[-4.1226935E-4],"split_indices":[0],"split_type":[0],"sum_hessian":[1.3389336E2],"tree_param":{"num_deleted":"0","num_feature":"160","num_nodes":"1","size_leaf_vector":"1"}},{"base_weights":[-3.7333223E-3],"categories":[],"categories_nodes":[],"categories_segments":[],"categories_sizes":[],"default_left":[0],"id":87,"left_children":[-1],"loss_changes":[0E0],"parents":[2147483647],"right_children":[-1],"split_conditions":[-3.7333224E-4],"split_indices":[0],"split_type":[0],"sum_hessian":[1.339018E2],"tree_param":{"num_deleted":"0","num_feature":"160","num_nodes":"1","size_leaf_vector":"1"}},{"base_weights":[-3.3808935E-3],"categories":[],"categories_nodes":[],"categories_segments":[],"categories_sizes":[],"default_left":[0],"id":88,"left_children":[-1],"loss_changes":[0E0],"parents":[2147483647],"right_children":[-1],"split_conditions":[-3.3808936E-4],"split_indices":[0],"split_type":[0],"sum_hessian":[1.3390942E2],"tree_param":{"num_deleted":"0","num_feature":"160","num_nodes":"1","size_leaf_vector":"1"}},{"base_weights":[-3.0620135E-3],"categories":[],"categories_nodes":[],"categories_segments":[],"categories_sizes":[],"default_left":[0],"id":89,"left_children":[-1],"loss_changes":[0E0],"parents":[2147483647],"right_children":[-1],"split_conditions":[-3.0620137E-4],"split_indices":[0],"split_type":[0],"sum_hessian":[1.339163E2],"tree_param":{"num_deleted":"0","num_feature":"160","num_nodes":"1","size_leaf_vector":"1"}},{"base_weights":[-2.7726942E-3],"categories":[],"categories_nodes":[],"categories_segments":[],"categories_sizes":[],"default_left":[0],"id":90,"left_children":[-1],"loss_changes":[0E0],"parents":[2147483647],"right_children":[-1],"split_conditions":[-2.7726943E-4],"split_indices":[0],"split_type":[0],"sum_hessian":[1.3392264E2],"tree_param":{"num_deleted":"0","num_feature":"160","num_nodes":"1","size_leaf_vector":"1"}},{"base_weights":[-2.510779E-3],"categories":[],"categories_nodes":[],"categories_segments":[],"categories_sizes":[],"default_left":[0],"id":91,"left_children":[-1],"loss_changes":[0E0],"parents":[2147483647],"right_children":[-1],"split_conditions":[-2.510779E-4],"split_indices":[0],"split_type":[0],"sum_hessian":[1.3392836E2],"tree_param":{"num_deleted":"0","num_feature":"160","num_nodes":"1","size_leaf_vector":"1"}},{"base_weights":[-2.273901E-3],"categories":[],"categories_nodes":[],"categories_segments":[],"categories_sizes":[],"default_left":[0],"id":92,"left_children":[-1],"loss_changes":[0E0],"parents":[2147483647],"right_children":[-1],"split_conditions":[-2.2739009E-4],"split_indices":[0],"split_type":[0],"sum_hessian":[1.339335E2],"tree_param":{"num_deleted":"0","num_feature":"160","num_nodes":"1","size_leaf_vector":"1"}},{"base_weights":[-2.0591374E-3],"categories":[],"categories_nodes":[],"categories_segments":[],"categories_sizes":[],"default_left":[0],"id":93,"left_children":[-1],"loss_changes":[0E0],"parents":[2147483647],"right_children":[-1],"split_conditions":[-2.0591375E-4],"split_indices":[0],"split_type":[0],"sum_hessian":[1.3393819E2],"tree_param":{"num_deleted":"0","num_feature":"160","num_nodes":"1","size_leaf_vector":"1"}},{"base_weights":[-1.8650772E-3],"categories":[],"categories_nodes":[],"categories_segments":[],"categories_sizes":[],"default_left":[0],"id":94,"left_children":[-1],"loss_changes":[0E0],"parents":[2147483647],"right_children":[-1],"split_conditions":[-1.8650772E-4],"split_indices":[0],"split_type":[0],"sum_hessian":[1.3394238E2],"tree_param":{"num_deleted":"0","num_feature":"160","num_nodes":"1","size_leaf_vector":"1"}},{"base_weights":[-1.6888428E-3],"categories":[],"categories_nodes":[],"categories_segments":[],"categories_sizes":[],"default_left":[0],"id":95,"left_children":[-1],"loss_changes":[0E0],"parents":[2147483647],"right_children":[-1],"split_conditions":[-1.6888427E-4],"split_indices":[0],"split_type":[0],"sum_hessian":[1.3394626E2],"tree_param":{"num_deleted":"0","num_feature":"160","num_nodes":"1","size_leaf_vector":"1"}},{"base_weights":[-1.5294198E-3],"categories":[],"categories_nodes":[],"categories_segments":[],"categories_sizes":[],"default_left":[0],"id":96,"left_children":[-1],"loss_changes":[0E0],"parents":[2147483647],"right_children":[-1],"split_conditions":[-1.5294198E-4],"split_indices":[0],"split_type":[0],"sum_hessian":[1.3394975E2],"tree_param":{"num_deleted":"0","num_feature":"160","num_nodes":"1","size_leaf_vector":"1"}},{"base_weights":[-1.3850373E-3],"categories":[],"categories_nodes":[],"categories_segments":[],"categories_sizes":[],"default_left":[0],"id":97,"left_children":[-1],"loss_changes":[0E0],"parents":[2147483647],"right_children":[-1],"split_conditions":[-1.3850373E-4],"split_indices":[0],"split_type":[0],"sum_hessian":[1.3395291E2],"tree_param":{"num_deleted":"0","num_feature":"160","num_nodes":"1","size_leaf_vector":"1"}},{"base_weights":[-1.2544618E-3],"categories":[],"categories_nodes":[],"categories_segments":[],"categories_sizes":[],"default_left":[0],"id":98,"left_children":[-1],"loss_changes":[0E0],"parents":[2147483647],"right_children":[-1],"split_conditions":[-1.2544618E-4],"split_indices":[0],"split_type":[0],"sum_hessian":[1.3395576E2],"tree_param":{"num_deleted":"0","num_feature":"160","num_nodes":"1","size_leaf_vector":"1"}},{"base_weights":[-1.1359121E-3],"categories":[],"categories_nodes":[],"categories_segments":[],"categories_sizes":[],"default_left":[0],"id":99,"left_children":[-1],"loss_changes":[0E0],"parents":[2147483647],"right_children":[-1],"split_conditions":[-1.1359122E-4],"split_indices":[0],"split_type":[0],"sum_hessian":[1.3395839E2],"tree_param":{"num_deleted":"0","num_feature":"160","num_nodes":"1","size_leaf_vector":"1"}},{"base_weights":[-1.0289131E-3],"categories":[],"categories_nodes":[],"categories_segments":[],"categories_sizes":[],"default_left":[0],"id":100,"left_children":[-1],"loss_changes":[0E0],"parents":[2147483647],"right_children":[-1],"split_conditions":[-1.0289131E-4],"split_indices":[0],"split_type":[0],"sum_hessian":[1.3396071E2],"tree_param":{"num_deleted":"0","num_feature":"160","num_nodes":"1","size_leaf_vector":"1"}},{"base_weights":[-9.317154E-4],"categories":[],"categories_nodes":[],"categories_segments":[],"categories_sizes":[],"default_left":[0],"id":101,"left_children":[-1],"loss_changes":[0E0],"parents":[2147483647],"right_children":[-1],"split_conditions":[-9.317154E-5],"split_indices":[0],"split_type":[0],"sum_hessian":[1.3396284E2],"tree_param":{"num_deleted":"0","num_feature":"160","num_nodes":"1","size_leaf_vector":"1"}},{"base_weights":[-8.439677E-4],"categories":[],"categories_nodes":[],"categories_segments":[],"categories_sizes":[],"default_left":[0],"id":102,"left_children":[-1],"loss_changes":[0E0],"parents":[2147483647],"right_children":[-1],"split_conditions":[-8.439677E-5],"split_indices":[0],"split_type":[0],"sum_hessian":[1.3396475E2],"tree_param":{"num_deleted":"0","num_feature":"160","num_nodes":"1","size_leaf_vector":"1"}},{"base_weights":[-7.6416746E-4],"categories":[],"categories_nodes":[],"categories_segments":[],"categories_sizes":[],"default_left":[0],"id":103,"left_children":[-1],"loss_changes":[0E0],"parents":[2147483647],"right_children":[-1],"split_conditions":[-7.641675E-5],"split_indices":[0],"split_type":[0],"sum_hessian":[1.3396652E2],"tree_param":{"num_deleted":"0","num_feature":"160","num_nodes":"1","size_leaf_vector":"1"}},{"base_weights":[-6.920225E-4],"categories":[],"categories_nodes":[],"categories_segments":[],"categories_sizes":[],"default_left":[0],"id":104,"left_children":[-1],"loss_changes":[0E0],"parents":[2147483647],"right_children":[-1],"split_conditions":[-6.920225E-5],"split_indices":[0],"split_type":[0],"sum_hessian":[1.3396811E2],"tree_param":{"num_deleted":"0","num_feature":"160","num_nodes":"1","size_leaf_vector":"1"}},{"base_weights":[-6.265944E-4],"categories":[],"categories_nodes":[],"categories_segments":[],"categories_sizes":[],"default_left":[0],"id":105,"left_children":[-1],"loss_changes":[0E0],"parents":[2147483647],"right_children":[-1],"split_conditions":[-6.265944E-5],"split_indices":[0],"split_type":[0],"sum_hessian":[1.3396956E2],"tree_param":{"num_deleted":"0","num_feature":"160","num_nodes":"1","size_leaf_vector":"1"}},{"base_weights":[-5.6745927E-4],"categories":[],"categories_nodes":[],"categories_segments":[],"categories_sizes":[],"default_left":[0],"id":106,"left_children":[-1],"loss_changes":[0E0],"parents":[2147483647],"right_children":[-1],"split_conditions":[-5.674593E-5],"split_indices":[0],"split_type":[0],"sum_hessian":[1.3397086E2],"tree_param":{"num_deleted":"0","num_feature":"160","num_nodes":"1","size_leaf_vector":"1"}},{"base_weights":[-5.140336E-4],"categories":[],"categories_nodes":[],"categories_segments":[],"categories_sizes":[],"default_left":[0],"id":107,"left_children":[-1],"loss_changes":[0E0],"parents":[2147483647],"right_children":[-1],"split_conditions":[-5.140336E-5],"split_indices":[0],"split_type":[0],"sum_hessian":[1.3397202E2],"tree_param":{"num_deleted":"0","num_feature":"160","num_nodes":"1","size_leaf_vector":"1"}},{"base_weights":[-4.6550133E-4],"categories":[],"categories_nodes":[],"categories_segments":[],"categories_sizes":[],"default_left":[0],"id":108,"left_children":[-1],"loss_changes":[0E0],"parents":[2147483647],"right_children":[-1],"split_conditions":[-4.6550133E-5],"split_indices":[0],"split_type":[0],"sum_hessian":[1.3397308E2],"tree_param":{"num_deleted":"0","num_feature":"160","num_nodes":"1","size_leaf_vector":"1"}},{"base_weights":[-4.2131552E-4],"categories":[],"categories_nodes":[],"categories_segments":[],"categories_sizes":[],"default_left":[0],"id":109,"left_children":[-1],"loss_changes":[0E0],"parents":[2147483647],"right_children":[-1],"split_conditions":[-4.2131553E-5],"split_indices":[0],"split_type":[0],"sum_hessian":[1.3397408E2],"tree_param":{"num_deleted":"0","num_feature":"160","num_nodes":"1","size_leaf_vector":"1"}},{"base_weights":[-3.8169435E-4],"categories":[],"categories_nodes":[],"categories_segments":[],"categories_sizes":[],"default_left":[0],"id":110,"left_children":[-1],"loss_changes":[0E0],"parents":[2147483647],"right_children":[-1],"split_conditions":[-3.8169437E-5],"split_indices":[0],"split_type":[0],"sum_hessian":[1.3397495E2],"tree_param":{"num_deleted":"0","num_feature":"160","num_nodes":"1","size_leaf_vector":"1"}},{"base_weights":[-3.4561454E-4],"categories":[],"categories_nodes":[],"categories_segments":[],"categories_sizes":[],"default_left":[0],"id":111,"left_children":[-1],"loss_changes":[0E0],"parents":[2147483647],"right_children":[-1],"split_conditions":[-3.4561454E-5],"split_indices":[0],"split_type":[0],"sum_hessian":[1.3397574E2],"tree_param":{"num_deleted":"0","num_feature":"160","num_nodes":"1","size_leaf_vector":"1"}},{"base_weights":[-3.1330375E-4],"categories":[],"categories_nodes":[],"categories_segments":[],"categories_sizes":[],"default_left":[0],"id":112,"left_children":[-1],"loss_changes":[0E0],"parents":[2147483647],"right_children":[-1],"split_conditions":[-3.1330375E-5],"split_indices":[0],"split_type":[0],"sum_hessian":[1.3397643E2],"tree_param":{"num_deleted":"0","num_feature":"160","num_nodes":"1","size_leaf_vector":"1"}},{"base_weights":[-2.835848E-4],"categories":[],"categories_nodes":[],"categories_segments":[],"categories_sizes":[],"default_left":[0],"id":113,"left_children":[-1],"loss_changes":[0E0],"parents":[2147483647],"right_children":[-1],"split_conditions":[-2.8358481E-5],"split_indices":[0],"split_type":[0],"sum_hessian":[1.339771E2],"tree_param":{"num_deleted":"0","num_feature":"160","num_nodes":"1","size_leaf_vector":"1"}},{"base_weights":[-2.567542E-4],"categories":[],"categories_nodes":[],"categories_segments":[],"categories_sizes":[],"default_left":[0],"id":114,"left_children":[-1],"loss_changes":[0E0],"parents":[2147483647],"right_children":[-1],"split_conditions":[-2.567542E-5],"split_indices":[0],"split_type":[0],"sum_hessian":[1.339777E2],"tree_param":{"num_deleted":"0","num_feature":"160","num_nodes":"1","size_leaf_vector":"1"}},{"base_weights":[-2.3247424E-4],"categories":[],"categories_nodes":[],"categories_segments":[],"categories_sizes":[],"default_left":[0],"id":115,"left_children":[-1],"loss_changes":[0E0],"parents":[2147483647],"right_children":[-1],"split_conditions":[-2.3247425E-5],"split_indices":[0],"split_type":[0],"sum_hessian":[1.3397823E2],"tree_param":{"num_deleted":"0","num_feature":"160","num_nodes":"1","size_leaf_vector":"1"}},{"base_weights":[-2.1050582E-4],"categories":[],"categories_nodes":[],"categories_segments":[],"categories_sizes":[],"default_left":[0],"id":116,"left_children":[-1],"loss_changes":[0E0],"parents":[2147483647],"right_children":[-1],"split_conditions":[-2.1050582E-5],"split_indices":[0],"split_type":[0],"sum_hessian":[1.3397871E2],"tree_param":{"num_deleted":"0","num_feature":"160","num_nodes":"1","size_leaf_vector":"1"}},{"base_weights":[-1.9076777E-4],"categories":[],"categories_nodes":[],"categories_segments":[],"categories_sizes":[],"default_left":[0],"id":117,"left_children":[-1],"loss_changes":[0E0],"parents":[2147483647],"right_children":[-1],"split_conditions":[-1.9076777E-5],"split_indices":[0],"split_type":[0],"sum_hessian":[1.3397914E2],"tree_param":{"num_deleted":"0","num_feature":"160","num_nodes":"1","size_leaf_vector":"1"}},{"base_weights":[-1.7284187E-4],"categories":[],"categories_nodes":[],"categories_segments":[],"categories_sizes":[],"default_left":[0],"id":118,"left_children":[-1],"loss_changes":[0E0],"parents":[2147483647],"right_children":[-1],"split_conditions":[-1.7284188E-5],"split_indices":[0],"split_type":[0],"sum_hessian":[1.3397952E2],"tree_param":{"num_deleted":"0","num_feature":"160","num_nodes":"1","size_leaf_vector":"1"}},{"base_weights":[-1.5664633E-4],"categories":[],"categories_nodes":[],"categories_segments":[],"categories_sizes":[],"default_left":[0],"id":119,"left_children":[-1],"loss_changes":[0E0],"parents":[2147483647],"right_children":[-1],"split_conditions":[-1.5664633E-5],"split_indices":[0],"split_type":[0],"sum_hessian":[1.3397987E2],"tree_param":{"num_deleted":"0","num_feature":"160","num_nodes":"1","size_leaf_vector":"1"}},{"base_weights":[-1.418149E-4],"categories":[],"categories_nodes":[],"categories_segments":[],"categories_sizes":[],"default_left":[0],"id":120,"left_children":[-1],"loss_changes":[0E0],"parents":[2147483647],"right_children":[-1],"split_conditions":[-1.4181491E-5],"split_indices":[0],"split_type":[0],"sum_hessian":[1.3398021E2],"tree_param":{"num_deleted":"0","num_feature":"160","num_nodes":"1","size_leaf_vector":"1"}},{"base_weights":[-1.2847895E-4],"categories":[],"categories_nodes":[],"categories_segments":[],"categories_sizes":[],"default_left":[0],"id":121,"left_children":[-1],"loss_changes":[0E0],"parents":[2147483647],"right_children":[-1],"split_conditions":[-1.2847895E-5],"split_indices":[0],"split_type":[0],"sum_hessian":[1.339805E2],"tree_param":{"num_deleted":"0","num_feature":"160","num_nodes":"1","size_leaf_vector":"1"}},{"base_weights":[-1.1605995E-4],"categories":[],"categories_nodes":[],"categories_segments":[],"categories_sizes":[],"default_left":[0],"id":122,"left_children":[-1],"loss_changes":[0E0],"parents":[2147483647],"right_children":[-1],"split_conditions":[-1.16059955E-5],"split_indices":[0],"split_type":[0],"sum_hessian":[1.3398079E2],"tree_param":{"num_deleted":"0","num_feature":"160","num_nodes":"1","size_leaf_vector":"1"}},{"base_weights":[-1.0505782E-4],"categories":[],"categories_nodes":[],"categories_segments":[],"categories_sizes":[],"default_left":[0],"id":123,"left_children":[-1],"loss_changes":[0E0],"parents":[2147483647],"right_children":[-1],"split_conditions":[-1.05057825E-5],"split_indices":[0],"split_type":[0],"sum_hessian":[1.3398105E2],"tree_param":{"num_deleted":"0","num_feature":"160","num_nodes":"1","size_leaf_vector":"1"}},{"base_weights":[-9.525242E-5],"categories":[],"categories_nodes":[],"categories_segments":[],"categories_sizes":[],"default_left":[0],"id":124,"left_children":[-1],"loss_changes":[0E0],"parents":[2147483647],"right_children":[-1],"split_conditions":[-9.525243E-6],"split_indices":[0],"split_type":[0],"sum_hessian":[1.3398125E2],"tree_param":{"num_deleted":"0","num_feature":"160","num_nodes":"1","size_leaf_vector":"1"}},{"base_weights":[-8.6226224E-5],"categories":[],"categories_nodes":[],"categories_segments":[],"categories_sizes":[],"default_left":[0],"id":125,"left_children":[-1],"loss_changes":[0E0],"parents":[2147483647],"right_children":[-1],"split_conditions":[-8.622623E-6],"split_indices":[0],"split_type":[0],"sum_hessian":[1.3398146E2],"tree_param":{"num_deleted":"0","num_feature":"160","num_nodes":"1","size_leaf_vector":"1"}},{"base_weights":[-7.8265984E-5],"categories":[],"categories_nodes":[],"categories_segments":[],"categories_sizes":[],"default_left":[0],"id":126,"left_children":[-1],"loss_changes":[0E0],"parents":[2147483647],"right_children":[-1],"split_conditions":[-7.826598E-6],"split_indices":[0],"split_type":[0],"sum_hessian":[1.3398161E2],"tree_param":{"num_deleted":"0","num_feature":"160","num_nodes":"1","size_leaf_vector":"1"}},{"base_weights":[-7.0930866E-5],"categories":[],"categories_nodes":[],"categories_segments":[],"categories_sizes":[],"default_left":[0],"id":127,"left_children":[-1],"loss_changes":[0E0],"parents":[2147483647],"right_children":[-1],"split_conditions":[-7.093087E-6],"split_indices":[0],"split_type":[0],"sum_hessian":[1.3398177E2],"tree_param":{"num_deleted":"0","num_feature":"160","num_nodes":"1","size_leaf_vector":"1"}},{"base_weights":[-6.42764E-5],"categories":[],"categories_nodes":[],"categories_segments":[],"categories_sizes":[],"default_left":[0],"id":128,"left_children":[-1],"loss_changes":[0E0],"parents":[2147483647],"right_children":[-1],"split_conditions":[-6.42764E-6],"split_indices":[0],"split_type":[0],"sum_hessian":[1.339819E2],"tree_param":{"num_deleted":"0","num_feature":"160","num_nodes":"1","size_leaf_vector":"1"}},{"base_weights":[-5.8156253E-5],"categories":[],"categories_nodes":[],"categories_segments":[],"categories_sizes":[],"default_left":[0],"id":129,"left_children":[-1],"loss_changes":[0E0],"parents":[2147483647],"right_children":[-1],"split_conditions":[-5.815625E-6],"split_indices":[0],"split_type":[0],"sum_hessian":[1.3398206E2],